2.430490851402282715e-01
7.169312983751296997e-02
-1.348802149295806885e-01
2.499018758535385132e-01
1.375861912965774536e-01
2.055255025625228882e-01
1.819784753024578094e-02
8.303440362215042114e-02
4.176963493227958679e-02
2.070259861648082733e-02
5.581973120570182800e-02
1.192530021071434021e-01
-3.028495013713836670e-01
-4.472855478525161743e-02
-1.171031147241592407e-01
-2.491306960582733154e-01
-5.253836512565612793e-02
7.550969719886779785e-02
6.131005939096212387e-04
2.686589360237121582e-01
6.389678269624710083e-02
1.134136095643043518e-01
3.635236527770757675e-03
1.374582946300506592e-01
4.497074335813522339e-02
-1.262177079916000366e-01
4.280518274754285812e-03
7.855988293886184692e-02
9.402963519096374512e-02
-1.621434241533279419e-01
6.305778026580810547e-02
-8.199314773082733154e-02
-7.012689113616943359e-02
3.193388506770133972e-02
3.645843267440795898e-02
-4.000280797481536865e-02
6.876123696565628052e-02
-5.595201998949050903e-02
-1.379016637802124023e-01
-1.406508088111877441e-01
1.322458982467651367e-01
4.137959331274032593e-02
1.231372803449630737e-01
5.234215408563613892e-02
-1.398562490940093994e-01
5.234796553850173950e-02
-1.383982896804809570e-01
2.257148921489715576e-01
6.034930050373077393e-02
3.075014352798461914e-01
1.270271092653274536e-01
2.666786313056945801e-01
2.874551713466644287e-01
2.151398807764053345e-01
-9.596265852451324463e-02
-1.684579551219940186e-01
-1.080470392480492592e-03
-1.183318421244621277e-01
-2.176440320909023285e-03
1.822740137577056885e-01
2.182955294847488403e-01
-4.124220609664916992e-01
-1.810239814221858978e-02
1.001451462507247925e-01
4.797901492565870285e-03
-4.276274237781763077e-03
-1.205935552716255188e-01
1.652125865221023560e-01
-2.221906334161758423e-01
-3.755136206746101379e-02
5.098230671137571335e-03
2.801558375358581543e-01
-5.049044638872146606e-02
-1.607139855623245239e-01
-1.667528748512268066e-01
-4.520924761891365051e-02
1.823749989271163940e-01
-2.168245427310466766e-02
4.189905896782875061e-02
-1.720489934086799622e-02
1.882187128067016602e-01
2.565788291394710541e-02
8.800294250249862671e-02
-8.025998622179031372e-02
3.069587238132953644e-02
1.123939976096153259e-01
5.395174375735223293e-04
5.819692462682723999e-02
-5.448765307664871216e-02
-1.527194585651159286e-02
-5.578064918518066406e-02
-1.574674099683761597e-01
-2.317476645112037659e-02
-2.076622992753982544e-01
-1.753610521554946899e-01
2.265884131193161011e-01
-5.334686115384101868e-02
-3.187356516718864441e-02
-2.769047021865844727e-01
-1.022829487919807434e-01
2.580798566341400146e-01
-4.066799953579902649e-02
1.591686606407165527e-01
-2.284266054630279541e-01
1.297385711222887039e-02
1.076947078108787537e-01
2.868658304214477539e-01
1.124061197042465210e-01
-1.562796905636787415e-02
1.905993223190307617e-01
1.996356099843978882e-01
7.597440481185913086e-02
4.969824850559234619e-02
-3.000777401030063629e-02
1.409584879875183105e-01
1.419020146131515503e-01
8.127652853727340698e-02
-1.002151891589164734e-01
-1.569276861846446991e-02
-6.328974384814500809e-03
3.399145901203155518e-01
-9.116306900978088379e-02
-2.378565669059753418e-01
4.693134222179651260e-03
1.455868333578109741e-01
-6.793880462646484375e-02
-2.361186295747756958e-01
7.040546834468841553e-02
-2.328514009714126587e-01
4.688370600342750549e-02
-2.046983502805233002e-02
1.384479552507400513e-01
-1.142962276935577393e-01
-5.974395200610160828e-02
-8.853103965520858765e-02
-1.308653950691223145e-01
1.352031230926513672e-01
-1.452854573726654053e-01
1.470493078231811523e-01
-5.127406120300292969e-02
1.318104565143585205e-01
1.977317929267883301e-01
-2.453203313052654266e-03
-1.869809925556182861e-01
-1.709751486778259277e-01
3.721626475453376770e-02
-1.625392735004425049e-01
-3.429468022659420967e-03
2.680715322494506836e-01
1.296451389789581299e-01
-2.251604944467544556e-01
2.411822788417339325e-02
8.928724564611911774e-03
-9.891131520271301270e-02
2.180345803499221802e-01
8.938359469175338745e-02
1.828788369894027710e-01
-2.190303504467010498e-01
5.270821601152420044e-02
1.234835833311080933e-01
-3.914438784122467041e-01
-1.423372030258178711e-01
2.299344688653945923e-01
-1.196513995528221130e-01
-3.236950933933258057e-01
-7.021671533584594727e-02
1.457976400852203369e-01
1.065607815980911255e-01
-8.330413699150085449e-02
4.841793794184923172e-03
4.542416334152221680e-02
1.631789281964302063e-02
-2.255121916532516479e-01
-8.943021297454833984e-03
2.862758040428161621e-01
-1.640889346599578857e-01
1.258239001035690308e-01
1.095023099333047867e-02
-1.445019096136093140e-01
5.524842534214258194e-03
-1.343030482530593872e-01
2.852285839617252350e-02
8.524212241172790527e-02
-1.060835868120193481e-01
1.408110857009887695e-01
8.918005228042602539e-02
1.294098496437072754e-01
9.712836146354675293e-02
-1.157166361808776855e-01
-6.274703145027160645e-02
1.563054621219635010e-01
-2.395170032978057861e-01
-1.251050084829330444e-01
2.555581927299499512e-01
-8.814235776662826538e-02
-2.552513778209686279e-01
1.849960088729858398e-01
1.125769689679145813e-02
-2.469505816698074341e-01
-5.540426820516586304e-02
-2.015530169010162354e-01
-7.294669747352600098e-02
-3.889616206288337708e-02
2.067442387342453003e-01
-1.030749976634979248e-01
1.064406856894493103e-01
-2.255969122052192688e-02
1.055407896637916565e-01
1.162115782499313354e-01
8.155877888202667236e-02
1.441747248172760010e-01
2.136989384889602661e-01
1.881915032863616943e-01
-1.028481572866439819e-01
5.650313571095466614e-03
-1.314948499202728271e-01
6.108134239912033081e-02
-1.103330850601196289e-01
2.962116003036499023e-01
-1.413368582725524902e-01
-7.436871528625488281e-02
6.841496378183364868e-02
2.762269675731658936e-01
-1.255353689193725586e-01
1.581690907478332520e-01
-5.180576443672180176e-02
7.627674192190170288e-02
-7.614519447088241577e-02
9.122989326715469360e-02
-1.358249969780445099e-02
1.802220493555068970e-01
1.182534247636795044e-01
-7.243445515632629395e-02
1.562306731939315796e-01
-9.293645620346069336e-02
1.603644937276840210e-01
-4.016617685556411743e-02
1.584421545267105103e-01
1.989101618528366089e-01
2.181143015623092651e-01
2.004422806203365326e-02
-8.532297611236572266e-02
2.014812678098678589e-01
2.848730087280273438e-01
-1.564954221248626709e-01
-1.412081271409988403e-01
1.988565623760223389e-01
2.088821828365325928e-01
-1.082503981888294220e-02
-8.654770255088806152e-02
-1.269503682851791382e-01
2.257654517889022827e-01
1.577931046485900879e-01
-4.782143607735633850e-02
5.177121236920356750e-02
1.138502433896064758e-01
2.463997304439544678e-01
4.501757677644491196e-03
1.378441751003265381e-01
-1.236793398857116699e-02
5.376141890883445740e-02
-1.336738169193267822e-01
6.886281073093414307e-02
-4.785722866654396057e-02
3.210839629173278809e-01
6.680582463741302490e-02
-1.611021608114242554e-01
1.091619804501533508e-01
1.273365914821624756e-01
-1.772862821817398071e-01
1.920085549354553223e-01
1.650664061307907104e-01
-6.716309487819671631e-02
1.122049763798713684e-01
7.096712943166494370e-05
7.596316933631896973e-02
-8.518911153078079224e-02
1.710179448127746582e-02
-1.078854277729988098e-01
-2.409716881811618805e-02
1.368996500968933105e-01
-1.512341797351837158e-01
2.215397357940673828e-01
-1.142354402691125870e-02
-1.313731968402862549e-01
-1.869192719459533691e-01
5.631216801702976227e-03
-1.490003168582916260e-01
-1.522565782070159912e-01
-2.618426457047462463e-02
-2.284924089908599854e-01
-1.813721954822540283e-01
-7.454524189233779907e-02
-1.133309379220008850e-01
-1.516885608434677124e-01
8.839566260576248169e-02
3.855378553271293640e-02
-1.364390403032302856e-01
8.106889575719833374e-02
-1.842258311808109283e-02
-1.330128461122512817e-01
-3.915967419743537903e-02
-7.143533229827880859e-02
2.060455232858657837e-01
-1.832481771707534790e-01
-3.159844577312469482e-01
-3.019511103630065918e-01
-1.406191941350698471e-02
-1.488725543022155762e-01
5.590308085083961487e-02
-9.598748758435249329e-03
-1.222636923193931580e-02
-4.251019563525915146e-03
-1.232802285812795162e-03
-7.877981662750244141e-02
1.694033443927764893e-01
-1.447474211454391479e-01
1.878348141908645630e-01
-5.446324497461318970e-02
-7.760842144489288330e-02
2.288785278797149658e-01
1.462771743535995483e-01
-7.436419278383255005e-02
1.393028646707534790e-01
-4.533549770712852478e-02
-6.776163727045059204e-02
-3.057982586324214935e-02
-2.111598849296569824e-01
-1.611610352993011475e-01
-2.143579125404357910e-01
1.270381361246109009e-01
1.720294356346130371e-01
3.493056818842887878e-02
1.670820415019989014e-01
1.281021833419799805e-01
-6.527725607156753540e-02
-8.573113009333610535e-03
1.932290643453598022e-01
3.014568090438842773e-01
-9.215257316827774048e-02
2.219399958848953247e-01
2.397006452083587646e-01
1.738571673631668091e-01
2.960790693759918213e-02
7.612727582454681396e-02
2.181567996740341187e-01
-2.347203791141510010e-01
1.254383921623229980e-01
2.130123376846313477e-01
1.043288707733154297e-01
-3.242088854312896729e-02
4.426373634487390518e-03
1.900291740894317627e-01
-6.871114671230316162e-02
-1.698516309261322021e-01
1.328005045652389526e-01
1.184400245547294617e-01
-1.786907203495502472e-02
5.031289998441934586e-03
-8.855075575411319733e-03
-5.142879858613014221e-02
1.550536006689071655e-01
-1.952295601367950439e-01
-1.650347858667373657e-01
-8.507716655731201172e-02
1.778005063533782959e-01
2.490313500165939331e-01
-1.896601729094982147e-02
1.200949922204017639e-01
3.309459239244461060e-02
1.077933236956596375e-01
-9.469712525606155396e-02
1.132833138108253479e-01
-7.684923708438873291e-02
1.434279978275299072e-01
7.456046342849731445e-02
1.309825778007507324e-01
-2.349942326545715332e-01
7.119435071945190430e-02
6.624475121498107910e-02
-2.827199362218379974e-02
9.373512864112854004e-02
-1.835148036479949951e-01
1.570045761764049530e-02
-2.056706249713897705e-01
2.520645260810852051e-01
-1.431158185005187988e-01
-5.576471611857414246e-02
-7.907946407794952393e-02
-3.031176328659057617e-01
-2.860705927014350891e-02
-1.405829340219497681e-01
-5.927010998129844666e-02
1.252074688673019409e-01
9.644297510385513306e-02
6.522893160581588745e-02
1.283280551433563232e-01
-1.007657274603843689e-01
-4.680655151605606079e-02
-5.513040348887443542e-02
3.335320353507995605e-01
-1.869664788246154785e-01
3.836527764797210693e-01
1.300875246524810791e-01
1.505118310451507568e-01
-1.132987961173057556e-01
-3.510565161705017090e-01
-2.586431801319122314e-01
-3.242996335029602051e-01
3.862677812576293945e-01
-1.373189985752105713e-01
5.448260530829429626e-02
-1.748994886875152588e-01
4.447416588664054871e-02
4.254032857716083527e-03
-8.223386853933334351e-02
2.553696185350418091e-02
-1.877798698842525482e-02
-2.509429818019270897e-03
1.714654825627803802e-02
-1.670910120010375977e-01
-8.950570970773696899e-02
1.359470635652542114e-01
1.725709438323974609e-01
1.259651482105255127e-01
-6.170367449522018433e-02
-8.326760679483413696e-02
1.486304998397827148e-01
6.094540655612945557e-02
-4.590861499309539795e-03
-2.011138200759887695e-01
-9.610702842473983765e-02
-1.277038455009460449e-01
2.290978729724884033e-01
-9.054929763078689575e-02
-1.371101588010787964e-01
3.300644923001527786e-03
-1.484413594007492065e-01
7.258704397827386856e-03
4.803571850061416626e-02
2.124605700373649597e-03
2.364650517702102661e-01
9.172948449850082397e-02
-2.397289723157882690e-01
-2.113668024539947510e-01
1.403615176677703857e-01
2.027901709079742432e-01
3.070590198040008545e-01
1.037385612726211548e-01
6.373674422502517700e-02
1.079302057623863220e-01
-4.563068971037864685e-02
-8.336924016475677490e-02
5.543477460741996765e-02
-3.669110536575317383e-01
5.490713194012641907e-02
-1.917871385812759399e-01
1.924586892127990723e-01
2.185301482677459717e-01
-3.327839076519012451e-01
-6.886821985244750977e-02
6.888358294963836670e-02
-3.470106795430183411e-02
5.009461566805839539e-02
-1.185945197939872742e-01
1.050515845417976379e-01
-2.443498559296131134e-02
-2.067706361413002014e-02
2.517993450164794922e-01
2.220793999731540680e-02
-9.114528447389602661e-02
-1.556361466646194458e-01
-2.202974110841751099e-01
1.534130722284317017e-01
3.409240022301673889e-02
-1.414473205804824829e-01
-4.085828736424446106e-02
-4.878144338726997375e-02
1.614155024290084839e-01
1.409298926591873169e-01
2.191188335418701172e-01
-1.693458110094070435e-01
-2.465281933546066284e-01
-1.834655702114105225e-01
-2.054048478603363037e-01
-2.468436658382415771e-01
-2.236196994781494141e-01
-1.556553840637207031e-01
9.451261907815933228e-02
-1.807065755128860474e-01
-2.699017524719238281e-02
-3.201361596584320068e-01
-1.349213123321533203e-01
-2.518931329250335693e-01
1.458532959222793579e-01
1.918480843305587769e-01
-3.987181782722473145e-01
6.628303974866867065e-02
-2.438811212778091431e-02
-5.379204452037811279e-02
-2.560822851955890656e-02
2.425594329833984375e-01
-1.787529289722442627e-01
-8.721601217985153198e-02
-1.971136927604675293e-01
3.224386572837829590e-01
-1.093939170241355896e-01
2.750839293003082275e-01
5.112573876976966858e-02
-4.458345845341682434e-02
-1.807721890509128571e-02
1.651539467275142670e-03
1.658006161451339722e-01
4.937825724482536316e-02
2.959699369966983795e-03
-1.021128222346305847e-01
-1.765434443950653076e-02
9.811945259571075439e-02
-4.913639649748802185e-02
-8.734542131423950195e-02
6.066667288541793823e-02
7.405744493007659912e-02
-1.997513622045516968e-01
1.128257662057876587e-01
3.359091281890869141e-02
1.856707483530044556e-01
-1.007933467626571655e-01
-2.850886061787605286e-02
-6.234277784824371338e-02
-3.226852715015411377e-01
-2.831084728240966797e-01
2.227963209152221680e-01
1.050433516502380371e-01
8.670880645513534546e-02
-2.863699495792388916e-01
-1.621968895196914673e-01
-1.331795603036880493e-01
5.120042711496353149e-02
-1.623984426259994507e-01
1.614173799753189087e-01
-4.683337360620498657e-02
-1.292452216148376465e-01
1.648169010877609253e-01
-7.642159610986709595e-02
-1.706687510013580322e-01
1.796051710844039917e-01
5.608462169766426086e-02
6.221712753176689148e-02
2.402646839618682861e-01
1.121040582656860352e-01
2.424232065677642822e-01
4.620076715946197510e-02
8.421877771615982056e-02
1.292256563901901245e-01
-1.166212260723114014e-01
6.450072396546602249e-03
-1.568747609853744507e-01
-1.581649184226989746e-01
-9.425288438796997070e-02
-4.378531873226165771e-02
-9.803661704063415527e-02
-1.211181189864873886e-02
-2.655054256319999695e-02
8.689771406352519989e-03
-8.715471625328063965e-02
-1.630661934614181519e-01
-1.188290119171142578e-01
-1.556058526039123535e-01
1.731776893138885498e-01
-6.126229837536811829e-02
8.439067006111145020e-02
1.789948642253875732e-01
1.178162992000579834e-01
-1.490055024623870850e-01
1.510646641254425049e-01
1.711009144783020020e-01
4.464871808886528015e-02
7.519254833459854126e-02
-4.780170321464538574e-02
4.145072400569915771e-02
3.445146232843399048e-02
-9.515699744224548340e-02
1.042978242039680481e-01
1.786131411790847778e-01
-1.494380384683609009e-01
-1.057749614119529724e-01
-1.122757643461227417e-01
-1.130084320902824402e-01
1.036794632673263550e-01
-4.707607626914978027e-02
-9.322908520698547363e-02
9.044618904590606689e-02
1.011683791875839233e-01
-1.232518777251243591e-01
1.902944147586822510e-01
-1.539150625467300415e-01
-1.823431104421615601e-01
1.820032149553298950e-01
-2.150498330593109131e-01
1.789026856422424316e-01
1.380099207162857056e-01
-1.280501633882522583e-01
4.155349358916282654e-02
1.263620257377624512e-01
-3.552585095167160034e-02
-1.262643039226531982e-01
8.151014894247055054e-02
5.717908218502998352e-02
2.789747156202793121e-02
-5.155692994594573975e-02
-7.814974524080753326e-03
-7.008450478315353394e-02
-5.640493705868721008e-02
6.627817451953887939e-02
-7.739209383726119995e-02
1.571902632713317871e-01
3.714207932353019714e-02
2.339559420943260193e-02
-3.719121590256690979e-02
-7.159290462732315063e-02
1.999104917049407959e-01
-1.577143073081970215e-01
2.173435091972351074e-01
1.635905802249908447e-01
1.472023874521255493e-01
1.347421556711196899e-01
1.463034898042678833e-01
-5.676715075969696045e-02
-2.307254821062088013e-01
-9.798230230808258057e-02
1.312397569417953491e-01
1.548335999250411987e-01
1.002747043967247009e-01
1.378055959939956665e-01
-1.769441515207290649e-01
9.493206441402435303e-02
3.474616408348083496e-01
5.053862184286117554e-02
3.190042078495025635e-01
-3.373164217919111252e-03
-1.113154068589210510e-01
1.312862783670425415e-01
-4.814667999744415283e-02
-2.012687325477600098e-01
-1.572424471378326416e-01
-1.547629237174987793e-01
-1.023342460393905640e-01
1.152974888682365417e-01
-3.831150382757186890e-02
1.074153035879135132e-01
1.475834548473358154e-01
2.741059474647045135e-02
3.648472204804420471e-02
3.639522939920425415e-02
-2.562133073806762695e-01
-1.912432163953781128e-01
2.020657248795032501e-02
3.834563121199607849e-02
9.869752079248428345e-02
-1.212387606501579285e-01
1.184385865926742554e-01
5.860105901956558228e-02
2.433313988149166107e-02
-1.631286591291427612e-01
9.908182173967361450e-02
1.349347382783889771e-01
-4.948655515909194946e-02
-1.007721945643424988e-01
-5.028147250413894653e-02
2.046053111553192139e-01
-1.030636951327323914e-01
1.195966079831123352e-01
-2.027874439954757690e-02
-1.520388722419738770e-01
-7.794616371393203735e-02
-1.422275602817535400e-01
2.220050394535064697e-01
3.266123589128255844e-03
1.971544623374938965e-01
2.415358424186706543e-01
-1.120722219347953796e-01
-3.807212784886360168e-02
-1.217915266752243042e-01
1.806075423955917358e-01
1.694535911083221436e-01
1.818604469299316406e-01
2.141335755586624146e-01
4.362051561474800110e-02
-2.145006507635116577e-01
6.305477768182754517e-02
6.361615657806396484e-02
-2.045331150293350220e-01
-2.417387962341308594e-01
-2.074075937271118164e-01
1.103305518627166748e-01
-7.967414334416389465e-03
-8.088109642267227173e-02
1.991985142230987549e-01
-2.225148826837539673e-01
-2.414160780608654022e-02
-1.880715787410736084e-01
-1.150935515761375427e-02
1.342192888259887695e-01
1.566966027021408081e-01
5.222556367516517639e-02
-1.371403411030769348e-02
-3.318793373182415962e-03
1.016462370753288269e-01
7.884823530912399292e-02
-2.456340938806533813e-02
-3.662081202492117882e-03
-1.722120046615600586e-01
1.565948128700256348e-01
-2.221867144107818604e-01
1.451690196990966797e-01
1.663845181465148926e-01
-4.011871293187141418e-02
1.931995153427124023e-01
1.259842216968536377e-01
1.818245053291320801e-01
1.229950338602066040e-01
5.929410085082054138e-02
-3.101356625556945801e-01
2.129402011632919312e-01
6.846059858798980713e-02
-1.392717957496643066e-01
9.532569348812103271e-02
2.046232372522354126e-01
-5.303163081407546997e-03
-1.677602082490921021e-01
1.368189305067062378e-01
-1.111341267824172974e-01
-2.434038519859313965e-01
5.859364196658134460e-02
1.804749965667724609e-01
-8.377964794635772705e-02
1.435317993164062500e-01
5.360790714621543884e-02
-1.667718142271041870e-01
-4.843953996896743774e-02
-2.433046549558639526e-01
1.125662028789520264e-01
1.821128129959106445e-01
8.036821335554122925e-02
3.464626967906951904e-01
-6.823747605085372925e-02
-9.415474534034729004e-02
-1.239854842424392700e-01
3.849189728498458862e-02
5.724888294935226440e-02
-8.254724740982055664e-02
1.300909221172332764e-01
-5.921666696667671204e-02
-1.305494755506515503e-01
2.193862805142998695e-03
1.985740102827548981e-02
5.667472630739212036e-02
3.285956010222434998e-02
-1.336019188165664673e-01
-9.723140299320220947e-02
2.297324389219284058e-01
-3.850045800209045410e-02
1.543220132589340210e-01
1.710844188928604126e-01
-1.611102968454360962e-01
-1.865067034959793091e-01
5.820067226886749268e-02
1.485670953989028931e-01
-2.245188206434249878e-01
-1.011233255267143250e-01
-4.459550604224205017e-02
1.195588037371635437e-01
5.005117505788803101e-02
2.367933243513107300e-01
-1.005421429872512817e-01
1.891932487487792969e-01
-4.110182449221611023e-02
-3.135635852813720703e-01
-2.334744781255722046e-01
7.269409298896789551e-02
8.122070692479610443e-03
-3.899747133255004883e-02
-1.469094157218933105e-01
1.163794472813606262e-02
7.957225292921066284e-02
2.874435782432556152e-01
-9.642346948385238647e-02
8.869439363479614258e-02
2.956406176090240479e-01
1.418414562940597534e-01
-8.765938133001327515e-02
-5.868077278137207031e-02
1.605542749166488647e-01
-1.893957257270812988e-01
-2.526276409626007080e-01
-1.465891301631927490e-01
1.453248709440231323e-01
6.186615303158760071e-02
1.996792554855346680e-01
2.322104759514331818e-02
5.828521773219108582e-02
5.040355958044528961e-03
-6.497799605131149292e-02
-1.802258491516113281e-01
1.474393159151077271e-01
4.188687726855278015e-02
-1.808879524469375610e-02
3.248173370957374573e-02
-9.376616775989532471e-02
3.864623233675956726e-02
5.396592244505882263e-02
2.403472363948822021e-01
1.692805290222167969e-01
-1.505936682224273682e-01
5.477969720959663391e-02
-4.905467852950096130e-02
1.626809686422348022e-01
-6.992430891841650009e-03
2.140202373266220093e-02
-1.765932738780975342e-01
-1.226193085312843323e-01
1.512025147676467896e-01
-2.667739987373352051e-01
-2.547557353973388672e-01
2.168561369180679321e-01
3.127620369195938110e-02
-1.734970211982727051e-01
-2.465082705020904541e-01
4.840954765677452087e-02
-3.956069704145193100e-03
-2.933448739349842072e-02
-1.828100718557834625e-02
-6.626047939062118530e-02
1.091913208365440369e-01
-3.520190715789794922e-01
1.278950870037078857e-01
2.937585711479187012e-01
-1.843332201242446899e-01
1.253905445337295532e-01
1.672720462083816528e-01
7.250159513205289841e-03
1.336164120584726334e-02
1.842992603778839111e-01
-1.725499778985977173e-01
1.193347573280334473e-01
-2.172632664442062378e-01
-1.795744597911834717e-01
1.602345257997512817e-01
-1.078713014721870422e-01
1.758447848260402679e-02
6.488347798585891724e-02
1.424091402441263199e-03
-2.574545145034790039e-02
-8.799612522125244141e-03
-1.525543630123138428e-01
-1.283185333013534546e-01
6.589099019765853882e-02
1.150813177227973938e-01
1.205886974930763245e-01
4.791684821248054504e-02
1.914441436529159546e-01
7.594149559736251831e-03
-1.453025490045547485e-01
2.098900824785232544e-01
1.690237224102020264e-01
-5.152440443634986877e-02
-4.571062028408050537e-01
-1.471931338310241699e-01
-1.089554727077484131e-01
-4.923679232597351074e-01
1.938198059797286987e-01
1.028422117233276367e-01
1.710746884346008301e-01
-2.061511129140853882e-01
1.472322642803192139e-01
-2.655920386314392090e-01
2.111781686544418335e-01
2.518229782581329346e-01
1.273517310619354248e-01
5.401966348290443420e-02
1.220207810401916504e-01
-1.562234312295913696e-01
-2.604489624500274658e-01
2.787467092275619507e-02
-7.577356696128845215e-02
-9.274859726428985596e-02
-1.742583215236663818e-01
1.996298432350158691e-01
2.402853518724441528e-01
-3.239645436406135559e-02
-2.727329172194004059e-02
1.954535394906997681e-02
1.255581825971603394e-01
7.699333131313323975e-02
9.619972109794616699e-02
-1.960217207670211792e-01
5.982546135783195496e-02
-2.264118753373622894e-02
5.889960564672946930e-03
-6.396482139825820923e-02
8.772468566894531250e-02
-8.450299501419067383e-02
-1.506922245025634766e-01
1.108640208840370178e-01
-8.534801751375198364e-02
-1.101747676730155945e-01
-9.867300838232040405e-02
-7.800281792879104614e-02
-6.255092471837997437e-02
8.601305633783340454e-02
-4.468895867466926575e-02
-9.983953088521957397e-02
1.517273038625717163e-01
-2.217430174350738525e-01
-1.055708900094032288e-01
1.718997508287429810e-01
-1.675727814435958862e-01
-1.847031414508819580e-01
-8.474290370941162109e-03
-6.624880433082580566e-02
1.171571239829063416e-01
-5.106130242347717285e-02
6.736833602190017700e-02
1.890252530574798584e-01
1.033500581979751587e-01
1.277780393138527870e-03
-2.127284109592437744e-01
4.808361642062664032e-03
-1.538437455892562866e-01
-3.129895329475402832e-01
-7.024683803319931030e-02
-2.844546921551227570e-02
7.983608543872833252e-02
-7.299299538135528564e-02
-3.450952842831611633e-02
-1.714554131031036377e-01
-2.103910893201828003e-01
1.420021653175354004e-01
1.982524991035461426e-01
1.206067353487014771e-01
-1.215186417102813721e-01
-2.138340771198272705e-01
7.115118205547332764e-02
-1.619743257761001587e-01
-2.900023162364959717e-01
3.618709743022918701e-02
-1.863856017589569092e-01
-2.544551528990268707e-02
9.988054633140563965e-03
-1.125311031937599182e-01
1.935230046510696411e-01
1.136439964175224304e-01
-3.492217510938644409e-02
1.214789524674415588e-01
-2.321733385324478149e-01
1.317391544580459595e-01
-2.026920467615127563e-01
1.581204682588577271e-01
-2.388359755277633667e-01
1.868004947900772095e-01
-3.333909213542938232e-01
-1.320731192827224731e-01
5.967545509338378906e-02
-3.028607368469238281e-01
-8.203922957181930542e-02
1.730446070432662964e-01
-1.205671951174736023e-01
-1.883148699998855591e-01
-1.265669912099838257e-01
-3.043711185455322266e-01
-1.957972943782806396e-01
1.750292778015136719e-01
-3.024126589298248291e-01
-2.171457111835479736e-01
-9.125788509845733643e-02
1.114095970988273621e-01
-1.529625151306390762e-02
3.279487192630767822e-01
-8.930038660764694214e-02
1.022801846265792847e-01
-1.807610094547271729e-01
-1.033381791785359383e-03
-1.076521128416061401e-01
-2.023256272077560425e-01
-2.517402470111846924e-01
1.232444867491722107e-01
-3.451576530933380127e-01
6.698396056890487671e-03
-1.055111661553382874e-01
-3.384975716471672058e-02
2.046598196029663086e-01
-1.859684884548187256e-01
-2.148241735994815826e-02
-1.830274164676666260e-01
-1.799516752362251282e-02
-1.140392422676086426e-01
-1.437999010086059570e-01
1.957780867815017700e-02
6.125177815556526184e-02
2.603950202465057373e-01
1.079550758004188538e-02
9.333095699548721313e-02
-7.516827434301376343e-02
1.222157552838325500e-01
-1.883545517921447754e-01
-7.090454548597335815e-02
-1.442161202430725098e-01
-1.736339926719665527e-01
1.436693072319030762e-01
-1.603590138256549835e-02
5.301354918628931046e-03
-1.350225210189819336e-01
2.715644240379333496e-01
-8.322436362504959106e-02
1.139673739671707153e-01
1.790581941604614258e-01
-9.768015705049037933e-03
8.849699050188064575e-02
-1.543669551610946655e-01
-8.842802792787551880e-02
-1.260019093751907349e-01
-3.610464334487915039e-01
-7.258233614265918732e-03
4.003857821226119995e-02
2.014545500278472900e-01
-7.856227457523345947e-04
1.726371347904205322e-01
2.569673359394073486e-01
-9.067697077989578247e-02
8.002935349941253662e-02
5.110163241624832153e-02
1.225466877222061157e-01
-3.073144257068634033e-01
-1.101948767900466919e-01
2.299681901931762695e-01
-7.764021307229995728e-02
2.315574139356613159e-02
-1.314796060323715210e-01
-2.480252832174301147e-01
-4.819447547197341919e-02
8.419626392424106598e-03
1.711763739585876465e-01
2.991854958236217499e-02
-2.359563112258911133e-01
-1.453539282083511353e-01
-1.313303261995315552e-01
6.852769851684570312e-02
3.599334973841905594e-03
-2.240701168775558472e-01
7.232164591550827026e-02
1.037706527858972549e-02
1.128534451127052307e-01
-2.457468584179878235e-02
2.204624861478805542e-01
-6.381192803382873535e-02
-4.630450531840324402e-02
1.594574600458145142e-01
-1.944334656000137329e-01
-1.687055081129074097e-02
1.390624418854713440e-02
7.148723304271697998e-02
1.882824674248695374e-02
-4.826591908931732178e-02
-2.518434226512908936e-01
-2.200975269079208374e-01
-2.003809511661529541e-01
1.773952990770339966e-01
3.066542558372020721e-02
-7.389865070581436157e-02
-1.112871319055557251e-01
-1.787241399288177490e-01
-8.659517765045166016e-02
-3.604859858751296997e-02
-1.392996758222579956e-01
-2.515782117843627930e-01
-1.105569526553153992e-01
1.525560915470123291e-01
-2.086346596479415894e-01
-2.323935180902481079e-01
2.515798211097717285e-01
2.936953306198120117e-01
2.762865126132965088e-01
8.947872370481491089e-02
1.347964815795421600e-02
-4.298935085535049438e-02
-5.517223104834556580e-02
7.651250809431076050e-02
-9.194267913699150085e-03
-1.446879352442920208e-03
-7.002042233943939209e-02
-5.123059265315532684e-03
-6.846900284290313721e-02
5.542320758104324341e-02
-1.080362219363451004e-02
8.047962933778762817e-02
-2.514140605926513672e-01
1.465620398521423340e-01
1.617432534694671631e-01
2.097367942333221436e-01
1.634731888771057129e-01
1.298160254955291748e-01
4.024236649274826050e-02
1.798074245452880859e-01
8.581189811229705811e-02
1.422381252050399780e-01
4.153284430503845215e-02
1.849499940872192383e-01
8.327690511941909790e-02
-1.662836819887161255e-01
1.124722138047218323e-01
-2.289075851440429688e-01
-1.927040219306945801e-01
3.938241675496101379e-02
-1.919952034950256348e-01
2.049621492624282837e-01
1.838215440511703491e-01
-2.671231925487518311e-01
-1.267738174647092819e-03
-1.061933562159538269e-01
1.483958661556243896e-01
2.191589027643203735e-02
-4.107619076967239380e-02
-3.259527087211608887e-01
-1.525260657072067261e-01
-7.966476678848266602e-02
-9.375374019145965576e-02
1.744526438415050507e-02
1.353688538074493408e-01
-2.090020924806594849e-01
-6.041659414768218994e-02
-5.695665627717971802e-02
3.954986855387687683e-02
-5.938874185085296631e-02
-1.731738597154617310e-01
-5.848734080791473389e-02
7.032762467861175537e-02
-2.284392900764942169e-02
-8.568353950977325439e-02
-1.657703518867492676e-02
-5.400017276406288147e-02
-5.587792396545410156e-02
2.896463125944137573e-02
-1.910244696773588657e-03
-1.386694312095642090e-01
1.178225427865982056e-01
2.195279598236083984e-01
2.379433512687683105e-01
-1.230633407831192017e-01
9.092003107070922852e-02
-1.106322393752634525e-03
5.920919124037027359e-03
1.612001657485961914e-01
1.614998839795589447e-02
-6.697525829076766968e-02
-1.198150068521499634e-01
-2.076717466115951538e-01
8.545354008674621582e-02
-1.938972324132919312e-01
1.376010328531265259e-01
-2.177067101001739502e-01
-1.433164775371551514e-01
-2.286359071731567383e-01
6.998027116060256958e-02
5.952785909175872803e-02
-1.065720021724700928e-01
-3.234832286834716797e-01
-1.400636732578277588e-01
-1.703470647335052490e-01
-1.625628322362899780e-01
1.151273678988218307e-02
5.542523413896560669e-02
1.373881548643112183e-01
-2.107324600219726562e-01
-5.905331671237945557e-02
1.183854937553405762e-01
1.467342078685760498e-01
-1.475574374198913574e-01
-2.986810505390167236e-01
2.036221325397491455e-01
1.363499164581298828e-01
1.004679948091506958e-01
-9.497158229351043701e-02
-2.488457858562469482e-01
1.212329119443893433e-01
-1.383195668458938599e-01
-9.687014669179916382e-02
1.846589148044586182e-02
-3.630083054304122925e-02
1.934530027210712433e-02
8.805699646472930908e-02
1.214833781123161316e-01
2.661225385963916779e-02
-1.123683080077171326e-01
1.819710135459899902e-01
1.745408177375793457e-01
5.320163816213607788e-02
9.840597957372665405e-02
-1.979093253612518311e-01
2.350714206695556641e-01
1.032379828393459320e-02
-2.790175378322601318e-02
-2.595397457480430603e-02
5.770339071750640869e-02
-1.052193939685821533e-01
2.125564813613891602e-01
-2.855436205863952637e-01
1.220538914203643799e-01
8.836848288774490356e-02
2.039413601160049438e-01
7.537422329187393188e-02
3.037495315074920654e-01
-1.459112912416458130e-01
7.475642114877700806e-02
-8.475452661514282227e-02
-8.405221253633499146e-02
5.324730183929204941e-03
-1.419561505317687988e-01
2.087173312902450562e-01
3.748330101370811462e-02
1.351048797369003296e-01
2.618920616805553436e-02
1.085267141461372375e-01
1.283644139766693115e-02
-1.606068909168243408e-01
2.911328971385955811e-01
-1.487496644258499146e-01
-7.226631045341491699e-02
-1.774517595767974854e-01
-2.453321218490600586e-02
-2.962110936641693115e-02
-2.061543315649032593e-01
-2.604631241410970688e-03
-6.756598502397537231e-02
1.157805994153022766e-01
-9.555755555629730225e-02
-6.184459105134010315e-02
-1.143194884061813354e-01
-1.776737719774246216e-02
1.832777075469493866e-02
-2.597114443778991699e-01
-1.929442733526229858e-01
9.329600632190704346e-02
-1.274282187223434448e-01
-1.011944115161895752e-01
1.518326252698898315e-01
7.624423503875732422e-02
1.013529449701309204e-01
1.215159147977828979e-01
8.684214204549789429e-02
-2.203342169523239136e-01
2.742814719676971436e-01
-6.636404246091842651e-02
9.745904058218002319e-02
7.940932363271713257e-02
-1.486249417066574097e-01
-4.152248799800872803e-02
-9.045620262622833252e-02
-9.307999908924102783e-02
-1.622699946165084839e-01
3.696717089042067528e-03
1.069701835513114929e-01
2.162710428237915039e-01
-3.575659394264221191e-01
-1.658453643321990967e-01
-8.834180980920791626e-02
-2.005251348018646240e-01
4.774390161037445068e-02
2.950607538223266602e-01
-1.822152584791183472e-01
-1.686197519302368164e-02
-2.129689045250415802e-02
-1.103532314300537109e-01
-2.098636701703071594e-02
-1.688038185238838196e-02
6.866616010665893555e-02
3.241888433694839478e-02
-6.563097983598709106e-02
-2.122642248868942261e-01
-1.289065778255462646e-01
1.291060447692871094e-01
-7.794139534235000610e-02
8.718501031398773193e-02
2.772700041532516479e-02
-2.673334628343582153e-02
-3.419397631660103798e-03
2.696661092340946198e-02
3.020110540091991425e-02
1.557816118001937866e-01
2.254091948270797729e-01
2.133091837167739868e-01
2.062521427869796753e-01
-1.270292550325393677e-01
-4.945192113518714905e-02
1.192980036139488220e-01
5.716573819518089294e-02
-1.720307618379592896e-01
-9.618151001632213593e-03
5.325503647327423096e-02
2.013339549303054810e-01
-1.797883659601211548e-01
-1.989763379096984863e-01
9.196985512971878052e-02
-1.441960781812667847e-02
6.707734614610671997e-02
-9.430351853370666504e-02
-2.104100883007049561e-01
-8.759825676679611206e-02
-1.263107955455780029e-01
-1.662699133157730103e-01
-1.133273839950561523e-01
1.048010401427745819e-02
7.491814345121383667e-02
3.176318705081939697e-01
-4.434373229742050171e-03
4.593406990170478821e-02
2.043952345848083496e-01
1.113464161753654480e-01
8.371641486883163452e-02
-3.963219746947288513e-02
1.736645996570587158e-01
-2.745362818241119385e-01
2.342829704284667969e-01
1.312253475189208984e-01
2.036827057600021362e-01
1.116878837347030640e-01
-6.461381167173385620e-02
2.455336600542068481e-01
6.187953799962997437e-02
-1.757084876298904419e-01
-6.035780906677246094e-02
2.685112133622169495e-02
3.981531783938407898e-02
5.560777336359024048e-02
1.051490083336830139e-01
3.653766587376594543e-02
9.285045415163040161e-02
-4.311474412679672241e-02
1.260540485382080078e-01
1.028999313712120056e-01
-4.313813894987106323e-02
-2.380751520395278931e-01
6.433349102735519409e-02
-4.279518872499465942e-02
2.939191646873950958e-02
-1.404063701629638672e-01
1.922334432601928711e-01
-2.434545308351516724e-01
-8.021227270364761353e-02
9.772720932960510254e-02
-1.350323855876922607e-01
-2.478189021348953247e-01
-1.740089617669582367e-02
1.977263242006301880e-01
-1.138500794768333435e-01
-2.608877122402191162e-01
-3.447361588478088379e-01
-1.555308252573013306e-01
-2.031235955655574799e-02
2.464100867509841919e-01
1.965339183807373047e-01
1.378432512283325195e-01
-2.860435843467712402e-01
-2.581278085708618164e-01
4.198992624878883362e-02
-2.418065667152404785e-01
6.391180306673049927e-02
5.025375261902809143e-02
5.521879792213439941e-01
3.604181408882141113e-01
2.586433663964271545e-03
6.191133335232734680e-02
-1.211302801966667175e-01
1.020795851945877075e-01
-3.553524017333984375e-01
-7.289148122072219849e-02
5.590800940990447998e-02
2.336551696062088013e-01
1.638549268245697021e-01
2.165622264146804810e-02
-1.019605621695518494e-01
-2.490318417549133301e-01
-1.052598468959331512e-02
2.779791951179504395e-01
-3.076126798987388611e-02
-1.739695668220520020e-01
9.243749082088470459e-03
1.366316974163055420e-01
-1.354546546936035156e-01
1.072631701827049255e-01
1.139215007424354553e-02
2.701892890036106110e-02
-2.768547274172306061e-02
1.619551628828048706e-01
-6.885229796171188354e-02
9.284342825412750244e-02
2.570136785507202148e-01
-1.433044075965881348e-01
-1.203226745128631592e-01
-2.886298894882202148e-01
5.503069236874580383e-02
1.192437484860420227e-02
1.053382009267807007e-01
4.896169900894165039e-02
1.552008390426635742e-01
-4.096897691488265991e-02
-1.984239220619201660e-01
3.221236467361450195e-01
-1.223012357950210571e-01
-1.354496330022811890e-01
3.874888420104980469e-01
4.877097159624099731e-02
-2.511195242404937744e-01
-6.084350124001502991e-02
-1.761392056941986084e-01
1.149962544441223145e-01
-3.434723988175392151e-02
-1.111220419406890869e-01
-1.226877141743898392e-02
-2.912072539329528809e-01
5.540805682539939880e-02
6.657197140157222748e-03
1.771413385868072510e-01
2.243183106184005737e-01
9.841454029083251953e-02
-1.984580904245376587e-01
-6.126024294644594193e-03
2.239546924829483032e-02
9.514997899532318115e-02
5.032863840460777283e-02
-3.951956517994403839e-03
9.380754828453063965e-02
-1.321551501750946045e-01
3.249458968639373779e-02
-2.047286033630371094e-01
2.081162631511688232e-01
-1.471070945262908936e-01
-1.567533314228057861e-01
9.883565828204154968e-03
-1.098656058311462402e-01
4.475782066583633423e-02
-2.096074968576431274e-01
5.316426977515220642e-02
-5.651330202817916870e-02
1.774506866931915283e-01
-1.931885629892349243e-01
8.657006174325942993e-02
-2.316088229417800903e-01
-1.170704513788223267e-01
-2.449353635311126709e-01
1.409050822257995605e-01
-1.644420325756072998e-01
2.427983283996582031e-01
-3.061854243278503418e-01
1.314340680837631226e-01
4.854685440659523010e-02
-1.438217982649803162e-02
-8.821731060743331909e-02
1.505896896123886108e-01
-1.051864698529243469e-01
-3.617539629340171814e-02
-2.056276798248291016e-01
-1.590475291013717651e-01
3.595299720764160156e-01
-1.855192929506301880e-01
1.402225345373153687e-01
2.222662232816219330e-02
4.768874868750572205e-02
1.002990454435348511e-01
6.776413321495056152e-02
4.901763424277305603e-02
9.183926135301589966e-02
1.301438454538583755e-02
2.105386406183242798e-01
-1.628599464893341064e-01
9.380370378494262695e-03
-6.932638585567474365e-02
-1.095397099852561951e-01
6.429661810398101807e-02
3.590114787220954895e-02
2.140783816576004028e-01
1.585762351751327515e-01
4.730756208300590515e-02
-4.560755565762519836e-02
-1.560311764478683472e-01
3.151487559080123901e-02
1.595622450113296509e-01
2.128288596868515015e-01
-1.267355233430862427e-01
-1.488538086414337158e-01
1.351307332515716553e-01
-1.545799374580383301e-01
-2.330514341592788696e-01
-3.404737263917922974e-02
-2.606289982795715332e-01
1.225537136197090149e-01
4.227210208773612976e-02
1.153036579489707947e-01
-2.055536508560180664e-01
-1.226609274744987488e-01
4.048923775553703308e-02
1.114971041679382324e-01
-3.215509280562400818e-02
9.829254448413848877e-02
1.430580317974090576e-01
1.433164179325103760e-01
6.396580487489700317e-02
1.978534013032913208e-01
-9.798046201467514038e-02
1.258810143917798996e-02
-4.490341618657112122e-02
-5.971024744212627411e-03
2.228249311447143555e-01
-2.677148766815662384e-02
8.552712202072143555e-02
-9.363541007041931152e-02
-7.177782803773880005e-02
1.129088550806045532e-01
-1.432228833436965942e-01
-8.832159638404846191e-02
1.396971493959426880e-01
-3.621273636817932129e-01
1.137147098779678345e-01
-7.762931287288665771e-02
-2.329277619719505310e-02
-6.803313642740249634e-02
1.127001643180847168e-01
4.952595755457878113e-02
-1.059878431260585785e-02
-4.252158105373382568e-02
7.567261159420013428e-02
-1.506745815277099609e-01
3.804607689380645752e-02
2.059006989002227783e-01
4.229757934808731079e-02
-9.297752380371093750e-02
8.250896632671356201e-02
-1.835143007338047028e-02
6.154759228229522705e-02
-1.069769356399774551e-02
-1.974935978651046753e-01
-1.115716025233268738e-01
-6.525249034166336060e-02
6.637167185544967651e-02
2.222594432532787323e-02
2.053005546331405640e-01
-2.378329336643218994e-01
-2.278663218021392822e-01
2.338598519563674927e-01
2.197256684303283691e-01
2.441173642873764038e-01
-1.234468147158622742e-01
-2.537667155265808105e-01
2.942092251032590866e-03
1.385967880487442017e-01
2.556618750095367432e-01
-1.263624280691146851e-01
1.538062747567892075e-02
1.664388775825500488e-01
3.618437796831130981e-02
1.636201739311218262e-01
1.250512315891683102e-03
6.359104812145233154e-02
-1.335045248270034790e-01
-8.763397112488746643e-03
5.323160439729690552e-02
-2.159016206860542297e-03
-1.251387447118759155e-01
-1.326948404312133789e-01
-1.165518313646316528e-01
-2.788649797439575195e-01
2.181211486458778381e-02
-2.750496938824653625e-02
8.357319980859756470e-02
-3.303032740950584412e-02
8.975125849246978760e-02
1.332220733165740967e-01
-1.372660398483276367e-01
1.355562210083007812e-01
-4.193465039134025574e-02
-1.751717031002044678e-01
2.038323879241943359e-01
5.902362987399101257e-02
-4.776088520884513855e-02
-8.179437369108200073e-02
-7.630546391010284424e-02
2.580343782901763916e-01
-6.179390475153923035e-02
-1.599164754152297974e-01
7.174545526504516602e-02
3.520411625504493713e-02
3.522694855928421021e-02
-2.429150938987731934e-01
-6.799295544624328613e-03
-1.161604374647140503e-01
-4.244361817836761475e-02
1.054915413260459900e-02
-1.058666631579399109e-01
-1.400976330041885376e-01
3.463175520300865173e-02
2.023066431283950806e-01
1.935840845108032227e-01
1.251918971538543701e-01
6.569589674472808838e-02
-2.009371668100357056e-01
2.063125371932983398e-02
1.894900798797607422e-01
1.222240552306175232e-01
6.924245972186326981e-03
-1.190550550818443298e-01
-6.400227546691894531e-02
-1.127988696098327637e-01
6.438529491424560547e-02
2.620936930179595947e-01
2.507762312889099121e-01
-1.163315400481224060e-02
-1.181907132267951965e-01
2.100436240434646606e-01
3.065342828631401062e-02
-9.846593020483851433e-04
2.503432892262935638e-02
-1.398403346538543701e-01
3.090545535087585449e-02
7.883833348751068115e-02
-1.052021384239196777e-01
2.294867485761642456e-01
8.059196174144744873e-02
1.598285287618637085e-01
1.898140460252761841e-02
-1.948575526475906372e-01
1.378909498453140259e-01
2.095297351479530334e-02
1.516995877027511597e-01
-2.641493082046508789e-01
9.987771511077880859e-02
-1.243018731474876404e-01
1.450887918472290039e-01
1.152341738343238831e-01
-2.294436097145080566e-01
3.711031749844551086e-02
-7.165220379829406738e-02
-4.595463350415229797e-02
-2.885345518589019775e-01
1.455189138650894165e-01
-2.428585290908813477e-01
2.047879546880722046e-01
-1.484936773777008057e-01
7.891671732068061829e-03
5.206124857068061829e-02
1.863380894064903259e-02
-1.879261583089828491e-01
1.509658694267272949e-01
1.914943195879459381e-02
5.826981738209724426e-02
-9.060398489236831665e-02
2.678447403013706207e-02
-1.792398840188980103e-01
-2.935518920421600342e-01
9.163884818553924561e-02
-2.335388511419296265e-01
-7.265409454703330994e-03
1.534893810749053955e-01
3.566639721393585205e-01
-9.971716254949569702e-02
-1.217040568590164185e-01
-7.849099487066268921e-02
6.543444097042083740e-02
8.241371065378189087e-02
7.308017462491989136e-02
1.292945891618728638e-01
-4.521468281745910645e-02
-5.907087400555610657e-02
-1.172275617718696594e-01
-1.008401531726121902e-02
-7.635987550020217896e-02
-1.679958030581474304e-02
4.883032664656639099e-02
-1.847737282514572144e-01
-6.984285265207290649e-02
2.235892266035079956e-01
1.553300768136978149e-01
1.642286479473114014e-01
-1.419145017862319946e-01
-2.349515259265899658e-01
-1.050924882292747498e-01
-9.176701307296752930e-02
2.763683535158634186e-02
-2.937324717640876770e-02
-1.643451303243637085e-01
1.597605049610137939e-01
5.997820198535919189e-02
2.295391112565994263e-01
-1.310218777507543564e-02
-6.109762936830520630e-02
1.454990655183792114e-01
-1.417590528726577759e-01
-5.623197183012962341e-02
-1.865544170141220093e-01
-1.146343648433685303e-01
1.325770188122987747e-02
1.906822472810745239e-01
-4.232069253921508789e-01
1.105731073766946793e-02
2.356371283531188965e-01
2.105333060026168823e-01
-8.895606733858585358e-03
-2.915260493755340576e-01
-1.582975685596466064e-01
2.908055484294891357e-02
-7.038344442844390869e-02
1.921271979808807373e-01
-8.083432912826538086e-02
3.014354705810546875e-01
-5.886788666248321533e-02
6.387566775083541870e-02
-3.664710745215415955e-02
-6.151488423347473145e-02
2.109839208424091339e-02
-1.473630666732788086e-01
5.010247230529785156e-02
3.463677316904067993e-02
1.118391752243041992e-01
2.098992615938186646e-01
5.225069820880889893e-03
2.032723277807235718e-01
2.689931169152259827e-02
-5.183883756399154663e-02
-5.180153995752334595e-02
-2.014571279287338257e-01
1.072586104273796082e-01
8.286505937576293945e-02
2.796873152256011963e-01
2.849403023719787598e-01
1.715886741876602173e-01
2.192737311124801636e-01
1.900955587625503540e-01
-1.020351946353912354e-01
-1.937155127525329590e-01
8.389137685298919678e-02
-7.198483217507600784e-03
1.556573063135147095e-01
-1.002392247319221497e-01
-1.657948940992355347e-01
-2.188814431428909302e-01
1.204302813857793808e-02
5.112757906317710876e-03
-2.921430468559265137e-01
-1.605191268026828766e-02
-4.864224046468734741e-02
-2.585740946233272552e-02
-1.782184988260269165e-01
-3.023340404033660889e-01
3.256458044052124023e-01
-1.430896073579788208e-01
1.267154812812805176e-01
2.522299438714981079e-02
1.700132191181182861e-01
2.156992703676223755e-01
2.289802767336368561e-02
-3.901791200041770935e-02
1.202952116727828979e-01
7.381103187799453735e-02
-6.409084796905517578e-02
-6.394879519939422607e-02
2.413438633084297180e-02
-8.775189518928527832e-02
4.209707956761121750e-03
-3.113724291324615479e-03
-6.294024176895618439e-03
-1.293118596076965332e-01
1.735964417457580566e-01
-1.671020686626434326e-01
1.640387177467346191e-01
2.458038926124572754e-01
-1.560212969779968262e-01
-1.403504908084869385e-01
-2.793732658028602600e-02
-3.795273974537849426e-02
-9.345641732215881348e-02
2.987023442983627319e-02
1.173970997333526611e-01
2.688464336097240448e-02
-4.429059848189353943e-02
-2.120268642902374268e-01
1.079193949699401855e-01
2.517008185386657715e-01
-1.060862317681312561e-01
2.351188808679580688e-01
1.802790015935897827e-01
-1.167178303003311157e-01
5.409998819231987000e-02
-1.168692186474800110e-01
-2.280690073966979980e-01
3.167659342288970947e-01
-2.377055957913398743e-02
9.445194154977798462e-02
1.806517541408538818e-01
1.071604341268539429e-01
1.986660212278366089e-01
-2.184818089008331299e-01
8.244018070399761200e-03
-1.326094567775726318e-01
1.442010402679443359e-01
-2.948460280895233154e-01
-3.750069439411163330e-02
1.197623386979103088e-01
1.049584448337554932e-01
-2.089941352605819702e-01
-8.691715449094772339e-02
1.997163295745849609e-01
-4.814296588301658630e-02
5.776127800345420837e-02
-6.343553215265274048e-02
1.362670511007308960e-01
1.251542009413242340e-02
1.028645113110542297e-01
1.375711262226104736e-01
-7.333438098430633545e-02
-1.203519403934478760e-01
1.706826388835906982e-01
2.569773979485034943e-02
9.568742476403713226e-03
-1.420546472072601318e-01
-1.757337749004364014e-01
-1.333301067352294922e-01
2.402481138706207275e-01
-1.449965983629226685e-01
8.853791654109954834e-02
5.950494483113288879e-02
-7.110694795846939087e-02
7.875095121562480927e-03
-2.364018708467483521e-01
-1.305780261754989624e-01
-6.393281370401382446e-02
6.067991256713867188e-02
1.833302378654479980e-01
1.235787719488143921e-01
1.315728425979614258e-01
-1.153005566447973251e-02
-2.055208683013916016e-01
-1.989952325820922852e-01
2.245707213878631592e-01
6.047219783067703247e-02
6.620929390192031860e-02
2.029843181371688843e-01
6.746125407516956329e-03
-4.110708460211753845e-02
1.264429241418838501e-01
1.596862636506557465e-02
1.277627199888229370e-01
-2.510326355695724487e-02
-2.502039968967437744e-01
-3.340346738696098328e-02
8.524904400110244751e-02
-1.738172024488449097e-01
4.173004254698753357e-02
-2.508492954075336456e-02
-1.423539668321609497e-01
-6.092479825019836426e-02
-4.899620637297630310e-02
-1.362115740776062012e-01
1.994905471801757812e-01
-1.863870620727539062e-01
-3.502480313181877136e-02
1.584298014640808105e-01
1.136348769068717957e-01
-5.388177186250686646e-02
2.016492187976837158e-01
-1.551578044891357422e-01
2.371087968349456787e-01
-1.559689939022064209e-01
2.210367321968078613e-01
2.948247268795967102e-02
8.990271389484405518e-02
2.520956099033355713e-01
-2.877297997474670410e-01
-6.605044007301330566e-02
4.513708117883652449e-04
-2.832776904106140137e-01
-2.333230525255203247e-01
3.324363380670547485e-02
5.365185067057609558e-02
-4.129960387945175171e-02
-2.418462373316287994e-02
6.895350664854049683e-02
4.689003108069300652e-04
1.056500822305679321e-01
1.429377943277359009e-01
-3.918221220374107361e-02
1.522169113159179688e-01
-1.826409250497817993e-01
-7.532200962305068970e-02
-8.011199533939361572e-02
-1.142750307917594910e-01
-1.850953102111816406e-01
8.027945458889007568e-02
-1.644841283559799194e-01
-9.345616213977336884e-03
1.109826285392045975e-02
-2.506355047225952148e-01
1.213542893528938293e-01
2.048139572143554688e-01
-9.051673859357833862e-02
1.290504932403564453e-01
5.233618989586830139e-02
1.512640416622161865e-01
-1.081067696213722229e-02
-4.081574454903602600e-02
-5.356778576970100403e-02
3.622991964221000671e-02
-3.151426091790199280e-02
-8.941091597080230713e-02
3.664451465010643005e-02
-5.250934977084398270e-03
1.865745186805725098e-01
1.468642055988311768e-01
1.658564805984497070e-01
1.634976267814636230e-01
2.444763854146003723e-02
1.711509823799133301e-01
6.235123425722122192e-02
8.140213042497634888e-02
3.269776701927185059e-01
-4.631180781871080399e-04
1.073585376143455505e-01
2.761617898941040039e-01
-1.935717016458511353e-01
1.504753232002258301e-01
-2.693126797676086426e-01
-1.863487958908081055e-01
-1.292942166328430176e-01
1.349442899227142334e-01
-8.432270586490631104e-02
1.129573397338390350e-02
-3.346954882144927979e-01
6.248943042010068893e-03
-9.894646704196929932e-02
-6.221986189484596252e-02
2.801952660083770752e-01
1.497119814157485962e-01
1.085997670888900757e-01
-1.677201688289642334e-01
1.717479676008224487e-01
-2.867825925350189209e-01
3.753962218761444092e-01
-3.274337947368621826e-02
1.696351566351950169e-03
-4.504327848553657532e-02
2.366185486316680908e-01
-8.463738113641738892e-02
5.663494765758514404e-02
-3.474162518978118896e-02
-1.465062946081161499e-01
1.910401880741119385e-01
3.361230343580245972e-02
-1.136094052344560623e-02
-5.949045345187187195e-02
1.676839143037796021e-01
-6.697107106447219849e-02
1.312454789876937866e-02
1.910104006528854370e-01
6.162905693054199219e-02
-1.371849626302719116e-01
-1.289764493703842163e-01
-9.036966413259506226e-02
1.784437149763107300e-01
-2.023838609457015991e-01
-1.770349293947219849e-01
-9.540965408086776733e-02
-2.544959485530853271e-01
-1.958745270967483521e-01
-2.395561188459396362e-01
1.566239595413208008e-01
-1.231537908315658569e-01
-1.569215953350067139e-01
1.649550348520278931e-02
6.505908817052841187e-02
5.408527329564094543e-02
-2.665427923202514648e-01
2.456821054220199585e-01
-8.585263043642044067e-02
3.351200744509696960e-02
-2.580481953918933868e-02
1.405685693025588989e-01
3.084963187575340271e-02
1.040370576083660126e-02
4.701866209506988525e-02
1.527174413204193115e-01
1.944929510354995728e-01
-1.201750263571739197e-01
1.083342358469963074e-01
1.952913701534271240e-01
-1.870318688452243805e-02
3.910694271326065063e-02
-1.356167066842317581e-02
-2.683824598789215088e-01
4.005990177392959595e-02
-5.428137630224227905e-02
-1.698968559503555298e-02
-8.998337388038635254e-02
4.170211777091026306e-02
-4.464716464281082153e-02
-1.321482658386230469e-01
3.823147341609001160e-02
-9.961606003344058990e-03
-5.015714094042778015e-02
4.309656843543052673e-02
1.790726333856582642e-01
-9.272381663322448730e-02
-5.616195872426033020e-02
-1.270906776189804077e-01
1.480786651372909546e-01
1.530379205942153931e-01
-3.611220046877861023e-02
1.832023113965988159e-01
1.545086652040481567e-01
-6.936526298522949219e-02
-2.037040442228317261e-01
-1.738498061895370483e-01
1.445079296827316284e-01
-1.688878983259201050e-01
-1.287512034177780151e-01
2.116473466157913208e-01
-7.864380627870559692e-02
-2.019045352935791016e-01
2.393615990877151489e-01
1.567952334880828857e-01
1.536061912775039673e-01
1.974598318338394165e-01
-2.748017907142639160e-01
3.088270500302314758e-02
-2.260123379528522491e-02
-1.698742061853408813e-01
1.798626929521560669e-01
9.106703102588653564e-02
1.072372868657112122e-01
-1.010496988892555237e-01
1.741836071014404297e-01
1.929627209901809692e-01
1.704418361186981201e-01
1.219664663076400757e-01
8.235631138086318970e-02
1.303625404834747314e-01
1.947723627090454102e-01
-5.719409883022308350e-02
-2.030497342348098755e-01
2.458270341157913208e-01
5.709507688879966736e-02
-1.112772002816200256e-01
7.009948045015335083e-02
1.015762891620397568e-02
1.300843507051467896e-01
-4.011163860559463501e-02
5.790554359555244446e-02
-2.161128260195255280e-02
-4.558127373456954956e-03
1.727404631674289703e-02
1.389472484588623047e-01
-6.019836757332086563e-03
2.041440904140472412e-01
-1.462452113628387451e-01
1.466056406497955322e-01
-4.655141010880470276e-02
-1.621928215026855469e-01
-1.630981564521789551e-01
1.983337849378585815e-01
-4.848394170403480530e-02
8.333346806466579437e-03
1.635198444128036499e-01
-1.698392033576965332e-01
-1.494561582803726196e-01
-2.832637727260589600e-01
-2.030867338180541992e-01
6.471687927842140198e-03
1.386625766754150391e-01
-8.392861485481262207e-02
-3.538560271263122559e-01
-2.101987004280090332e-01
-1.304018050432205200e-01
4.765944182872772217e-02
-2.383275628089904785e-01
7.391546666622161865e-02
4.610947519540786743e-02
1.552449315786361694e-01
2.430102676153182983e-01
-2.568277716636657715e-01
3.624884411692619324e-03
2.306984215974807739e-01
1.321800351142883301e-01
8.336013182997703552e-03
1.273170113563537598e-01
-1.258053183555603027e-01
-8.373437449336051941e-03
-4.416879266500473022e-02
7.307365536689758301e-02
-6.746589392423629761e-02
-2.399880671873688698e-03
-1.790128881111741066e-03
-7.449082331731915474e-04
-1.270480006933212280e-01
6.209685816429555416e-04
7.708867639303207397e-02
-7.851147651672363281e-02
2.947727143764495850e-01
5.329796299338340759e-02
1.948491036891937256e-01
1.183808073401451111e-01
3.822198882699012756e-02
-5.565737560391426086e-02
1.471006870269775391e-01
4.284257814288139343e-02
9.869270771741867065e-02
-1.890784800052642822e-01
-2.030958831310272217e-01
2.203484773635864258e-01
-1.590572148561477661e-01
-3.203927576541900635e-01
2.062992453575134277e-01
-2.586472220718860626e-02
-8.762054145336151123e-02
7.717291265726089478e-02
2.194777131080627441e-02
-2.409918010234832764e-01
-3.517509624361991882e-02
-1.732599437236785889e-01
-2.138087451457977295e-01
1.353837251663208008e-01
-1.719460934400558472e-01
3.141142800450325012e-02
-1.321999132633209229e-01
2.007938474416732788e-01
1.715803444385528564e-01
2.488153055310249329e-02
1.471786946058273315e-01
7.312212884426116943e-02
-8.192995935678482056e-02
-2.433663047850131989e-02
1.448322683572769165e-01
1.736804395914077759e-01
-1.190657541155815125e-01
2.016104310750961304e-01
2.983029782772064209e-01
-2.968046069145202637e-02
-1.233533099293708801e-01
-4.910151287913322449e-02
5.223113670945167542e-02
6.483545154333114624e-02
2.563831955194473267e-02
3.609575564041733742e-03
-1.948020607233047485e-02
-1.944771781563758850e-02
1.606385409832000732e-02
2.193215638399124146e-01
-1.935823708772659302e-01
1.640400141477584839e-01
-1.065074652433395386e-02
-9.927842020988464355e-02
3.494689241051673889e-02
-1.157803386449813843e-01
1.127721965312957764e-01
9.087084233760833740e-02
2.177953720092773438e-01
-2.080675512552261353e-01
6.943423300981521606e-02
2.113614082336425781e-01
1.141187828034162521e-02
9.655807912349700928e-02
8.855964988470077515e-02
6.455722451210021973e-02
1.805990934371948242e-01
-3.022836893796920776e-02
3.354715108871459961e-01
-2.322444915771484375e-01
7.901934534311294556e-02
-8.733808994293212891e-02
1.078514531254768372e-01
1.098354309797286987e-01
-1.485333889722824097e-01
-1.253032833337783813e-01
5.715522170066833496e-02
1.506710983812808990e-02
-1.079258546233177185e-01
1.148532107472419739e-01
1.691715866327285767e-01
5.960816890001296997e-02
-2.659773640334606171e-02
-8.583703637123107910e-02
-4.147949814796447754e-02
-1.704914309084415436e-02
1.760612130165100098e-01
3.251764923334121704e-02
9.722989797592163086e-02
7.801391929388046265e-02
-7.062294334173202515e-02
-5.916715413331985474e-02
1.033088862895965576e-01
4.729276895523071289e-02
5.710498988628387451e-02
6.094762589782476425e-03
1.849056482315063477e-01
-1.491097360849380493e-01
-2.999621257185935974e-02
-1.365175098180770874e-01
1.462557725608348846e-02
1.084451451897621155e-01
5.789142567664384842e-03
4.596518701873719692e-04
2.164948135614395142e-01
-1.362707838416099548e-02
-4.917348921298980713e-02
-2.275214903056621552e-02
-1.427396386861801147e-01
9.062360972166061401e-02
1.086863651871681213e-01
-2.417196333408355713e-01
-1.586199551820755005e-01
-2.535985223948955536e-02
1.587294936180114746e-01
1.774437427520751953e-01
1.006516907364130020e-02
1.296842694282531738e-01
-9.746529906988143921e-02
1.432236842811107635e-02
1.814505201764404774e-03
-2.066236883401870728e-01
-1.271331310272216797e-01
-2.587898671627044678e-01
1.528041362762451172e-01
3.116329014301300049e-01
-1.415926516056060791e-01
1.227584630250930786e-01
3.419769695028662682e-03
-1.725802868604660034e-01
-9.310135990381240845e-02
2.684184908866882324e-01
-1.164206340909004211e-01
-1.552001833915710449e-01
1.547215282917022705e-01
5.672039091587066650e-02
-4.535733535885810852e-02
-2.119670063257217407e-01
-1.973310559988021851e-01
3.849355876445770264e-02
5.263606435619294643e-04
-4.876609891653060913e-02
-2.070186659693717957e-02
-3.847799077630043030e-02
2.472620084881782532e-02
-3.081084229052066803e-02
9.928273409605026245e-02
1.212824210524559021e-01
1.518095433712005615e-01
1.875620186328887939e-01
7.488215342164039612e-04
3.859831765294075012e-02
1.996699273586273193e-01
1.400900185108184814e-01
-3.691184893250465393e-02
-1.607185602188110352e-01
8.974926918745040894e-02
-8.499757200479507446e-02
-2.469014227390289307e-01
-1.089426353573799133e-01
1.320509016513824463e-01
-1.482772231101989746e-01
-1.419655531644821167e-01
1.585760712623596191e-01
2.370298802852630615e-01
4.388737678527832031e-02
1.086228787899017334e-01
4.667251929640769958e-02
-2.145723253488540649e-01
-9.430516511201858521e-02
-6.027968483977019787e-04
3.571878969669342041e-01
-6.261306814849376678e-03
-4.779113084077835083e-02
-9.027346223592758179e-02
3.878597542643547058e-02
2.347908616065979004e-01
-2.419020235538482666e-01
-9.156039915978908539e-03
1.441194713115692139e-01
-6.437829881906509399e-02
-3.195177763700485229e-02
-2.698031365871429443e-01
2.365744709968566895e-01
-9.483994543552398682e-02
-2.035857439041137695e-01
-3.169780597090721130e-02
3.612793749198317528e-03
-1.054651960730552673e-01
-4.224741086363792419e-02
-5.858607962727546692e-02
5.173978861421346664e-03
1.898285448551177979e-01
-4.600301012396812439e-02
-1.075375154614448547e-01
2.184207364916801453e-02
-1.087295189499855042e-01
-1.883860826492309570e-01
5.882136151194572449e-02
-1.142621263861656189e-01
5.024173483252525330e-02
1.644643843173980713e-01
6.491738557815551758e-02
-5.124083161354064941e-02
1.041632220149040222e-01
-9.563767164945602417e-02
-4.907930269837379456e-02
3.067589551210403442e-02
1.039700508117675781e-01
-2.405585199594497681e-01
1.427393257617950439e-01
-1.932908594608306885e-01
2.079144716262817383e-01
1.497872620820999146e-01
-1.892937533557415009e-02
1.936004310846328735e-01
-1.525574624538421631e-01
-1.031891107559204102e-01
-3.338203132152557373e-01
-1.542104780673980713e-01
-4.351101070642471313e-02
-1.261121928691864014e-01
-2.608417868614196777e-01
5.134421214461326599e-02
-4.900177195668220520e-02
-9.945102781057357788e-02
-1.340169757604598999e-01
1.266742348670959473e-01
1.403942853212356567e-01
5.027273297309875488e-02
1.371865719556808472e-01
-2.494964450597763062e-01
1.064536571502685547e-01
7.796186953783035278e-03
9.316202253103256226e-02
-3.269584849476814270e-02
6.832041591405868530e-02
3.077499009668827057e-02
6.882113963365554810e-02
-1.049206033349037170e-01
-2.534667029976844788e-02
1.109213531017303467e-01
1.532189548015594482e-01
1.610360443592071533e-01
-1.762487292289733887e-01
-1.298580169677734375e-01
1.752344667911529541e-01
-2.591338753700256348e-01
-4.429848864674568176e-03
1.686119139194488525e-01
-1.524183750152587891e-01
2.481411844491958618e-01
2.416072189807891846e-01
7.981240004301071167e-02
1.774708479642868042e-01
6.630604714155197144e-02
1.226784139871597290e-01
-1.711965799331665039e-01
8.149675279855728149e-02
-9.583897143602371216e-02
5.903721903450787067e-04
1.951245367527008057e-01
-1.872609555721282959e-01
1.158343479037284851e-01
6.278879195451736450e-02
-4.960787668824195862e-02
2.046027630567550659e-01
-2.667559981346130371e-01
3.130803257226943970e-02
1.821955889463424683e-01
2.009048461914062500e-01
1.355942338705062866e-01
-3.223673626780509949e-02
-1.857221275568008423e-01
1.235597729682922363e-01
-9.529436379671096802e-02
5.154337361454963684e-02
-2.143255174160003662e-01
1.251479703933000565e-02
-5.389913544058799744e-02
-1.034864783287048340e-01
2.822167575359344482e-01
3.835333511233329773e-02
7.409591227769851685e-02
-4.632053151726722717e-02
1.634192466735839844e-01
1.382794529199600220e-01
5.761226266622543335e-02
1.056951731443405151e-01
3.925552591681480408e-03
1.679963916540145874e-01
7.726007699966430664e-02
-8.683785796165466309e-02
1.500213593244552612e-01
7.962998747825622559e-02
5.314377695322036743e-02
2.061261385679244995e-01
1.697536855936050415e-01
-1.101849377155303955e-01
2.032150179147720337e-01
-1.760042160749435425e-01
-1.326504498720169067e-01
-8.347511291503906250e-02
1.420973092317581177e-01
7.106067240238189697e-02
-2.495169788599014282e-01
-1.565263122320175171e-01
-1.192648485302925110e-01
1.206948980689048767e-02
5.858306214213371277e-02
-8.440236002206802368e-02
-1.389187853783369064e-02
-7.411583513021469116e-02
-1.507048681378364563e-02
-1.710655838251113892e-01
-3.534581139683723450e-02
-7.559812813997268677e-02
1.434076875448226929e-01
-1.524418294429779053e-01
1.132621616125106812e-01
-1.404046714305877686e-01
-2.645822763442993164e-01
1.179985329508781433e-01
-2.961647510528564453e-02
8.966366201639175415e-02
-1.559274196624755859e-01
7.017552852630615234e-02
-6.502825021743774414e-02
-1.060685701668262482e-02
-1.794011890888214111e-01
4.152788594365119934e-02
1.125842556357383728e-01
-2.453407272696495056e-02
1.844442933797836304e-01
-3.846837952733039856e-02
1.750999502837657928e-02
-6.110286340117454529e-02
2.340328842401504517e-01
1.452470477670431137e-02
1.473632901906967163e-01
1.536557227373123169e-01
8.873813599348068237e-02
6.905915588140487671e-02
-1.647851020097732544e-01
2.168206721544265747e-01
-7.963784784078598022e-02
-5.031913146376609802e-02
4.234155640006065369e-02
-1.488229632377624512e-01
2.482781261205673218e-01
-5.101938173174858093e-02
-3.382751047611236572e-01
-1.619728952646255493e-01
1.978156566619873047e-01
-1.151762902736663818e-01
1.871266514062881470e-01
9.475813806056976318e-02
-1.082862019538879395e-01
-2.197463214397430420e-01
-1.843037605285644531e-01
-2.605757713317871094e-01
-1.343017094768583775e-03
9.813931584358215332e-02
-4.793173074722290039e-02
-1.507228761911392212e-01
1.956607960164546967e-02
-1.378931254148483276e-01
-1.225362420082092285e-01
-3.083155676722526550e-02
1.360242515802383423e-01
3.606969714164733887e-01
-2.484430521726608276e-01
-3.023557364940643311e-01
1.486362665891647339e-01
-3.155706822872161865e-01
6.493522971868515015e-02
4.088000059127807617e-01
1.836042106151580811e-01
2.179459035396575928e-01
-7.563266158103942871e-02
-5.220693722367286682e-02
-1.403354555368423462e-01
-1.850605159997940063e-01
2.206835001707077026e-01
1.101842373609542847e-01
-1.703971922397613525e-01
-1.154722869396209717e-01
-7.120476663112640381e-02
-3.366861725226044655e-03
1.029791086912155151e-01
2.962825074791908264e-02
4.339665174484252930e-02
2.393344044685363770e-01
1.294751912355422974e-01
3.872951865196228027e-02
3.603479266166687012e-02
-2.295412719249725342e-01
-1.110613420605659485e-01
1.443848013877868652e-01
5.031357519328594208e-03
2.155867815017700195e-01
-1.054214611649513245e-01
-1.998980492353439331e-01
1.421533524990081787e-01
1.319952160120010376e-01
-2.560647726058959961e-01
1.991612613201141357e-01
-3.707014620304107666e-01
2.703024446964263916e-01
-1.187618300318717957e-01
2.662355303764343262e-01
1.171072870492935181e-01
2.840590178966522217e-01
2.762791514396667480e-01
-1.307637542486190796e-01
-1.219599470496177673e-01
-3.253145888447761536e-02
2.669179253280162811e-02
8.430866152048110962e-02
5.198819562792778015e-03
-5.826956406235694885e-02
-1.130374521017074585e-01
-1.021902784705162048e-01
-4.455310478806495667e-02
2.332910746335983276e-01
2.357219159603118896e-01
-5.365264602005481720e-03
-2.879666350781917572e-02
7.202334702014923096e-02
1.335291415452957153e-01
8.768979460000991821e-02
1.928667724132537842e-01
-2.508924342691898346e-02
-2.723911218345165253e-02
4.788067936897277832e-02
5.788022279739379883e-02
-1.543422043323516846e-01
-7.927770912647247314e-02
-3.112991899251937866e-02
-2.862271480262279510e-02
-1.030701249837875366e-01
1.325896680355072021e-01
8.960221707820892334e-02
-2.406893074512481689e-01
2.489249557256698608e-01
-1.494916677474975586e-01
-2.392264306545257568e-01
1.940846890211105347e-01
1.568672657012939453e-01
-2.546563148498535156e-01
-1.243713498115539551e-01
1.528478115797042847e-01
2.133479863405227661e-01
-1.289628297090530396e-01
1.855549216270446777e-01
-1.069321632385253906e-01
-2.736086249351501465e-01
-1.562048643827438354e-01
3.037760257720947266e-01
-1.504425108432769775e-01
-5.429811775684356689e-02
-2.730288915336132050e-02
-2.608571946620941162e-02
5.564656108617782593e-02
2.426307499408721924e-01
-2.440841048955917358e-01
-1.838228106498718262e-02
-1.902042925357818604e-01
-1.958554424345493317e-02
-3.170052915811538696e-02
-2.606398761272430420e-01
4.168344195932149887e-03
-7.528425008058547974e-02
-2.083751140162348747e-03
5.032231286168098450e-02
-3.110269270837306976e-02
-1.062966138124465942e-01
4.096287861466407776e-02
6.759484112262725830e-02
9.025983512401580811e-02
-2.152238599956035614e-02
1.654805988073348999e-02
2.026979923248291016e-01
-2.024354040622711182e-01
1.019656434655189514e-01
-3.794489055871963501e-02
-5.067247897386550903e-02
-1.111190095543861389e-01
-8.430825918912887573e-02
-2.318368852138519287e-01
1.583014987409114838e-02
1.721210330724716187e-01
-1.198389455676078796e-01
-1.029154807329177856e-01
6.044300273060798645e-02
-2.250611931085586548e-01
-1.388102620840072632e-01
2.551188506186008453e-02
4.014341905713081360e-02
1.762207299470901489e-01
-1.071312278509140015e-01
-1.358578205108642578e-01
6.401511281728744507e-02
-1.156769990921020508e-01
5.895357578992843628e-02
-1.738496273756027222e-01
-1.810102164745330811e-02
-1.864263266324996948e-01
2.753701433539390564e-02
1.380115151405334473e-01
9.777020663022994995e-02
-1.330416649580001831e-01
1.898625642061233521e-01
-3.910683095455169678e-02
-9.404068440198898315e-02
2.647599577903747559e-01
1.034192889928817749e-01
1.061221584677696228e-01
1.979614235460758209e-02
1.625108998268842697e-03
1.648329384624958038e-02
-1.211417466402053833e-01
-1.517609059810638428e-01
-9.776006639003753662e-02
9.230138361454010010e-02
3.869400173425674438e-02
2.151799947023391724e-01
1.144922599196434021e-01
7.857132703065872192e-02
2.100616842508316040e-01
6.386572122573852539e-02
-5.382290482521057129e-02
4.456160962581634521e-02
2.132487446069717407e-01
1.135245710611343384e-01
-1.457456499338150024e-01
1.128025501966476440e-01
8.152796328067779541e-02
-2.655432224273681641e-01
2.632458209991455078e-01
2.569612860679626465e-01
-9.546036273241043091e-02
7.259122282266616821e-02
-6.086941435933113098e-02
2.604186767712235451e-03
9.507134556770324707e-02
-2.149238018319010735e-03
6.597280502319335938e-03
1.464494913816452026e-01
-1.398548949509859085e-02
1.710974238812923431e-02
1.439814567565917969e-01
9.509498625993728638e-02
-2.396807447075843811e-02
1.848566681146621704e-01
3.438988029956817627e-01
1.073194593191146851e-01
-1.424566358327865601e-01
2.545163631439208984e-01
-2.059705369174480438e-02
-2.223292589187622070e-01
-4.888940975069999695e-02
5.637430548667907715e-01
1.521151605993509293e-02
-1.973438411951065063e-01
6.405452638864517212e-02
-5.851703882217407227e-02
2.560135424137115479e-01
1.986681371927261353e-01
9.534782916307449341e-02
-3.147868067026138306e-02
2.084325067698955536e-02
4.337016493082046509e-02
4.930920153856277466e-02
-5.933465436100959778e-02
-8.971228450536727905e-02
-9.774767793715000153e-03
-7.525681704282760620e-02
-6.841859966516494751e-02
2.206578385084867477e-03
2.892052568495273590e-02
2.141507416963577271e-01
1.333089619874954224e-01
-8.891359902918338776e-03
-1.140969619154930115e-01
-8.840786665678024292e-02
-2.126405388116836548e-01
5.899947881698608398e-02
1.801170855760574341e-01
-2.052437961101531982e-01
-6.855926662683486938e-02
-2.375270128250122070e-01
-9.114161878824234009e-02
1.931897848844528198e-01
-9.615585207939147949e-02
8.572911471128463745e-02
8.341384679079055786e-02
-6.399151682853698730e-02
-3.712659776210784912e-01
1.234392542392015457e-02
1.415691222064197063e-03
-1.220362782478332520e-01
1.127822324633598328e-01
1.374634653329849243e-01
-2.074959278106689453e-01
-9.500636160373687744e-02
-1.434548944234848022e-01
-1.547536104917526245e-01
-9.482844732701778412e-03
1.595839560031890869e-01
1.584568470716476440e-01
-2.366956770420074463e-01
1.110873818397521973e-01
1.637931466102600098e-01
-9.664312005043029785e-02
-9.352852590382099152e-03
6.637653708457946777e-02
-1.595231443643569946e-01
1.400078088045120239e-01
-6.810036301612854004e-02
-9.963856637477874756e-02
-1.188078597187995911e-01
8.218266814947128296e-02
-8.550832420587539673e-02
-6.245208531618118286e-02
-3.548895195126533508e-02
2.479062974452972412e-01
-1.107114031910896301e-01
-3.354960307478904724e-02
-6.715293973684310913e-02
1.185247227549552917e-01
5.402675643563270569e-02
1.011208519339561462e-01
1.755581498146057129e-01
-2.741666138172149658e-01
2.139939069747924805e-01
6.105643883347511292e-02
1.332385241985321045e-01
1.002104431390762329e-01
-3.964300453662872314e-02
-1.895504146814346313e-01
4.373798891901969910e-02
1.933440417051315308e-01
-3.223102986812591553e-01
7.642918080091476440e-02
8.612506091594696045e-02
-3.036119043827056885e-01
1.634193509817123413e-01
-2.386805266141891479e-01
3.522208705544471741e-02
-9.137072414159774780e-02
-6.748715043067932129e-02
-8.981088548898696899e-02
1.810339093208312988e-02
-9.282209724187850952e-02
1.055812686681747437e-01
-8.936836570501327515e-02
-2.628703713417053223e-01
9.382665157318115234e-02
-2.954377047717571259e-02
-1.749204397201538086e-01
-1.402025222778320312e-01
1.282933750189840794e-03
1.636716127395629883e-01
-4.133229702711105347e-02
-9.648773074150085449e-02
-5.584989488124847412e-02
-1.230858042836189270e-01
4.723529517650604248e-02
4.520112648606300354e-02
3.750554099678993225e-02
-3.351355716586112976e-02
1.519671932328492403e-04
8.167599886655807495e-02
2.405890971422195435e-01
7.627158612012863159e-02
2.213153094053268433e-01
-1.871081441640853882e-01
9.044184535741806030e-02
-1.254967302083969116e-01
3.812347073107957840e-03
8.954631164669990540e-03
1.760271936655044556e-01
-5.897321924567222595e-02
-6.401272118091583252e-02
2.140080481767654419e-01
1.246073320508003235e-01
4.830155987292528152e-03
-8.773510903120040894e-02
2.561890780925750732e-01
2.737223915755748749e-02
-3.510678559541702271e-02
2.101834267377853394e-01
1.534187793731689453e-01
-2.416395097970962524e-01
1.249717362225055695e-02
2.854861319065093994e-02
-2.012844830751419067e-01
-7.473503053188323975e-02
-8.774565160274505615e-02
-4.545902311801910400e-01
-6.129546836018562317e-02
5.586785729974508286e-03
-1.594191230833530426e-02
-2.247827202081680298e-01
2.436323016881942749e-01
2.006920725107192993e-01
1.867154389619827271e-01
-3.098753392696380615e-01
-6.771057099103927612e-02
8.262622356414794922e-02
-1.742449402809143066e-02
3.097819089889526367e-01
-1.691822856664657593e-01
5.507307499647140503e-02
5.580011755228042603e-02
1.078816875815391541e-02
6.021376326680183411e-02
-2.281850725412368774e-01
-2.110593486577272415e-03
1.242067432031035423e-03
-1.805966943502426147e-01
-1.975374966859817505e-01
-8.749558031558990479e-02
2.276356667280197144e-01
2.496176213026046753e-01
1.334751397371292114e-01
-1.647412925958633423e-01
-1.341340690851211548e-01
1.486122459173202515e-01
8.556863665580749512e-02
-4.276353120803833008e-02
-1.708851158618927002e-01
-7.834865711629390717e-03
8.344894647598266602e-02
4.927956312894821167e-02
3.498439618851989508e-04
-1.828214824199676514e-01
1.539346110075712204e-02
-3.086206018924713135e-01
-1.493642032146453857e-01
-1.907804757356643677e-01
-3.252729400992393494e-02
-1.124610826373100281e-01
-1.633012741804122925e-01
1.999503225088119507e-01
-1.649853438138961792e-01
1.661816835403442383e-01
7.970336079597473145e-02
8.755951188504695892e-03
-1.977794617414474487e-01
-2.047860920429229736e-01
2.166737765073776245e-01
-2.749441266059875488e-01
-4.467878863215446472e-02
-1.315973401069641113e-01
-3.444205820560455322e-01
1.598191559314727783e-01
-1.198113858699798584e-01
-4.586708918213844299e-02
1.101359203457832336e-01
5.496526509523391724e-02
-2.105880975723266602e-01
1.497975736856460571e-01
3.309119027107954025e-03
-3.275651484727859497e-02
1.639283299446105957e-01
1.130066961050033569e-01
-6.532178074121475220e-02
1.955811381340026855e-01
9.732705354690551758e-02
2.212706804275512695e-01
4.431398212909698486e-02
-1.977018117904663086e-01
2.224329411983489990e-01
1.635435521602630615e-01
-2.116959691047668457e-01
-1.644229292869567871e-01
1.844894886016845703e-01
-2.320851981639862061e-01
-4.083434939384460449e-01
2.931449376046657562e-02
-1.083620190620422363e-01
-2.299288809299468994e-01
-1.809041500091552734e-01
-1.126911416649818420e-01
1.549391597509384155e-01
4.723923280835151672e-02
1.589538902044296265e-01
-9.109949320554733276e-02
-2.882701754570007324e-01
-8.997103571891784668e-02
1.951100677251815796e-01
-1.630047559738159180e-01
-7.042637467384338379e-02
-2.037051022052764893e-01
3.367481231689453125e-01
2.172566503286361694e-01
1.218563690781593323e-01
7.315356284379959106e-02
-4.770110175013542175e-02
4.561866819858551025e-01
-1.857946217060089111e-01
-1.857155375182628632e-02
-1.120843514800071716e-01
-1.101852729916572571e-01
-3.515253216028213501e-02
6.086440384387969971e-02
2.037289738655090332e-01
-1.884167194366455078e-01
2.564275562763214111e-01
2.625099569559097290e-02
7.196310162544250488e-02
2.106958180665969849e-01
-6.402441859245300293e-02
-2.224605157971382141e-02
8.348238468170166016e-02
-5.851114541292190552e-02
2.201011776924133301e-01
-1.694600582122802734e-01
-2.689528465270996094e-02
2.512690722942352295e-01
1.141473948955535889e-01
-1.821802854537963867e-01
6.131809949874877930e-02
1.428350713104009628e-02
-3.723989799618721008e-02
9.387040138244628906e-02
4.363549500703811646e-02
-8.622371405363082886e-02
-2.373209297657012939e-01
4.722652584314346313e-02
9.425497800111770630e-02
6.060419231653213501e-02
1.171102374792098999e-01
5.109380930662155151e-02
-2.179907560348510742e-01
-1.540576964616775513e-01
7.826816290616989136e-02
8.199296146631240845e-02
2.773834764957427979e-01
7.471159845590591431e-02
-1.651435643434524536e-01
9.270074218511581421e-02
-2.892749942839145660e-02
-2.270654588937759399e-01
9.958107024431228638e-02
-5.991381779313087463e-02
-6.769802421331405640e-02
1.960048228502273560e-01
-2.537788450717926025e-01
1.483527421951293945e-01
-1.874411702156066895e-01
1.176037173718214035e-02
-1.789004206657409668e-01
1.637279391288757324e-01
-1.886751130223274231e-02
-1.808683276176452637e-01
7.261697202920913696e-02
2.376133389770984650e-02
-1.490913033485412598e-01
5.301116406917572021e-02
3.853060677647590637e-02
-2.893640287220478058e-02
8.334914594888687134e-02
2.109561115503311157e-01
6.328265368938446045e-02
-2.291208952665328979e-01
-1.485532969236373901e-01
9.341679513454437256e-02
-1.766536682844161987e-01
2.169405668973922729e-01
-5.832192953675985336e-03
1.428046673536300659e-01
4.844056814908981323e-02
1.451393663883209229e-01
7.077882438898086548e-02
-2.461620792746543884e-02
1.082153692841529846e-01
-2.491361349821090698e-01
-4.819707944989204407e-02
2.089347131550312042e-02
-8.976781368255615234e-02
3.498330339789390564e-02
-1.799035072326660156e-01
3.056611120700836182e-02
-1.803480088710784912e-01
-4.232393503189086914e-01
1.555269062519073486e-01
-3.331558406352996826e-01
-1.044688150286674500e-01
-1.327012479305267334e-01
-1.658125519752502441e-01
1.545466035604476929e-01
7.473116368055343628e-02
6.414173543453216553e-02
-7.163325697183609009e-02
-2.637558877468109131e-01
-1.963194459676742554e-01
-2.075545191764831543e-01
-5.666679888963699341e-02
-2.399604469537734985e-01
3.767077624797821045e-02
8.043485879898071289e-02
-1.439585629850625992e-02
3.576509281992912292e-02
1.879672110080718994e-01
-2.888522744178771973e-01
1.746223494410514832e-02
1.647646427154541016e-01
-2.017334848642349243e-02
-1.372133642435073853e-01
-2.498073130846023560e-01
-9.956670552492141724e-02
1.735538393259048462e-01
-4.218951612710952759e-02
-2.247511297464370728e-01
-1.483699074015021324e-03
8.406777866184711456e-03
-2.130383402109146118e-01
-1.398085616528987885e-02
-2.845101244747638702e-02
-4.287898540496826172e-02
-1.343706101179122925e-01
-6.625624001026153564e-02
1.353059113025665283e-01
-2.574295699596405029e-01
2.425167113542556763e-01
1.521235555410385132e-01
1.197676286101341248e-01
1.222758218646049500e-01
-1.427547037601470947e-01
-2.564634084701538086e-01
1.300413310527801514e-01
1.744788326323032379e-02
-9.162959456443786621e-02
2.343124151229858398e-01
-1.032308116555213928e-01
-8.996246382594108582e-03
1.502603143453598022e-01
1.025404334068298340e-01
6.039578095078468323e-02
4.661861434578895569e-02
-1.320866309106349945e-02
-2.462175637483596802e-01
-2.817184627056121826e-01
-2.074086517095565796e-01
-1.038289368152618408e-01
6.679441034793853760e-02
-8.553719520568847656e-02
2.212335616350173950e-01
-1.213090270757675171e-01
1.522581726312637329e-01
6.913106143474578857e-02
-7.113037630915641785e-03
-2.006551250815391541e-02
3.392278403043746948e-02
-4.296036064624786377e-02
-1.101076453924179077e-01
3.089084103703498840e-02
-4.783940687775611877e-02
3.489589691162109375e-02
-2.238035947084426880e-02
-2.032478153705596924e-02
6.442729383707046509e-03
-1.522612124681472778e-01
-1.036085262894630432e-01
-7.328859716653823853e-02
-5.563794821500778198e-02
-1.458060890436172485e-01
1.129882484674453735e-01
-2.421105504035949707e-01
1.571800261735916138e-01
-5.661936849355697632e-02
2.153140753507614136e-01
1.603637039661407471e-01
1.025919467210769653e-01
1.522528473287820816e-03
1.563885807991027832e-01
-1.798155754804611206e-01
1.216176152229309082e-01
-1.939494609832763672e-01
8.209879696369171143e-02
8.507375605404376984e-04
1.362478286027908325e-01
1.782588213682174683e-01
-2.257152087986469269e-02
1.029135510325431824e-01
1.861594021320343018e-01
-1.059729084372520447e-01
-1.774002164602279663e-01
-3.173026815056800842e-02
3.043809346854686737e-02
1.315002590417861938e-01
-9.190297871828079224e-02
-1.099365204572677612e-01
2.465862929821014404e-01
-1.328543126583099365e-01
3.641512989997863770e-01
-1.254185587167739868e-01
-4.883981123566627502e-02
-1.925078630447387695e-01
-2.868515439331531525e-02
3.163538500666618347e-02
1.169832944869995117e-01
7.448163628578186035e-02
8.586994558572769165e-02
-2.449764125049114227e-02
-3.608582168817520142e-02
-1.103568971157073975e-01
-6.105558015406131744e-03
7.365830987691879272e-02
-1.555660516023635864e-01
3.562677800655364990e-01
-2.043166458606719971e-01
-1.408525109291076660e-01
-1.464533656835556030e-01
8.026496320962905884e-02
2.025921940803527832e-01
-9.911306947469711304e-02
1.603798270225524902e-01
-1.064654961228370667e-01
1.813927739858627319e-01
4.504720866680145264e-02
-1.238743364810943604e-01
-1.125139668583869934e-01
1.819936484098434448e-01
1.161321029067039490e-01
5.733076483011245728e-02
3.684964403510093689e-02
-1.513160672038793564e-02
-2.713742479681968689e-02
1.369406580924987793e-01
-1.377332210540771484e-01
-1.877306215465068817e-02
-2.592894434928894043e-02
8.438702672719955444e-02
4.653496295213699341e-02
5.935964733362197876e-02
9.434159100055694580e-02
6.189321726560592651e-02
-1.905898004770278931e-01
-1.609798818826675415e-01
6.153050437569618225e-02
8.543940633535385132e-02
-1.831089705228805542e-01
-2.287561260163784027e-02
9.477359801530838013e-02
-4.824979230761528015e-02
-4.368186742067337036e-02
-2.160957828164100647e-02
-1.890246123075485229e-01
-2.933929674327373505e-02
3.969843313097953796e-02
1.261873096227645874e-01
1.857662945985794067e-01
-1.782553046941757202e-01
1.500026732683181763e-01
2.187308110296726227e-02
1.076854020357131958e-01
5.206395313143730164e-02
-1.333435438573360443e-02
1.122459396719932556e-01
-1.261036563664674759e-02
-1.154962554574012756e-01
-2.829864248633384705e-02
8.331833034753799438e-02
1.437423098832368851e-02
-6.034299265593290329e-03
1.623053997755050659e-01
-8.318620175123214722e-02
-1.081997230648994446e-01
3.613392636179924011e-02
6.439548730850219727e-02
1.777753531932830811e-01
1.319145411252975464e-02
1.639541611075401306e-02
2.403066605329513550e-01
1.183745637536048889e-01
1.469397842884063721e-01
2.123478204011917114e-01
-4.035046696662902832e-02
2.105991989374160767e-01
-1.341795623302459717e-01
-2.746984921395778656e-02
1.716686785221099854e-01
1.691581159830093384e-01
-2.704120874404907227e-01
-1.589570045471191406e-01
-1.169826984405517578e-01
3.989120945334434509e-02
1.995697170495986938e-01
4.822876304388046265e-02
8.338297903537750244e-02
4.742772504687309265e-02
-4.787413403391838074e-02
1.651552617549896240e-01
6.830490659922361374e-03
2.122630476951599121e-01
-2.243004292249679565e-01
-1.913441419601440430e-01
-1.649202555418014526e-01
1.653265804052352905e-01
-1.186462491750717163e-01
1.284846961498260498e-01
1.065026521682739258e-01
1.471888720989227295e-01
-1.216996833682060242e-01
-1.709888577461242676e-01
-9.034796059131622314e-02
1.826630719006061554e-02
-1.802341938018798828e-01
-8.747888356447219849e-02
-2.098859846591949463e-01
-3.201724588871002197e-02
2.111269831657409668e-01
-7.604690641164779663e-02
-3.384616225957870483e-02
-4.999523237347602844e-02
-2.332711070775985718e-01
-1.059509515762329102e-01
6.372230499982833862e-02
-1.584162116050720215e-01
3.351077809929847717e-02
6.364198774099349976e-02
1.741557419300079346e-01
-2.200106978416442871e-01
1.259492188692092896e-01
2.464409917593002319e-01
1.553554683923721313e-01
1.190788671374320984e-01
-7.080927491188049316e-02
8.452784270048141479e-02
-4.897128045558929443e-02
3.585400804877281189e-02
1.902245432138442993e-01
-1.143548265099525452e-01
-1.763717532157897949e-01
1.685879379510879517e-01
1.407300978899002075e-01
7.961988449096679688e-02
3.401998057961463928e-02
1.597999185323715210e-01
-1.964686363935470581e-01
1.374063342809677124e-01
1.934128627181053162e-02
-2.950996905565261841e-02
5.290570482611656189e-02
1.526449620723724365e-01
1.159943863749504089e-01
-2.166907936334609985e-01
1.751378923654556274e-01
7.193233817815780640e-02
2.321785837411880493e-01
6.146094575524330139e-02
-2.420379035174846649e-02
-1.948262006044387817e-01
-1.402204483747482300e-01
-1.533155608922243118e-02
-5.245494656264781952e-03
-1.867293007671833038e-02
-8.034241199493408203e-02
-1.002361625432968140e-01
2.882251888513565063e-02
-3.628557920455932617e-01
2.123852372169494629e-01
-2.366335839033126831e-01
1.675534993410110474e-01
-3.750554099678993225e-02
-6.564846634864807129e-02
-2.376217991113662720e-01
3.575201034545898438e-01
-1.052280142903327942e-01
6.889008730649948120e-02
1.391405165195465088e-01
1.360196173191070557e-01
-1.325657665729522705e-01
1.398981362581253052e-01
-2.382128983736038208e-01
1.006521135568618774e-01
-1.678676903247833252e-01
1.418748348951339722e-01
9.210769832134246826e-02
-2.609031796455383301e-01
2.748396396636962891e-01
-1.016421616077423096e-01
-2.191545069217681885e-02
-5.113805830478668213e-02
-1.026109904050827026e-01
3.178694546222686768e-01
3.712767036631703377e-03
2.735648676753044128e-02
1.352288573980331421e-01
-5.436119157820940018e-03
1.209510788321495056e-01
-2.064234465360641479e-01
-2.751556932926177979e-01
-1.101766601204872131e-01
-7.928121834993362427e-02
-6.446047425270080566e-01
-1.707461476325988770e-01
1.217783764004707336e-01
-2.118089701980352402e-03
-2.995992898941040039e-01
2.087418138980865479e-01
2.180599868297576904e-01
-4.511926174163818359e-01
-1.730478703975677490e-01
8.520247787237167358e-02
-1.067359223961830139e-01
4.545804485678672791e-02
-5.344203114509582520e-02
1.055790036916732788e-01
6.585595011711120605e-02
-1.406075209379196167e-01
-6.846488267183303833e-02
1.331607103347778320e-01
-2.845187783241271973e-01
-9.074077010154724121e-02
-3.333671391010284424e-01
4.332138970494270325e-02
1.068020332604646683e-02
-5.235889181494712830e-02
-1.971880048513412476e-01
4.959067702293395996e-02
1.560062915086746216e-01
-2.906619198620319366e-02
2.013613730669021606e-01
-1.963863074779510498e-01
-1.329471170902252197e-01
-1.883437931537628174e-01
-3.149560838937759399e-02
5.465051159262657166e-02
-4.636675119400024414e-02
6.528745591640472412e-02
-5.989364534616470337e-02
1.432290524244308472e-01
-3.173015266656875610e-02
-6.285193562507629395e-02
-1.636433452367782593e-01
-1.438693255186080933e-01
1.601894386112689972e-02
-9.758921712636947632e-02
1.051883026957511902e-01
-4.662256687879562378e-02
-1.700865626335144043e-01
-1.458435505628585815e-01
1.684681773185729980e-01
2.485673427581787109e-01
-3.331835195422172546e-02
-9.358485788106918335e-02
1.750784665346145630e-01
2.235327064990997314e-01
6.334209442138671875e-02
-1.682386845350265503e-01
-1.147905811667442322e-01
-1.883941888809204102e-01
3.580982331186532974e-03
1.592008210718631744e-02
1.002831310033798218e-01
-2.526325583457946777e-01
-1.347411870956420898e-01
3.590098619461059570e-01
-3.222941607236862183e-02
1.131848767399787903e-01
-9.550890326499938965e-02
3.151799142360687256e-01
7.010126858949661255e-02
1.633705645799636841e-01
2.854555845260620117e-01
-7.539589703083038330e-02
8.207941055297851562e-02
1.630273312330245972e-01
2.831903100013732910e-01
1.427612900733947754e-01
3.011197969317436218e-02
4.887658730149269104e-02
1.714456826448440552e-01
2.533093690872192383e-01
4.021781980991363525e-01
-7.979176938533782959e-02
9.470415860414505005e-02
-1.869139224290847778e-01
-3.897911682724952698e-02
-2.231446094810962677e-02
1.390399336814880371e-01
3.642755448818206787e-01
5.355132371187210083e-02
8.199953287839889526e-02
-2.182121723890304565e-01
7.608035951852798462e-02
-1.136851429939270020e+00
8.907390385866165161e-02
8.187367767095565796e-02
4.994727671146392822e-02
-4.840893670916557312e-02
-5.947682633996009827e-02
-1.857989132404327393e-01
-2.500882372260093689e-02
-2.732749581336975098e-01
1.945513188838958740e-01
-1.436919867992401123e-01
1.390820592641830444e-01
-1.362454444169998169e-01
1.502777040004730225e-01
-1.614340990781784058e-01
1.381914764642715454e-01
1.658367961645126343e-01
2.150522172451019287e-01
6.121483445167541504e-02
-2.365265488624572754e-01
-2.608164846897125244e-01
1.059116274118423462e-01
-1.227703839540481567e-01
-6.359729915857315063e-02
-2.764215171337127686e-01
-7.944566756486892700e-02
8.667387068271636963e-03
2.782749757170677185e-02
-3.374484777450561523e-01
-9.975349903106689453e-02
-5.034621804952621460e-02
2.281444668769836426e-01
-1.725467145442962646e-01
-3.006314486265182495e-02
9.013112634420394897e-02
-1.203546207398176193e-02
-3.321286141872406006e-01
-6.202829629182815552e-02
-1.151547059416770935e-01
-1.658817827701568604e-01
8.034000545740127563e-02
1.945654302835464478e-01
-1.249407380819320679e-01
2.418412640690803528e-02
-3.811334818601608276e-02
1.967322453856468201e-02
2.216896414756774902e-02
-3.736859858036041260e-01
-1.194079816341400146e-01
-3.264879882335662842e-01
-2.579733729362487793e-01
1.494826525449752808e-01
-4.561666399240493774e-02
5.748083349317312241e-03
1.710235923528671265e-01
4.644901677966117859e-02
-3.087131492793560028e-02
2.807889878749847412e-01
1.892653256654739380e-01
-3.379526436328887939e-01
-4.767698794603347778e-02
-3.255485892295837402e-01
-4.945381078869104385e-03
8.857779204845428467e-02
1.259503662586212158e-01
-3.360807895660400391e-02
-1.626263111829757690e-01
1.658230423927307129e-01
-9.090704470872879028e-02
1.728594601154327393e-01
-2.599039375782012939e-01
2.814917862415313721e-01
1.070663109421730042e-01
-2.160860411822795868e-02
-2.085335319861769676e-03
5.583999678492546082e-02
7.661118358373641968e-02
-3.757907450199127197e-02
1.561132632195949554e-02
-1.812292188405990601e-01
-3.445868939161300659e-02
7.408641278743743896e-02
7.452741265296936035e-02
2.689505219459533691e-01
2.773112952709197998e-01
-2.564834663644433022e-03
7.614999264478683472e-02
-9.751243051141500473e-04
-1.052652448415756226e-01
-1.464852690696716309e-01
2.420874387025833130e-01
-1.484804153442382812e-01
1.727290004491806030e-01
2.433219999074935913e-01
2.181586921215057373e-01
-1.242761909961700439e-01
-1.980425268411636353e-01
1.619429588317871094e-01
-1.993919163942337036e-01
1.275784075260162354e-01
8.323300629854202271e-02
1.289650052785873413e-01
-5.940512195229530334e-02
1.288191378116607666e-01
2.306857407093048096e-01
-4.602888226509094238e-02
7.390538603067398071e-02
-2.996747940778732300e-02
1.663959026336669922e-01
3.801572136580944061e-03
1.825026273727416992e-01
-1.305368989706039429e-01
-1.332072466611862183e-01
-1.026681587100028992e-01
-6.822930276393890381e-02
2.758167684078216553e-01
-1.892553716897964478e-01
9.942192584276199341e-02
8.214142173528671265e-02
1.800301373004913330e-01
1.917270720005035400e-01
-3.328946828842163086e-01
-3.344642231240868568e-03
-6.797842681407928467e-02
-1.588699035346508026e-02
-1.886214017868041992e-01
-1.659586131572723389e-01
5.782439559698104858e-02
1.081389486789703369e-01
1.577679365873336792e-01
9.327901899814605713e-02
-2.839560508728027344e-01
3.701759502291679382e-02
2.241539955139160156e-02
-1.572743803262710571e-01
-1.737131476402282715e-01
1.404517740011215210e-01
-1.601001918315887451e-01
-4.622823558747768402e-03
2.013832032680511475e-01
1.317573636770248413e-01
-9.689948707818984985e-02
1.132327690720558167e-01
1.555338501930236816e-01
-2.419758774340152740e-02
1.830514073371887207e-01
-8.427023142576217651e-02
6.988357752561569214e-02
-3.591511771082878113e-02
8.254052698612213135e-02
2.326276451349258423e-01
2.007921636104583740e-01
-1.871993690729141235e-01
-1.955786645412445068e-01
-3.099357150495052338e-02
2.949643433094024658e-01
-5.964317545294761658e-02
-3.547982871532440186e-01
1.873634457588195801e-01
-5.761758238077163696e-02
-2.191402167081832886e-01
1.286486387252807617e-01
2.314439862966537476e-01
-9.773451089859008789e-02
2.788685262203216553e-01
1.588016748428344727e-01
1.028344705700874329e-01
1.569518744945526123e-01
-2.447154670953750610e-01
-3.492276072502136230e-01
3.107532672584056854e-02
2.046996206045150757e-01
-1.597936153411865234e-01
-1.598850488662719727e-01
-4.352695941925048828e-01
9.376540780067443848e-02
-3.454172983765602112e-02
6.665802747011184692e-02
7.765278965234756470e-02
-1.613718122243881226e-01
-3.585336208343505859e-01
-1.386485248804092407e-01
1.759098172187805176e-01
-1.820337027311325073e-01
1.833121180534362793e-01
-1.943445950746536255e-01
-8.338585495948791504e-02
5.773693695664405823e-02
-1.886154860258102417e-01
-1.554907262325286865e-01
-2.408480942249298096e-01
-1.764746382832527161e-02
3.247373402118682861e-01
-7.089891284704208374e-02
-7.599852234125137329e-02
1.122189685702323914e-01
-2.542741969227790833e-02
-3.049724362790584564e-02
-1.017318293452262878e-01
7.440704852342605591e-02
4.128734022378921509e-02
-1.490731090307235718e-01
2.057591825723648071e-01
1.777130216360092163e-01
-1.766029372811317444e-02
-1.672750860452651978e-01
2.189841419458389282e-01
1.098449006676673889e-01
-7.857145974412560463e-04
-1.036571636795997620e-01
2.161893397569656372e-01
-1.654240787029266357e-01
-1.711672171950340271e-02
1.240560859441757202e-01
1.489920169115066528e-01
1.938201487064361572e-01
6.756389141082763672e-02
-1.168537437915802002e-01
-2.941301278769969940e-02
-4.873576108366250992e-03
-1.222317386418581009e-02
-1.690602302551269531e-01
-1.221712529659271240e-01
-7.938518375158309937e-02
-2.063100337982177734e-01
-1.442956924438476562e-01
2.036864608526229858e-01
-4.631070420145988464e-02
1.548755019903182983e-01
1.227060183882713318e-01
-7.455816864967346191e-02
3.579623103141784668e-01
-8.468641340732574463e-02
1.022184044122695923e-01
1.737566143274307251e-01
-1.238427832722663879e-01
1.381703615188598633e-01
1.137953624129295349e-01
-2.079949080944061279e-01
7.749005407094955444e-02
-1.615031361579895020e-01
-1.600818336009979248e-01
-1.723197847604751587e-02
1.077868863940238953e-01
2.576257884502410889e-01
1.309567093849182129e-01
-1.784778535366058350e-01
4.249351099133491516e-02
-2.227847874164581299e-01
1.557545512914657593e-01
-2.358760237693786621e-01
6.498113274574279785e-02
1.347850710153579712e-01
1.613661646842956543e-01
1.454492509365081787e-01
1.709969043731689453e-01
-6.581892818212509155e-02
-3.771751374006271362e-02
-2.283379882574081421e-01
2.101243287324905396e-02
-8.893178775906562805e-03
1.637924909591674805e-01
-2.143161892890930176e-01
-2.739956676959991455e-01
8.502967655658721924e-02
2.141518443822860718e-01
1.038627326488494873e-01
-2.605742812156677246e-01
8.985875546932220459e-02
1.479107420891523361e-02
-8.377403020858764648e-02
1.270729005336761475e-01
2.987464964389801025e-01
-1.065725274384021759e-02
8.291771262884140015e-02
4.996137320995330811e-02
4.181488417088985443e-03
1.396590471267700195e-01
2.292734533548355103e-01
-3.551867976784706116e-02
-1.774586141109466553e-01
-6.335480511188507080e-02
1.062584295868873596e-01
2.463089823722839355e-01
1.908574700355529785e-01
1.156124323606491089e-01
-2.497038803994655609e-02
-1.742658168077468872e-01
1.078496202826499939e-01
-2.549256980419158936e-01
6.662520766258239746e-02
-6.258130818605422974e-02
-1.261771321296691895e-01
-4.873178154230117798e-02
-1.365756522864103317e-02
-1.920879334211349487e-01
3.002341650426387787e-02
-4.753655195236206055e-02
-1.146963536739349365e-01
-7.131765037775039673e-02
9.297760576009750366e-02
4.884527251124382019e-02
2.141723185777664185e-01
4.227799549698829651e-02
-4.709951207041740417e-02
-8.779586106538772583e-02
-1.148395314812660217e-01
-2.187724560499191284e-01
-1.823410093784332275e-01
1.666467450559139252e-02
7.276809960603713989e-02
1.566138565540313721e-01
2.251156419515609741e-01
2.781127989292144775e-01
8.654205501079559326e-02
1.115769967436790466e-01
3.823929652571678162e-02
1.742511093616485596e-01
-1.540345996618270874e-01
-2.116189897060394287e-01
-3.522432744503021240e-01
2.210346236824989319e-02
5.443830788135528564e-02
6.163456663489341736e-02
-6.383582949638366699e-02
-1.993419975042343140e-01
1.464427709579467773e-01
2.027100771665573120e-01
8.573849499225616455e-02
9.875936061143875122e-02
2.149774692952632904e-02
5.735285580158233643e-02
-5.176646634936332703e-02
-1.484388858079910278e-02
-2.190974652767181396e-01
1.750335097312927246e-01
-1.988953351974487305e-01
1.198036670684814453e-01
2.376480698585510254e-01
2.811792865395545959e-02
1.154746189713478088e-01
-2.799871861934661865e-01
1.053241789340972900e-01
1.609772592782974243e-01
5.073541775345802307e-02
1.836667358875274658e-01
-3.905199840664863586e-02
2.451328486204147339e-01
-3.311236202716827393e-01
-3.509065508842468262e-01
2.896826155483722687e-02
1.161972358822822571e-01
-1.418899446725845337e-01
4.062816500663757324e-02
-1.244663000106811523e-01
1.925379037857055664e-01
1.395837664604187012e-01
-1.946577429771423340e-01
4.017414897680282593e-02
2.939551137387752533e-02
1.681713461875915527e-01
4.333489388227462769e-02
1.090578213334083557e-01
-1.377737075090408325e-01
5.750525370240211487e-02
-1.698775216937065125e-02
-2.672705054283142090e-01
-2.682842612266540527e-01
-1.625105589628219604e-01
8.798041939735412598e-02
3.221395984292030334e-02
9.053880721330642700e-02
-1.302328705787658691e-01
2.300252914428710938e-01
-2.202163338661193848e-01
1.333828866481781006e-01
-2.362983673810958862e-02
-1.101616993546485901e-01
1.021364331245422363e-01
9.067913889884948730e-02
-1.543419957160949707e-01
6.194889545440673828e-02
1.537911146879196167e-01
1.074392646551132202e-01
-1.331218183040618896e-01
1.226623635739088058e-02
3.514842316508293152e-02
7.281475514173507690e-02
-1.006922200322151184e-01
-1.089510098099708557e-01
-1.732080578804016113e-01
-4.195640236139297485e-02
-1.051398515701293945e-01
-2.050972431898117065e-01
-1.041306257247924805e-01
1.651357114315032959e-01
4.571380559355020523e-03
8.747491240501403809e-02
-1.063985973596572876e-01
1.203432455658912659e-01
6.312728673219680786e-02
-3.387128710746765137e-01
-2.296028137207031250e-01
2.775325775146484375e-01
1.481527090072631836e-01
6.118440628051757812e-02
1.585410088300704956e-01
8.964637294411659241e-03
1.493575125932693481e-01
-8.225388824939727783e-02
-9.480522572994232178e-02
4.045405425131320953e-03
-7.506723701953887939e-02
-6.227147579193115234e-02
4.227321129292249680e-03
7.938516139984130859e-02
4.412775859236717224e-02
-7.100702822208404541e-02
-1.610991954803466797e-01
6.006637215614318848e-02
-1.422736197710037231e-01
-1.448712944984436035e-01
1.838587373495101929e-01
-4.738706350326538086e-02
1.035705208778381348e-01
-3.156378492712974548e-02
-2.336732894182205200e-01
9.269301779568195343e-03
-1.114652827382087708e-01
-2.023849189281463623e-01
8.270591497421264648e-02
-1.255269795656204224e-01
1.451972275972366333e-01
-7.310738414525985718e-02
2.631886899471282959e-01
-6.210571900010108948e-02
1.033511832356452942e-01
9.936748072504997253e-03
3.601046279072761536e-02
-4.030241444706916809e-02
-1.542101055383682251e-01
-1.527811437845230103e-01
9.291764348745346069e-02
-8.997580409049987793e-02
1.512705236673355103e-01
-2.669035196304321289e-01
-2.137747108936309814e-01
-1.779512614011764526e-01
-2.656286060810089111e-01
2.186688929796218872e-01
-5.337395891547203064e-02
9.696938097476959229e-02
-1.867788136005401611e-01
4.229002073407173157e-02
2.815425954759120941e-02
-1.452548652887344360e-01
-8.107575029134750366e-02
2.147701978683471680e-01
-1.672008782625198364e-01
-1.548340022563934326e-01
1.955685317516326904e-01
1.518676429986953735e-01
-1.937011927366256714e-01
-1.252118796110153198e-01
-2.137821614742279053e-01
8.031914383172988892e-02
8.052138239145278931e-02
9.073399007320404053e-02
-1.788128763437271118e-01
2.912775089498609304e-04
-1.738589107990264893e-01
7.655005156993865967e-02
1.072028204798698425e-01
6.842589378356933594e-02
1.235591098666191101e-01
-1.367948800325393677e-01
-1.878850162029266357e-01
1.907909959554672241e-01
1.819248497486114502e-01
2.485569566488265991e-02
3.387762233614921570e-02
-1.713210642337799072e-01
-1.465820521116256714e-01
-4.297896102070808411e-02
1.146145910024642944e-01
1.875498443841934204e-01
-7.641086727380752563e-02
-7.325495779514312744e-02
4.617540165781974792e-03
2.003296092152595520e-02
-2.419742047786712646e-01
-2.125840447843074799e-02
-1.967367529869079590e-01
7.346159219741821289e-02
-1.592024713754653931e-01
1.299853771924972534e-01
1.990654170513153076e-01
3.815847262740135193e-02
-1.998548954725265503e-01
2.163302302360534668e-01
-8.249759674072265625e-02
1.424127258360385895e-02
1.481161266565322876e-01
-3.976161777973175049e-02
-6.970039755105972290e-02
-1.116012223064899445e-02
-1.550595909357070923e-01
-1.746652275323867798e-01
-1.544884145259857178e-01
-1.311550438404083252e-01
-1.134611591696739197e-01
6.648539006710052490e-02
2.126550376415252686e-01
-1.537505686283111572e-01
-9.678589552640914917e-02
2.927608788013458252e-02
1.566995680332183838e-01
8.121655881404876709e-02
7.567563652992248535e-02
-1.902133673429489136e-01
3.586709126830101013e-02
2.491682916879653931e-01
-1.025092452764511108e-01
5.617018043994903564e-02
8.766500651836395264e-02
-1.276297569274902344e-01
2.424648404121398926e-01
4.719454795122146606e-02
-2.470444887876510620e-03
