2.445266023278236389e-02
-2.355274558067321777e-01
-1.931484788656234741e-02
-9.949386864900588989e-02
-1.017442420125007629e-01
-1.403955668210983276e-01
4.114890098571777344e-02
-2.886528074741363525e-01
-1.587194055318832397e-01
1.872965246438980103e-01
1.582739800214767456e-01
-2.978416085243225098e-01
-1.342011541128158569e-01
1.077197343111038208e-01
3.198845311999320984e-02
-7.332611829042434692e-02
-1.239707544445991516e-01
-2.383637428283691406e-01
-1.304377019405364990e-01
4.143513739109039307e-02
-6.184005737304687500e-02
-5.809732526540756226e-02
-1.568085253238677979e-01
8.551139384508132935e-02
-6.796403974294662476e-02
-1.791244298219680786e-01
2.233028411865234375e-03
1.737846992909908295e-02
1.398135125637054443e-01
-1.075526550412178040e-01
-1.719644814729690552e-01
-1.747047007083892822e-01
-9.214415401220321655e-02
-3.820274397730827332e-02
1.062121242284774780e-01
-7.144350558519363403e-02
-4.506453499197959900e-02
6.867837626487016678e-03
2.223341166973114014e-02
-1.878377050161361694e-01
8.452268689870834351e-02
1.343871206045150757e-01
-3.157747443765401840e-03
3.574138879776000977e-02
1.386765688657760620e-01
3.165678679943084717e-02
1.316921859979629517e-01
8.705057948827743530e-02
-2.930385805666446686e-02
1.686508655548095703e-01
-1.270355731248855591e-01
9.069648571312427521e-03
-1.541869491338729858e-01
-2.404727935791015625e-01
-2.591322408989071846e-03
2.376668900251388550e-01
7.509581744670867920e-03
1.138869151473045349e-01
1.246692240238189697e-01
8.245590329170227051e-02
2.300447523593902588e-01
2.041510790586471558e-01
2.054817229509353638e-01
1.731503158807754517e-01
4.850708693265914917e-02
-3.067145356908440590e-03
2.178042382001876831e-01
-3.455284610390663147e-02
1.392690986394882202e-01
8.096420019865036011e-02
-1.644350290298461914e-01
-3.976238146424293518e-02
-7.744022458791732788e-02
-1.877763271331787109e-01
-2.228978276252746582e-01
-2.523933947086334229e-01
-1.914748400449752808e-01
-9.985036402940750122e-02
-1.269392818212509155e-01
5.775516852736473083e-02
-5.803637206554412842e-02
2.128937467932701111e-02
6.371717900037765503e-02
2.537807822227478027e-02
-5.707343667745590210e-02
-6.315212696790695190e-02
-1.610656380653381348e-01
-7.061077654361724854e-02
1.696440875530242920e-01
1.354056000709533691e-01
1.380746960639953613e-01
2.015714161098003387e-02
-1.629670560359954834e-01
1.786910593509674072e-01
2.908560447394847870e-02
-1.667874455451965332e-01
-2.700572907924652100e-01
2.282212078571319580e-01
2.072899229824542999e-02
1.600441038608551025e-01
-9.568038582801818848e-02
2.124498486518859863e-01
5.256187543272972107e-02
-2.478454560041427612e-01
-2.358723431825637817e-01
2.173850685358047485e-01
7.279580924659967422e-03
-4.313456825911998749e-03
-1.055049151182174683e-01
6.173980981111526489e-02
-1.234869807958602905e-01
1.039264425635337830e-01
-2.557028830051422119e-02
-2.417645603418350220e-01
-2.399720251560211182e-02
-9.763492643833160400e-02
1.213444694876670837e-01
7.160153985023498535e-02
6.223606318235397339e-02
-4.800186306238174438e-02
2.804636359214782715e-01
-3.079517371952533722e-02
-1.018615365028381348e-01
9.067095816135406494e-02
1.870343089103698730e-01
1.359217464923858643e-01
1.386915892362594604e-01
-1.351740211248397827e-01
1.152095869183540344e-01
7.799217849969863892e-02
5.700312554836273193e-02
-5.734823644161224365e-02
8.033891022205352783e-02
-8.818001300096511841e-02
1.990689784288406372e-01
-1.823532730340957642e-01
1.514414399862289429e-01
-1.547342985868453979e-01
-1.617497354745864868e-01
1.848133653402328491e-01
9.800136089324951172e-02
-1.651711016893386841e-01
-4.142326116561889648e-02
2.094950228929519653e-01
2.010542750358581543e-01
-1.116523668169975281e-01
2.639195621013641357e-01
4.274984821677207947e-02
-1.670283675193786621e-01
1.073404699563980103e-01
-1.481996327638626099e-01
1.931563615798950195e-01
-1.033518388867378235e-01
-1.921734213829040527e-01
-1.566658020019531250e-01
-3.472138941287994385e-02
-3.292822539806365967e-01
-1.105533987283706665e-01
2.341221570968627930e-01
1.114540174603462219e-01
-2.905855886638164520e-02
1.821612715721130371e-01
-1.650997549295425415e-01
1.480800360441207886e-01
1.032729372382164001e-01
-1.584357023239135742e-01
-1.338245579972863197e-03
-3.960261121392250061e-02
2.659816853702068329e-02
-1.165249943733215332e-01
-4.901687055826187134e-02
-1.570649817585945129e-02
-1.176083460450172424e-01
8.543265983462333679e-03
2.283059358596801758e-01
3.149465098977088928e-02
3.225354244932532310e-03
7.725302129983901978e-02
-6.859769113361835480e-03
-6.427697092294692993e-02
6.123381480574607849e-02
1.121566072106361389e-01
1.873848587274551392e-02
5.822682380676269531e-02
-1.112289503216743469e-01
-3.578877449035644531e-02
2.072252631187438965e-01
1.249979436397552490e-01
8.190175145864486694e-02
-9.703225642442703247e-02
-1.547278463840484619e-01
2.050830423831939697e-01
3.567708656191825867e-02
1.533482670783996582e-01
-1.868758797645568848e-01
-1.485796570777893066e-01
2.372627407312393188e-01
-6.859382241964340210e-02
2.196626663208007812e-01
1.036588661372661591e-02
-5.574611574411392212e-02
-8.410923928022384644e-02
-1.335426121950149536e-01
1.937430649995803833e-01
7.813653349876403809e-02
-2.237074226140975952e-01
-1.293107271194458008e-01
-3.050448298454284668e-01
2.404225468635559082e-01
2.103603482246398926e-01
5.092446133494377136e-02
2.104065194725990295e-02
-1.269520223140716553e-01
1.074835807085037231e-01
7.169166952371597290e-02
4.326191917061805725e-02
-4.842972755432128906e-02
-1.962817274034023285e-02
-1.144463345408439636e-01
9.454730898141860962e-02
1.595799624919891357e-01
-2.001482248306274414e-01
-2.183026634156703949e-03
1.837808638811111450e-01
7.563015073537826538e-02
7.584290206432342529e-02
-6.659849733114242554e-02
2.037384063005447388e-01
7.507721334695816040e-02
-9.251427650451660156e-02
-2.108513563871383667e-01
-1.474348753690719604e-01
-6.839034706354141235e-02
1.508334130048751831e-01
-4.123000055551528931e-02
-1.853438466787338257e-01
-1.728352010250091553e-01
-1.884142309427261353e-01
-3.923480957746505737e-02
1.967033296823501587e-01
1.834525465965270996e-01
-2.079610377550125122e-01
9.713198989629745483e-02
1.474577039480209351e-01
-2.076062560081481934e-01
-1.255379873327910900e-03
-7.109774649143218994e-02
-2.063576579093933105e-01
-6.499519199132919312e-02
-1.135219633579254150e-01
9.839653037488460541e-03
2.102582007646560669e-01
-1.095928065478801727e-02
-2.469021081924438477e-01
9.789697080850601196e-02
4.139105975627899170e-02
-1.702588647603988647e-01
1.046884581446647644e-01
5.455430597066879272e-02
1.950702518224716187e-01
-1.043179556727409363e-01
1.947349756956100464e-01
-2.646273374557495117e-02
7.884851843118667603e-02
1.519872397184371948e-01
-1.652544140815734863e-01
-1.085557192564010620e-01
-4.587472230195999146e-02
-1.548525691032409668e-01
6.773988902568817139e-02
-5.740201845765113831e-02
-1.139195635914802551e-02
1.312784105539321899e-01
1.656984239816665649e-01
7.497401535511016846e-02
4.452854394912719727e-02
-1.005310490727424622e-01
-5.978818517178297043e-03
-1.075078547000885010e-01
-1.238040253520011902e-01
-6.372493505477905273e-02
2.458028048276901245e-01
-1.331244856119155884e-01
1.638833731412887573e-01
-1.076742783188819885e-01
1.657223850488662720e-01
1.242561638355255127e-01
2.044316381216049194e-01
5.661900341510772705e-02
1.742298454046249390e-01
5.019707977771759033e-02
5.762181431055068970e-02
-2.318360507488250732e-01
-1.953312195837497711e-02
-6.249457970261573792e-02
1.309959888458251953e-01
-1.224137395620346069e-01
3.504697233438491821e-02
2.040813118219375610e-01
1.492955237627029419e-01
-2.110771983861923218e-01
-2.222051769495010376e-01
1.530340313911437988e-01
1.093536391854286194e-01
1.542448550462722778e-01
-4.947824031114578247e-02
-1.577376574277877808e-01
7.733760774135589600e-02
1.956771314144134521e-01
1.235762238502502441e-02
2.010750919580459595e-01
-1.589095145463943481e-01
-1.080145910382270813e-01
-1.210762783885002136e-01
-5.017231032252311707e-02
-4.944798350334167480e-02
8.695163577795028687e-02
-9.960489720106124878e-02
4.723316058516502380e-02
-2.463312596082687378e-01
1.099343150854110718e-01
-1.331531815230846405e-02
-3.564341738820075989e-02
-1.337580289691686630e-02
9.354243427515029907e-02
7.448260486125946045e-02
-8.394980430603027344e-02
-3.277918789535760880e-03
6.649025529623031616e-02
2.079999297857284546e-01
1.711898893117904663e-01
1.728926151990890503e-01
-1.380016803741455078e-01
2.015959098935127258e-02
2.209969609975814819e-01
-2.040471136569976807e-01
1.465270221233367920e-01
-1.806094497442245483e-01
1.159691512584686279e-01
4.533890262246131897e-02
-6.528447568416595459e-02
-1.288374662399291992e-01
-2.433506399393081665e-01
1.591823697090148926e-01
-2.169030606746673584e-01
2.307859659194946289e-01
1.660890132188796997e-01
1.147185415029525757e-01
4.160141199827194214e-02
2.637961134314537048e-02
-6.285867840051651001e-02
-2.747526764869689941e-01
1.646405160427093506e-01
2.194184362888336182e-01
1.667619347572326660e-01
-8.529612794518470764e-03
-6.090080831199884415e-03
1.630989611148834229e-01
6.585932523012161255e-02
-6.170805077999830246e-03
2.252902276813983917e-02
-7.183066755533218384e-02
-2.990102767944335938e-02
-1.676239222288131714e-01
-1.259386837482452393e-01
9.303967654705047607e-02
1.034691333770751953e-01
-1.249939799308776855e-01
-3.578953072428703308e-02
-6.877609342336654663e-02
-5.098221078515052795e-02
1.447688043117523193e-01
5.866481736302375793e-02
-1.982410401105880737e-01
-7.738532871007919312e-02
1.391976624727249146e-01
-6.256196647882461548e-02
8.474270999431610107e-02
1.446455568075180054e-01
-1.124703418463468552e-02
-5.959468334913253784e-02
-1.821290329098701477e-02
1.094614118337631226e-01
-2.071202546358108521e-02
2.292943745851516724e-01
-3.683576732873916626e-02
-1.395739167928695679e-01
3.918004035949707031e-02
1.264753341674804688e-01
2.961111068725585938e-01
-1.011415049433708191e-01
1.393127739429473877e-01
-1.279953867197036743e-01
-6.383050978183746338e-02
1.100927516818046570e-01
4.432332143187522888e-02
-1.488917618989944458e-01
1.755154132843017578e-01
-2.397261261940002441e-01
-8.785387128591537476e-02
-1.824939399957656860e-01
3.983011841773986816e-02
-2.358550205826759338e-02
2.318806387484073639e-02
-5.142458528280258179e-02
1.738471686840057373e-01
1.461044792085886002e-02
-1.946474164724349976e-01
-8.312809467315673828e-02
-1.286826133728027344e-01
-3.846544399857521057e-02
2.099181711673736572e-01
1.971397250890731812e-01
-4.113819822669029236e-02
-2.452006191015243530e-01
-1.546038240194320679e-01
-9.178119152784347534e-02
1.720596253871917725e-01
-2.033567288890480995e-03
-8.348042517900466919e-02
1.418296098709106445e-01
-1.288392245769500732e-01
-1.188429966568946838e-01
-1.808042824268341064e-02
8.836942166090011597e-02
1.405903100967407227e-01
-8.476635068655014038e-02
1.874568760395050049e-01
1.370687186717987061e-01
-7.838656753301620483e-02
-1.114807352423667908e-01
-1.473612785339355469e-01
-2.508519589900970459e-02
-1.135602369904518127e-01
-7.631216943264007568e-02
1.074611395597457886e-01
5.401413887739181519e-03
1.865608692169189453e-01
1.177879422903060913e-01
-4.692380875349044800e-02
1.192086562514305115e-01
1.461718976497650146e-01
-1.276400536298751831e-01
1.232921183109283447e-01
1.993865817785263062e-01
-3.209283575415611267e-02
4.901914298534393311e-02
1.458791494369506836e-01
-3.443634137511253357e-02
-5.117909982800483704e-02
2.038019746541976929e-01
-5.406075343489646912e-02
-1.956121623516082764e-01
1.018523126840591431e-01
-3.766981884837150574e-02
6.644504517316818237e-02
1.205170005559921265e-01
-6.687217950820922852e-02
-1.031577363610267639e-01
6.550994515419006348e-02
-5.071196705102920532e-02
-4.410345852375030518e-02
9.099370241165161133e-02
-2.760567329823970795e-02
1.029814109206199646e-01
1.662975251674652100e-01
1.140248253941535950e-01
1.261536777019500732e-01
2.775470726191997528e-02
1.088851913809776306e-01
-4.285567626357078552e-02
6.752537935972213745e-02
-3.788423165678977966e-02
-2.898877114057540894e-02
-2.500629797577857971e-02
1.715324819087982178e-01
-1.024372652173042297e-01
1.023499742150306702e-01
-1.235736832022666931e-01
-1.058278903365135193e-01
-2.686218023300170898e-01
2.868883311748504639e-01
2.522385120391845703e-01
-2.687995433807373047e-01
-9.454511106014251709e-02
-1.599610000848770142e-01
1.294621527194976807e-01
-2.594029903411865234e-01
1.658521778881549835e-02
-1.810762137174606323e-01
-3.789524361491203308e-02
1.444240063428878784e-01
9.248470887541770935e-03
2.526712715625762939e-01
-6.183620169758796692e-02
1.652925610542297363e-01
-5.051619559526443481e-02
5.860277451574802399e-03
-8.239392191171646118e-02
-8.074842393398284912e-02
-7.761078327894210815e-02
6.188884004950523376e-02
1.640972197055816650e-01
-8.323374390602111816e-02
9.231116622686386108e-03
8.412758260965347290e-02
-2.384076565504074097e-01
1.388556361198425293e-01
-6.606195867061614990e-02
-1.046123169362545013e-02
-1.213878244161605835e-01
-1.476144343614578247e-01
-1.731114685535430908e-01
1.146628931164741516e-01
6.727284193038940430e-02
1.244929358363151550e-01
-5.781855434179306030e-02
-2.609908953309059143e-02
-8.538264036178588867e-02
-1.230676695704460144e-01
-4.885932430624961853e-02
-2.093413472175598145e-01
2.245421856641769409e-01
1.705043464899063110e-01
1.771943718194961548e-01
-5.261051282286643982e-02
1.360076218843460083e-01
1.044474020600318909e-01
-7.665769010782241821e-02
4.875721037387847900e-02
-4.567890428006649017e-03
-3.362150862812995911e-03
2.201954573392868042e-01
-1.391698867082595825e-01
-8.871529251337051392e-02
2.219270616769790649e-01
-3.145106136798858643e-02
3.574132174253463745e-02
-1.649904102087020874e-01
-1.810150295495986938e-01
-1.631476581096649170e-01
2.783722281455993652e-01
2.447658628225326538e-01
-5.141059681773185730e-02
2.352528423070907593e-01
-1.195761933922767639e-01
-5.955712124705314636e-02
5.644881725311279297e-02
2.643985450267791748e-01
2.761705033481121063e-02
3.294204175472259521e-02
-1.351492945104837418e-02
-1.282295435667037964e-01
1.228095814585685730e-01
-1.094553172588348389e-01
4.359530657529830933e-02
1.075004562735557556e-01
1.594566553831100464e-01
9.103818237781524658e-02
5.846763029694557190e-02
-4.927429836243391037e-03
1.745463907718658447e-01
2.924233861267566681e-02
1.193556413054466248e-01
1.969267725944519043e-01
-7.482492178678512573e-02
-9.209870547056198120e-02
-1.088512241840362549e-01
1.013723760843276978e-01
-1.645790040493011475e-01
2.177402190864086151e-02
-1.931177526712417603e-01
6.931073963642120361e-02
-7.632331550121307373e-02
-1.215811222791671753e-01
3.324451670050621033e-02
-4.956551641225814819e-02
-1.411927118897438049e-02
-1.026827171444892883e-01
-2.631402760744094849e-02
7.749477028846740723e-02
-2.010493874549865723e-01
1.134873926639556885e-01
-2.300021648406982422e-01
-1.802591383457183838e-01
8.631289005279541016e-02
-2.349956333637237549e-01
9.966188669204711914e-02
1.107035949826240540e-01
1.639817357063293457e-01
-1.108438882511109114e-04
-1.668236106634140015e-01
-1.588094979524612427e-01
-2.204830497503280640e-01
-3.315764665603637695e-01
8.262856863439083099e-03
-2.679774463176727295e-01
1.182765960693359375e-01
2.303608208894729614e-01
-1.239069551229476929e-01
2.160150092095136642e-03
-2.544155418872833252e-01
-1.262533664703369141e-01
-4.962749406695365906e-02
-5.531368777155876160e-02
2.343958169221878052e-01
-1.233710572123527527e-01
-4.632651805877685547e-02
-1.771428436040878296e-01
8.690701425075531006e-02
-4.487474635243415833e-02
-1.040030419826507568e-01
-1.035377681255340576e-01
7.344020903110504150e-02
-3.342739492654800415e-02
-1.136153638362884521e-01
-1.479551494121551514e-01
-1.357029378414154053e-01
1.024762243032455444e-01
-1.223069801926612854e-02
-8.570674061775207520e-02
1.230254024267196655e-01
4.770961031317710876e-02
2.068834304809570312e-01
7.780146598815917969e-02
4.410599358379840851e-03
5.762635916471481323e-02
-2.971331402659416199e-02
-1.459583342075347900e-01
1.786718666553497314e-01
1.994174532592296600e-02
-1.122383400797843933e-01
-1.283874958753585815e-01
7.525461912155151367e-02
-1.006891801953315735e-01
-1.297255158424377441e-01
-8.397206664085388184e-02
-2.614838778972625732e-01
-1.551906317472457886e-01
-1.552480459213256836e-01
-1.685123145580291748e-01
1.182206422090530396e-01
1.603967547416687012e-01
2.526011168956756592e-01
1.287070214748382568e-01
-2.589849755167961121e-02
-2.145334146916866302e-02
-1.792803853750228882e-01
9.226161986589431763e-02
-1.079700365662574768e-01
-2.419942766427993774e-01
8.445735275745391846e-02
6.722427159547805786e-02
-8.724445104598999023e-02
-1.190153807401657104e-01
-2.320478707551956177e-01
2.823870256543159485e-02
-7.546105235815048218e-02
-3.605128824710845947e-02
-1.036877632141113281e-01
-3.129497915506362915e-02
1.189950704574584961e-01
-1.527156233787536621e-01
-6.162140518426895142e-02
2.116768658161163330e-01
-1.041272878646850586e-01
2.203105986118316650e-01
1.396117508411407471e-01
-4.310209676623344421e-02
1.922751665115356445e-01
1.782615184783935547e-01
-3.623936208896338940e-04
-1.891759783029556274e-01
-9.099832177162170410e-02
-1.289454400539398193e-01
-1.352694332599639893e-01
1.012800633907318115e-01
2.119408249855041504e-01
4.853572323918342590e-02
-8.724505081772804260e-03
4.935116693377494812e-02
-1.065150424838066101e-01
-5.158199369907379150e-02
2.300528287887573242e-01
1.541571766138076782e-01
-1.439939737319946289e-01
3.216046094894409180e-02
-1.481490284204483032e-01
-1.067088320851325989e-01
-4.302203282713890076e-02
1.104838848114013672e-01
-3.163130604662001133e-04
-1.488782465457916260e-01
-2.704867627471685410e-03
1.825085878372192383e-01
-2.493440657854080200e-01
-1.329679600894451141e-02
-1.564213484525680542e-01
1.984277218580245972e-01
2.144202888011932373e-01
1.708833277225494385e-01
-2.756658494472503662e-01
1.898398995399475098e-01
-6.093793362379074097e-02
6.566492468118667603e-02
-1.231211200356483459e-01
-8.182548731565475464e-02
6.575693190097808838e-02
2.336223237216472626e-02
6.666364520788192749e-02
-1.297362446784973145e-01
5.640958622097969055e-02
-1.556439101696014404e-01
9.344107657670974731e-02
5.625797784887254238e-04
1.239939853549003601e-01
-1.703671663999557495e-01
1.963533610105514526e-01
5.445123836398124695e-02
-9.548438340425491333e-02
1.625632941722869873e-01
1.178153604269027710e-01
-1.787025034427642822e-01
1.810278743505477905e-01
1.439093053340911865e-01
-1.507744342088699341e-01
4.541946947574615479e-02
-5.244147405028343201e-02
-6.132733076810836792e-02
-1.443270742893218994e-01
8.790871500968933105e-02
-1.363376062363386154e-02
-2.512865662574768066e-01
-1.873896121978759766e-01
-8.959741890430450439e-02
8.519948460161685944e-03
-1.292215287685394287e-01
-2.705100178718566895e-01
2.017974108457565308e-01
2.494447529315948486e-01
-1.407456099987030029e-01
1.588392704725265503e-01
-2.381021529436111450e-01
-3.101214766502380371e-02
-5.398517102003097534e-02
-3.102117963135242462e-02
1.270583868026733398e-01
-2.018308490514755249e-01
2.027893625199794769e-02
-7.448317110538482666e-02
8.391036093235015869e-02
9.423349797725677490e-02
1.168045327067375183e-01
5.620048940181732178e-02
9.079784899950027466e-02
-5.416519939899444580e-02
-9.254417382180690765e-03
1.739133149385452271e-02
2.058489918708801270e-01
-7.020360231399536133e-02
-7.187245786190032959e-02
-5.315158516168594360e-02
2.258074581623077393e-01
-3.040621988475322723e-02
1.444067060947418213e-01
2.387271225452423096e-01
-4.911671951413154602e-02
8.562303334474563599e-02
-8.318641036748886108e-02
-9.647059440612792969e-02
-1.874632388353347778e-01
1.581720858812332153e-01
-7.498454302549362183e-02
-9.125740081071853638e-02
1.027994677424430847e-01
1.679166555404663086e-01
-2.256980538368225098e-01
2.071075290441513062e-01
1.161148957908153534e-02
-1.765793859958648682e-01
-2.457858473062515259e-01
1.381898671388626099e-01
5.622385814785957336e-02
4.667087271809577942e-02
8.948808163404464722e-02
-4.630323871970176697e-02
-4.648591950535774231e-02
9.448994696140289307e-02
8.172771777026355267e-04
3.172650039196014404e-01
-1.295565515756607056e-01
-1.909419745206832886e-01
1.815766990184783936e-01
1.146085113286972046e-01
-1.291347444057464600e-01
1.301636993885040283e-01
-2.420309484004974365e-01
6.300618499517440796e-02
2.059977650642395020e-01
9.221678227186203003e-02
-6.808222830295562744e-02
-2.736071683466434479e-02
7.429303973913192749e-02
-8.874982595443725586e-02
7.571817189455032349e-02
-7.643343508243560791e-02
1.840283870697021484e-01
7.901658117771148682e-02
-1.016318202018737793e-01
-3.435425087809562683e-02
-1.262570619583129883e-01
4.720256105065345764e-02
9.894175454974174500e-03
-2.122679650783538818e-01
1.290941238403320312e-01
-5.238598957657814026e-02
-6.754349917173385620e-02
9.548852592706680298e-02
1.627400666475296021e-01
-7.618493586778640747e-02
-7.582757622003555298e-02
-1.891351044178009033e-01
-4.358958825469017029e-02
2.107893526554107666e-01
2.346270233392715454e-01
-1.857790201902389526e-01
1.747767627239227295e-02
1.901437491178512573e-01
3.318471014499664307e-01
-2.194256521761417389e-03
2.052979320287704468e-01
-1.100751087069511414e-01
1.868603751063346863e-02
3.742162510752677917e-02
1.342537254095077515e-01
2.134980168193578720e-03
1.139121204614639282e-01
-9.287627763114869595e-04
-3.875990957021713257e-02
5.533697456121444702e-02
-7.376255095005035400e-02
-1.883618384599685669e-01
5.315333232283592224e-02
1.400701552629470825e-01
5.092741549015045166e-02
-1.293271481990814209e-01
-5.976384133100509644e-02
-3.225490218028426170e-03
4.492872580885887146e-02
-7.801232486963272095e-02
2.094580680131912231e-01
-9.869486838579177856e-02
-4.806527402251958847e-03
-9.884730726480484009e-02
8.607017248868942261e-02
-1.980823576450347900e-01
2.056131958961486816e-01
1.486315429210662842e-01
-2.919885329902172089e-02
3.634533658623695374e-02
1.337102949619293213e-01
-1.937350034713745117e-01
1.159947663545608521e-01
8.441421389579772949e-02
2.105085924267768860e-02
-1.598135381937026978e-01
2.074122130870819092e-01
7.251588255167007446e-02
-9.702538698911666870e-02
1.332436949014663696e-01
-1.419237256050109863e-01
5.229759495705366135e-03
1.895024478435516357e-01
1.152550727128982544e-01
2.949987649917602539e-01
2.324796915054321289e-01
-8.325063437223434448e-02
-2.334823459386825562e-01
-1.378396302461624146e-01
7.170163094997406006e-02
-1.119410693645477295e-01
-9.791667014360427856e-02
2.488235244527459145e-03
9.016097337007522583e-02
-5.467664822936058044e-02
-1.285665780305862427e-01
-1.598591916263103485e-02
8.026622235774993896e-03
1.478524208068847656e-01
-6.855242699384689331e-02
6.732222437858581543e-02
-2.620478719472885132e-02
4.933469370007514954e-02
-1.658492535352706909e-01
-1.600082069635391235e-01
-1.405544579029083252e-01
-1.488660275936126709e-01
4.540914669632911682e-02
-8.618111163377761841e-02
-6.979747116565704346e-02
-1.244467645883560181e-01
3.452092781662940979e-02
-1.065030042082071304e-02
-7.133007794618606567e-02
1.971117854118347168e-01
1.687625348567962646e-01
-6.386344134807586670e-02
-1.128156855702400208e-01
1.904212534427642822e-01
5.365559086203575134e-02
-4.875551536679267883e-02
8.672796934843063354e-02
-2.394572645425796509e-01
-2.686567604541778564e-01
2.867774963378906250e-01
1.099857967346906662e-03
1.531929429620504379e-02
2.491319030523300171e-01
1.199858412146568298e-01
1.538144052028656006e-01
-7.195234298706054688e-02
7.919636368751525879e-02
1.822955161333084106e-01
-1.551818549633026123e-01
1.001601368188858032e-01
-7.468157447874546051e-03
-2.053342014551162720e-01
2.119186222553253174e-01
-1.240622624754905701e-02
1.548469159752130508e-02
-2.333509027957916260e-01
-4.500311240553855896e-02
5.453645437955856323e-02
-2.368232309818267822e-01
-2.014557272195816040e-01
1.434991806745529175e-01
1.712360382080078125e-01
1.950869560241699219e-01
-5.079348012804985046e-02
8.742704987525939941e-02
1.023181006312370300e-01
1.332511752843856812e-01
7.776633650064468384e-02
1.538020521402359009e-01
5.911619216203689575e-02
-8.300343155860900879e-02
7.694230880588293076e-03
7.631900161504745483e-02
-1.246497966349124908e-02
-1.411779075860977173e-01
6.374061107635498047e-02
-6.701093912124633789e-02
-1.562114618718624115e-02
1.758051514625549316e-01
-1.894452571868896484e-01
1.014126390218734741e-01
-1.710944063961505890e-02
-3.852733597159385681e-02
-1.875376701354980469e-01
1.665936224162578583e-02
-2.045497745275497437e-01
7.079860568046569824e-02
1.046166494488716125e-01
-2.202928960323333740e-01
-5.932901427149772644e-02
5.299451202154159546e-02
-3.424848988652229309e-02
2.131559886038303375e-02
1.982547640800476074e-01
-1.591929793357849121e-01
9.539543837308883667e-02
1.009085774421691895e-01
-2.120152264833450317e-01
-8.298995345830917358e-02
1.627504527568817139e-01
-7.261431962251663208e-02
-2.234766185283660889e-01
8.779976516962051392e-02
1.794794946908950806e-01
-1.288374960422515869e-01
-2.947882413864135742e-01
7.315547764301300049e-02
2.784500643610954285e-02
-4.421586170792579651e-03
5.912019312381744385e-02
1.491945385932922363e-01
4.792899265885353088e-02
-3.190820664167404175e-02
-1.680747419595718384e-01
-3.028600849211215973e-02
-1.564045995473861694e-01
8.263478055596351624e-03
-1.949546635150909424e-01
-5.002565681934356689e-02
-1.947912126779556274e-01
-4.817856103181838989e-02
-1.568477898836135864e-01
-9.019068628549575806e-02
-1.805717647075653076e-01
4.810948669910430908e-02
-1.608786173164844513e-02
6.254713237285614014e-02
-1.680003702640533447e-01
-1.254607588052749634e-01
-1.803103387355804443e-01
6.358821690082550049e-02
-8.542118966579437256e-02
1.299445331096649170e-01
-8.317570388317108154e-02
9.546029567718505859e-02
1.329860091209411621e-01
1.320918351411819458e-01
-3.021384403109550476e-02
-1.390663981437683105e-01
-9.634491801261901855e-02
1.445607841014862061e-01
1.702403724193572998e-01
-8.725497126579284668e-02
1.984715014696121216e-01
3.528996929526329041e-02
2.096827775239944458e-01
-1.031577885150909424e-01
-1.301936954259872437e-01
4.685186222195625305e-02
1.320718526840209961e-01
-3.368107229471206665e-02
-2.893623150885105133e-02
-2.665810585021972656e-01
-2.037361413240432739e-01
-2.326340414583683014e-02
1.694105416536331177e-01
1.339797824621200562e-01
1.152781546115875244e-01
2.235519289970397949e-01
1.173039823770523071e-01
1.217692345380783081e-01
1.927662640810012817e-01
-5.939072463661432266e-03
-5.606059730052947998e-02
-1.420458108186721802e-01
1.606866344809532166e-02
-3.885182365775108337e-02
-7.138515263795852661e-02
1.404806133359670639e-02
3.161315689794719219e-04
1.127849519252777100e-01
-2.555836737155914307e-02
-2.426734194159507751e-02
-1.068313568830490112e-01
-1.925627440214157104e-01
5.451094731688499451e-02
1.749853976070880890e-02
-1.571704596281051636e-01
-2.139074951410293579e-01
1.198832392692565918e-01
3.164840862154960632e-02
-2.422863245010375977e-01
-7.268710434436798096e-02
-2.321940511465072632e-01
7.509293965995311737e-03
-1.105440035462379456e-01
-1.664164811372756958e-01
-9.844248741865158081e-02
-9.392832219600677490e-02
1.897706836462020874e-02
1.161596179008483887e-01
-6.096271425485610962e-02
-2.555235624313354492e-01
-2.504001557826995850e-01
-1.525984704494476318e-01
1.103653162717819214e-01
-1.678654924035072327e-02
-9.898707270622253418e-02
-3.107917904853820801e-01
-1.530444175004959106e-01
-8.267845958471298218e-02
-1.154990680515766144e-02
8.294911123812198639e-03
-2.128468267619609833e-02
-5.720657482743263245e-02
7.561761885881423950e-02
-3.370335698127746582e-02
-3.578625023365020752e-01
1.925005465745925903e-01
4.451968148350715637e-02
2.618903219699859619e-01
4.802255332469940186e-02
-1.117395907640457153e-01
1.282278895378112793e-01
6.406366080045700073e-02
-1.011472754180431366e-02
-7.550223171710968018e-02
-2.560078399255871773e-03
-1.099180355668067932e-01
9.720863401889801025e-02
2.698002941906452179e-02
6.087645515799522400e-02
-1.757499277591705322e-01
-7.089556008577346802e-02
1.484635621309280396e-01
1.764287352561950684e-01
2.345778630115091801e-04
-1.333390176296234131e-01
-1.517611294984817505e-01
9.016925096511840820e-02
-2.067242413759231567e-01
2.157028950750827789e-02
-9.647062420845031738e-02
-6.352476775646209717e-02
1.772524863481521606e-01
-7.204872369766235352e-02
-2.039793580770492554e-01
-3.399435430765151978e-02
-8.907343447208404541e-02
-1.580590456724166870e-01
-1.513363718986511230e-01
-6.678816676139831543e-02
-8.081680536270141602e-02
1.180537492036819458e-01
-3.117688465863466263e-03
-2.220524847507476807e-01
-2.858096957206726074e-01
-9.006157517433166504e-02
1.898162066936492920e-01
-2.491221576929092407e-01
-6.771206855773925781e-02
-3.606485947966575623e-02
-1.182826980948448181e-01
1.025852411985397339e-01
1.889817975461483002e-02
-2.667671144008636475e-01
-1.163430511951446533e-01
-2.358289211988449097e-01
8.333091437816619873e-02
1.714330911636352539e-01
-1.036483570933341980e-01
1.949130296707153320e-01
-1.486635953187942505e-02
-5.804610997438430786e-02
-7.306613773107528687e-02
3.924186527729034424e-02
-8.696366846561431885e-02
8.153294771909713745e-02
1.778760999441146851e-01
-6.965712457895278931e-02
-1.224473342299461365e-01
1.933276057243347168e-01
3.376073017716407776e-02
-1.488337069749832153e-01
1.113186851143836975e-01
-1.456748694181442261e-02
1.930187046527862549e-01
1.237324923276901245e-01
1.645846292376518250e-02
-2.231475114822387695e-01
-1.550748646259307861e-01
-1.691606342792510986e-01
-2.453799396753311157e-01
-1.692801713943481445e-02
-2.112296223640441895e-01
4.344378039240837097e-02
1.840107738971710205e-01
-8.378838002681732178e-02
1.101253777742385864e-01
1.210756152868270874e-01
6.949362158775329590e-02
1.047189626842737198e-02
-2.179920673370361328e-01
-8.310987055301666260e-02
-3.695034608244895935e-02
1.492820531129837036e-01
3.268297016620635986e-01
-9.015063941478729248e-02
8.813071995973587036e-02
4.202568531036376953e-02
9.479368478059768677e-02
1.659403592348098755e-01
-1.837728917598724365e-01
1.923153400421142578e-01
1.720267534255981445e-01
-6.413415819406509399e-02
-1.813139468431472778e-01
2.289014309644699097e-01
-7.394939661026000977e-02
2.746666371822357178e-01
-2.733097225427627563e-02
1.835574358701705933e-01
1.216718647629022598e-02
-1.040657144039869308e-02
1.203746348619461060e-01
-1.005496755242347717e-01
-1.634766310453414917e-01
1.922986656427383423e-01
1.983218938112258911e-01
-1.084837764501571655e-01
9.225416928529739380e-02
8.487204462289810181e-02
2.741217985749244690e-02
-1.303098946809768677e-01
-1.364345103502273560e-01
-5.312339588999748230e-02
2.649361789226531982e-01
1.533674746751785278e-01
1.806497722864151001e-01
1.507905274629592896e-01
1.519043892621994019e-01
-1.349480152130126953e-01
-2.870287001132965088e-01
-3.100561723113059998e-02
-2.089120745658874512e-01
-8.347044140100479126e-02
-4.552908986806869507e-02
-1.275833323597908020e-02
1.757734566926956177e-01
-2.531781196594238281e-01
6.041804328560829163e-02
1.036852300167083740e-01
-2.718505635857582092e-02
7.654528599232435226e-03
-7.047412544488906860e-02
1.558661609888076782e-01
1.102641574107110500e-03
-2.872381731867790222e-02
6.216493621468544006e-02
-2.647725045680999756e-01
1.581237018108367920e-01
-9.705723822116851807e-02
1.756115406751632690e-01
1.523477286100387573e-01
1.052909195423126221e-01
2.295162677764892578e-01
1.918723136186599731e-01
5.065070092678070068e-02
-2.065613716840744019e-01
3.806645050644874573e-02
-4.419890046119689941e-02
1.445664763450622559e-01
1.110082790255546570e-01
-5.834196507930755615e-02
-1.510628759860992432e-01
1.867890544235706329e-02
-1.476943939924240112e-01
-1.820492371916770935e-02
3.785764053463935852e-02
-1.512098219245672226e-02
-1.209798920899629593e-02
2.236084938049316406e-01
-7.022360712289810181e-02
6.342019885778427124e-03
1.502504050731658936e-01
-9.587107598781585693e-02
-1.624500453472137451e-01
8.361759036779403687e-02
1.597338020801544189e-01
-2.447301000356674194e-01
-2.000396698713302612e-01
-2.416498586535453796e-02
1.175926700234413147e-01
7.185945287346839905e-03
7.811642438173294067e-02
-5.527771636843681335e-02
-2.397933453321456909e-01
2.218631356954574585e-01
-1.398907005786895752e-01
4.090293869376182556e-02
7.390258461236953735e-02
1.763235926628112793e-01
-3.567120805382728577e-02
-1.850477308034896851e-01
-4.589154385030269623e-03
-1.152588278055191040e-01
1.785313785076141357e-01
-9.778293967247009277e-02
7.039991021156311035e-02
8.481534570455551147e-02
1.059768423438072205e-01
-7.639497518539428711e-03
1.624339520931243896e-01
1.898335516452789307e-01
1.965189427137374878e-01
2.106962203979492188e-01
1.002468392252922058e-01
8.827670663595199585e-02
1.162803918123245239e-01
9.866120666265487671e-02
1.837664842605590820e-01
5.166563764214515686e-02
-1.055136024951934814e-01
-4.149243235588073730e-02
1.451050341129302979e-01
2.114301919937133789e-01
-7.458783220499753952e-03
-1.398430019617080688e-02
1.462191492319107056e-01
5.793405324220657349e-02
-8.935979008674621582e-02
8.735727518796920776e-02
-3.410439193248748779e-02
1.987633407115936279e-01
-6.670838594436645508e-02
-4.810076951980590820e-02
-1.694043576717376709e-01
-1.580520868301391602e-01
-2.575971186161041260e-01
-1.817886084318161011e-01
-4.682104103267192841e-03
6.774154305458068848e-02
1.063912659883499146e-01
-2.593724522739648819e-03
1.183176711201667786e-01
1.229535490274429321e-01
-2.546800673007965088e-01
-1.529022455215454102e-01
1.836242526769638062e-01
-2.631525099277496338e-01
1.464308202266693115e-01
-9.708446264266967773e-02
3.241818025708198547e-02
8.420582860708236694e-02
1.247678771615028381e-01
-1.681026965379714966e-01
1.644741147756576538e-01
7.969247549772262573e-02
6.429279595613479614e-02
3.373572975397109985e-02
-1.595454216003417969e-01
-6.576287746429443359e-02
1.682485342025756836e-01
-2.403318732976913452e-01
1.154943779110908508e-01
7.123718410730361938e-02
-1.102759912610054016e-01
2.605098299682140350e-02
-2.221518009901046753e-01
-7.775261253118515015e-02
2.053337991237640381e-01
2.501409947872161865e-01
5.751555413007736206e-02
-1.905965209007263184e-01
-6.933350861072540283e-02
2.266043126583099365e-01
2.976215258240699768e-02
-4.601619392633438110e-02
-1.063072457909584045e-01
-2.643113732337951660e-01
2.370017468929290771e-01
4.724696278572082520e-02
-7.900055497884750366e-02
-5.721671134233474731e-02
2.122673839330673218e-01
1.102035343647003174e-01
1.508383899927139282e-01
-8.502230793237686157e-02
-1.330359727144241333e-01
3.227603062987327576e-02
-1.225667446851730347e-01
6.631367374211549759e-03
-2.214912176132202148e-01
7.042392343282699585e-02
2.238663882017135620e-01
-3.297560289502143860e-02
-1.956393569707870483e-01
1.152645647525787354e-01
2.862090468406677246e-01
-1.118136197328567505e-01
-4.349108785390853882e-02
1.032322272658348083e-01
-1.112573891878128052e-01
-2.048708200454711914e-01
-3.424225002527236938e-02
1.455829478800296783e-02
-6.596669554710388184e-03
2.893801406025886536e-02
-8.239604532718658447e-02
-1.995856687426567078e-02
1.004619523882865906e-01
-8.745728433132171631e-02
2.078195475041866302e-02
-2.499711234122514725e-03
-1.082780864089727402e-02
-1.065236404538154602e-01
-8.337558805942535400e-02
3.003744967281818390e-02
-2.068821489810943604e-01
7.436475157737731934e-02
-1.441604644060134888e-01
6.421220302581787109e-02
8.889067173004150391e-02
-2.028946131467819214e-01
1.645781248807907104e-01
3.467683121562004089e-02
1.522668544203042984e-02
-2.127506136894226074e-01
7.102092355489730835e-02
7.152143120765686035e-02
1.632681638002395630e-01
-4.420783743262290955e-02
2.338996380567550659e-01
1.059022992849349976e-01
-1.845901608467102051e-01
1.436848938465118408e-01
-1.989982724189758301e-01
8.785371482372283936e-02
-2.349100708961486816e-01
-5.463895201683044434e-02
8.458121865987777710e-02
-1.424098908901214600e-01
-1.064673648215830326e-03
1.143414527177810669e-01
-1.343170106410980225e-01
-2.674002200365066528e-02
-8.435609936714172363e-02
1.545526683330535889e-01
-4.960044473409652710e-02
-3.221149742603302002e-02
-8.580781519412994385e-03
-8.271357417106628418e-02
7.658538967370986938e-02
-2.140260785818099976e-01
2.040934711694717407e-01
1.225335430353879929e-02
5.966756492853164673e-03
-1.283424533903598785e-02
-1.998025327920913696e-01
7.703271508216857910e-02
3.233963251113891602e-02
3.820591792464256287e-02
-5.837790668010711670e-02
-1.577103734016418457e-01
-6.661982089281082153e-02
-5.152860283851623535e-02
1.416027992963790894e-01
7.450889050960540771e-02
-3.977531939744949341e-02
2.030107527971267700e-01
2.288213223218917847e-01
-4.121787101030349731e-02
-1.581395864486694336e-01
1.576338559389114380e-01
4.748228937387466431e-02
-2.291314005851745605e-01
-1.695984899997711182e-01
-1.509150564670562744e-01
-1.454906314611434937e-01
-7.802054286003112793e-02
-1.269847005605697632e-01
-2.378792129456996918e-02
-1.214311569929122925e-01
9.060361236333847046e-02
-2.601346001029014587e-02
-7.081441581249237061e-02
-1.248900368809700012e-01
-1.398563850671052933e-02
1.179241389036178589e-01
2.183005958795547485e-01
1.843294501304626465e-01
-1.318502426147460938e-01
-1.099668890237808228e-01
-2.264076098799705505e-02
4.774698615074157715e-02
3.236910700798034668e-02
-1.493140310049057007e-01
3.616357967257499695e-02
6.374673545360565186e-02
-1.236604079604148865e-01
1.048305854201316833e-01
-2.783973328769207001e-02
1.809281855821609497e-01
1.160076037049293518e-01
9.603658691048622131e-03
-3.353591635823249817e-02
1.037125587463378906e-01
-5.631628632545471191e-02
6.142487749457359314e-02
2.717843046411871910e-03
1.460530161857604980e-01
3.760368376970291138e-02
-2.785962773486971855e-03
-5.121987685561180115e-02
2.071333825588226318e-01
1.401225924491882324e-01
-7.549874484539031982e-02
2.082559764385223389e-01
-6.675938609987497330e-03
1.800793409347534180e-01
-4.398444294929504395e-02
1.698292791843414307e-01
1.662223637104034424e-01
-2.035362273454666138e-01
2.093987613916397095e-01
1.443393621593713760e-02
-1.384813934564590454e-01
6.742259860038757324e-02
-1.414830386638641357e-01
-2.161287218332290649e-01
1.735189557075500488e-01
4.263057187199592590e-02
-1.754383444786071777e-01
1.177526786923408508e-01
-2.940141260623931885e-01
-2.708096504211425781e-01
2.141675651073455811e-01
2.624081075191497803e-01
1.676810085773468018e-01
8.163195848464965820e-02
1.869409903883934021e-02
1.211206540465354919e-01
2.907569520175457001e-02
-1.973260380327701569e-02
2.489290945231914520e-02
-2.364847511053085327e-01
1.574358493089675903e-01
9.887431515380740166e-04
2.530797943472862244e-02
-6.043127551674842834e-02
9.359182417392730713e-02
-1.467411126941442490e-02
-6.918592005968093872e-02
7.987738400697708130e-02
-1.277876198291778564e-01
-8.327294141054153442e-02
-2.674097009003162384e-02
5.031348019838333130e-02
-2.007981538772583008e-01
2.128474228084087372e-02
1.517434045672416687e-02
-5.479916930198669434e-02
1.923469454050064087e-01
7.522313296794891357e-02
3.334401920437812805e-02
2.631276845932006836e-02
2.091877534985542297e-02
1.009849607944488525e-01
-3.286029770970344543e-02
-7.095615565776824951e-02
8.133387193083763123e-03
-8.031251281499862671e-02
-9.734851866960525513e-02
-3.863182663917541504e-02
-2.733814418315887451e-01
4.492994397878646851e-02
-1.235558241605758667e-01
-1.222663559019565582e-02
7.895319908857345581e-02
-1.672036945819854736e-01
9.554391354322433472e-02
-2.309208214282989502e-01
1.996876299381256104e-01
-3.071526885032653809e-01
-1.706153154373168945e-01
2.542279064655303955e-01
7.410170882940292358e-02
1.137089822441339493e-02
1.558794379234313965e-01
4.421545565128326416e-02
-1.818808615207672119e-01
1.728026419878005981e-01
1.662662923336029053e-01
7.381239533424377441e-02
9.744295477867126465e-02
-1.586764454841613770e-01
1.493812799453735352e-01
-2.926287427544593811e-02
6.293940544128417969e-02
1.598356664180755615e-01
-2.424989826977252960e-02
5.759355425834655762e-02
-8.172117173671722412e-02
-9.144523181021213531e-03
1.382971107959747314e-01
-4.006093740463256836e-02
-3.630459541454911232e-03
-3.680019825696945190e-02
-1.418105214834213257e-01
1.180309653282165527e-01
1.975715309381484985e-01
-1.422669738531112671e-01
-1.204011067748069763e-01
-1.030984446406364441e-01
3.350626211613416672e-03
-3.863722085952758789e-02
-2.179770767688751221e-01
-5.443141609430313110e-02
3.839238733053207397e-02
4.006974864751100540e-03
-1.728964149951934814e-01
-1.240822151303291321e-01
2.234817892313003540e-01
-1.672428995370864868e-01
2.535636769607663155e-03
-2.374020069837570190e-01
-2.319159060716629028e-01
-1.229270771145820618e-01
-8.691696822643280029e-02
-8.096198737621307373e-02
2.081949412822723389e-01
-2.533038258552551270e-01
1.503381133079528809e-01
1.825246810913085938e-01
-1.668269336223602295e-01
-7.714359462261199951e-02
-7.225585728883743286e-02
1.508351648226380348e-03
7.743394374847412109e-02
2.423522807657718658e-02
9.911555051803588867e-02
1.456460654735565186e-01
-9.085271507501602173e-02
-1.166543886065483093e-01
-1.197998523712158203e-01
-1.478671580553054810e-01
-3.246830776333808899e-02
1.838071346282958984e-01
-2.494025081396102905e-01
4.200164601206779480e-02
1.374296098947525024e-01
6.599133461713790894e-02
-1.057439669966697693e-01
5.728245526552200317e-02
-3.505517542362213135e-02
-2.464071288704872131e-02
1.622035801410675049e-01
-8.681503683328628540e-02
1.139202862977981567e-01
-1.286378949880599976e-01
2.358458489179611206e-01
-9.036783012561500072e-06
2.066326290369033813e-01
2.466750703752040863e-02
1.682844310998916626e-01
-1.577950268983840942e-01
-4.618800804018974304e-02
-2.235576659440994263e-01
-6.857524812221527100e-02
2.152636498212814331e-01
-1.115532442927360535e-01
5.792373046278953552e-02
-7.041174918413162231e-02
-1.151532828807830811e-01
-1.421077996492385864e-01
1.339305490255355835e-01
1.046392247080802917e-01
-2.611954882740974426e-02
1.400657892227172852e-01
-2.840940058231353760e-01
2.815452404320240021e-02
6.411396712064743042e-02
-9.231130033731460571e-02
7.421129941940307617e-02
1.368532031774520874e-01
1.534468382596969604e-01
-9.467434883117675781e-02
1.493327319622039795e-01
5.465155001729726791e-03
-1.731610000133514404e-01
-1.026962623000144958e-01
7.173750549554824829e-02
6.017466261982917786e-02
-9.444061666727066040e-02
7.928326725959777832e-02
-1.800765991210937500e-01
2.233174741268157959e-01
1.122328341007232666e-01
-1.869376748800277710e-01
-1.898200511932373047e-01
-6.099871546030044556e-02
1.129907835274934769e-02
-6.232665851712226868e-02
3.543005138635635376e-02
-1.694945544004440308e-01
1.350852251052856445e-01
-5.723376199603080750e-02
-4.096783325076103210e-02
1.355894356966018677e-01
4.293793067336082458e-02
-7.043361663818359375e-02
1.047186851501464844e-01
5.437139421701431274e-03
1.930216401815414429e-01
-1.346835047006607056e-01
-2.696327865123748779e-01
3.006200194358825684e-01
2.023619115352630615e-01
4.715921729803085327e-02
1.751723140478134155e-01
1.992821842432022095e-01
2.140267193317413330e-02
-1.422505527734756470e-01
1.244997531175613403e-01
-1.118624508380889893e-01
-1.952122002840042114e-01
4.987306520342826843e-02
-8.675829321146011353e-02
6.637906283140182495e-02
-1.195279061794281006e-01
1.999331265687942505e-01
4.244256019592285156e-02
6.279541552066802979e-02
-1.111339661292731762e-03
2.602593898773193359e-01
9.711130708456039429e-02
-2.261883467435836792e-01
-2.335654050111770630e-01
4.779872298240661621e-02
3.781419992446899414e-02
1.404543220996856689e-01
1.472519487142562866e-01
-2.295336425304412842e-01
6.251882016658782959e-02
1.915822625160217285e-01
1.891571730375289917e-01
-1.912921369075775146e-01
3.074365667998790741e-04
-1.869934946298599243e-01
-2.542131207883358002e-02
-1.675920188426971436e-01
1.122328042984008789e-01
-8.550709486007690430e-02
1.201165020465850830e-01
-1.854449957609176636e-01
-2.851109579205513000e-02
1.564271003007888794e-01
3.087230958044528961e-02
6.723026931285858154e-02
6.229581311345100403e-03
1.763535290956497192e-01
-4.935034364461898804e-02
1.753240972757339478e-01
2.337652295827865601e-01
1.470856219530105591e-01
5.081646889448165894e-02
1.551567018032073975e-01
2.306768745183944702e-01
1.059580668807029724e-01
1.202807351946830750e-01
1.459539532661437988e-01
-1.833620518445968628e-01
-1.531617045402526855e-01
1.730806082487106323e-01
4.886778816580772400e-02
1.436450183391571045e-01
-2.263130098581314087e-01
-2.242309302091598511e-01
3.078301250934600830e-02
1.387699786573648453e-02
-1.817221343517303467e-01
1.807265728712081909e-01
2.389462888240814209e-01
-1.106565892696380615e-01
-8.802779018878936768e-02
4.236364271491765976e-03
1.168134063482284546e-01
-3.015822032466530800e-03
-3.718890994787216187e-02
1.695011556148529053e-01
-3.325449675321578979e-02
3.426093235611915588e-02
-1.556771993637084961e-01
-1.356151103973388672e-01
-1.257123798131942749e-01
2.075609117746353149e-01
5.674365907907485962e-02
-4.827652126550674438e-02
1.015359759330749512e-01
2.050658874213695526e-02
2.713982015848159790e-03
-6.820833776146173477e-03
1.178924292325973511e-01
-9.696553647518157959e-02
8.984233438968658447e-02
-2.338280081748962402e-01
2.350531145930290222e-02
-2.157268226146697998e-01
2.112550139427185059e-01
-8.119297027587890625e-02
-1.293750386685132980e-02
-1.299366205930709839e-01
-2.624755203723907471e-01
1.385083794593811035e-02
2.567758560180664062e-01
9.107223153114318848e-02
2.418530136346817017e-01
3.004957735538482666e-01
2.721936106681823730e-01
1.491503417491912842e-01
-1.418535411357879639e-01
-1.467410922050476074e-01
1.632296591997146606e-01
-9.357124567031860352e-02
-1.150054857134819031e-01
5.018906667828559875e-03
-1.025484502315521240e-01
-6.055040284991264343e-02
2.525723278522491455e-01
-1.860409975051879883e-01
1.087871864438056946e-01
2.045863866806030273e-01
-1.132289916276931763e-01
3.644704073667526245e-02
-1.585273742675781250e-01
4.888717830181121826e-02
-5.792463198304176331e-02
2.219805121421813965e-01
1.053610220551490784e-01
-2.107514590024948120e-01
2.053037881851196289e-01
1.232661958783864975e-02
-9.866097569465637207e-02
-1.787512749433517456e-02
3.190734237432479858e-02
-5.257342383265495300e-02
-1.277499645948410034e-01
-1.872018426656723022e-01
6.238830275833606720e-03
-2.072905423119664192e-03
4.770243167877197266e-02
-9.063225239515304565e-02
2.042545676231384277e-01
-2.128189504146575928e-01
-1.614308357238769531e-01
-1.243466585874557495e-01
2.239252924919128418e-01
-7.449012249708175659e-02
-3.402987122535705566e-02
-8.826199173927307129e-02
-4.304651170969009399e-02
-2.423781752586364746e-01
-2.127093970775604248e-01
2.143274545669555664e-01
-2.498339861631393433e-01
-3.503138571977615356e-02
-1.463046073913574219e-01
-1.333007365465164185e-01
-4.862140864133834839e-02
-7.690878212451934814e-02
3.643545508384704590e-02
-5.227061361074447632e-02
-1.209988072514533997e-01
-2.041277736425399780e-01
-2.360803037881851196e-01
-3.636341914534568787e-02
-9.146551787853240967e-02
1.655870079994201660e-01
1.026228591799736023e-01
-4.159910976886749268e-02
-2.908804081380367279e-02
6.634312868118286133e-02
-5.686856061220169067e-02
2.987961098551750183e-02
-1.061061173677444458e-01
-8.452109992504119873e-02
9.537548571825027466e-02
-2.860810607671737671e-02
-1.500092595815658569e-01
6.390688568353652954e-02
1.380794048309326172e-01
-9.329003840684890747e-02
-1.577174961566925049e-01
-6.192778050899505615e-02
-9.796493500471115112e-02
-1.722100935876369476e-02
6.791436672210693359e-02
4.434869810938835144e-02
2.255259156227111816e-01
-1.392395943403244019e-01
1.258039474487304688e-01
9.491011500358581543e-02
-2.598978346213698387e-03
1.883424222469329834e-01
-2.364731626585125923e-03
1.469403207302093506e-01
1.905201673507690430e-01
7.080706208944320679e-02
-1.887804567813873291e-01
-2.181633114814758301e-01
1.853049919009208679e-02
4.943122714757919312e-02
-1.104883477091789246e-01
-3.004898130893707275e-02
-1.383713074028491974e-02
-3.720964118838310242e-02
8.819495886564254761e-02
1.318215429782867432e-01
7.094586640596389771e-02
-2.332577109336853027e-01
-6.873424863442778587e-04
1.503689140081405640e-01
-2.164821624755859375e-01
1.769283711910247803e-01
1.669715940952301025e-01
-2.076399028301239014e-01
-2.100667506456375122e-01
-1.147106811404228210e-01
-6.079976260662078857e-02
6.268188357353210449e-02
9.096433967351913452e-02
9.083933383226394653e-02
-1.847195476293563843e-01
-1.972043514251708984e-01
1.597661972045898438e-01
-8.258868008852005005e-02
-2.425765246152877808e-01
-8.462116122245788574e-02
8.411123603582382202e-02
3.949359059333801270e-03
-5.337247624993324280e-03
5.626730620861053467e-02
-1.291538178920745850e-01
2.510096505284309387e-02
2.313534915447235107e-02
1.845764964818954468e-01
2.198316454887390137e-01
6.780444085597991943e-02
2.140424251556396484e-01
1.575705707073211670e-01
-7.342356722801923752e-03
1.129925698041915894e-01
-1.486059725284576416e-01
-2.683137357234954834e-02
-6.425589323043823242e-02
1.756379306316375732e-01
1.473804414272308350e-01
4.990048706531524658e-02
-2.729556709527969360e-02
-1.170098781585693359e-01
8.135471493005752563e-02
1.949225068092346191e-01
8.066373877227306366e-03
2.108619660139083862e-01
9.830196946859359741e-02
-1.303442418575286865e-01
-1.020655129104852676e-02
2.668908238410949707e-01
2.538620829582214355e-01
-1.351309269666671753e-01
-2.934299595654010773e-02
-1.786657422780990601e-02
2.256505489349365234e-01
-1.138371508568525314e-02
-1.052203476428985596e-01
-1.262246519327163696e-01
8.132939040660858154e-02
-1.340444087982177734e-01
5.558243021368980408e-02
9.801576286554336548e-02
-1.055921092629432678e-01
1.932402253150939941e-01
1.637312211096286774e-02
8.467884361743927002e-02
1.453265398740768433e-01
1.503839492797851562e-01
-1.112986654043197632e-01
-1.482069045305252075e-01
4.475957155227661133e-02
1.144815012812614441e-01
-9.345130994915962219e-03
3.598530590534210205e-02
-7.208573818206787109e-02
-4.210070520639419556e-02
2.423409372568130493e-01
1.146795600652694702e-01
-2.915779687464237213e-02
-2.027222067117691040e-01
-4.246682301163673401e-02
2.084714919328689575e-01
2.891902439296245575e-02
-2.297651581466197968e-02
6.324954330921173096e-02
1.728269904851913452e-01
5.289296060800552368e-02
-1.684030890464782715e-01
1.862528175115585327e-01
2.431714981794357300e-01
1.040761321783065796e-01
-2.268772721290588379e-01
1.409488916397094727e-01
-5.059565883129835129e-03
-1.470220740884542465e-02
1.912270933389663696e-01
9.899824857711791992e-02
-3.059456944465637207e-01
3.554729744791984558e-02
-1.077186390757560730e-01
-7.323709875345230103e-02
-1.657198816537857056e-01
6.464686710387468338e-03
-3.386460244655609131e-01
-1.981919109821319580e-01
2.017364799976348877e-01
1.171643882989883423e-01
2.959693036973476410e-02
6.332271546125411987e-02
1.032583415508270264e-02
9.594153612852096558e-02
3.613115474581718445e-02
3.252029791474342346e-02
-4.104955866932868958e-02
-6.260627508163452148e-02
6.704609096050262451e-02
-1.638559624552726746e-02
1.634532511234283447e-01
-1.333165168762207031e-01
8.257550746202468872e-02
1.355838924646377563e-01
-1.998307406902313232e-01
-2.932755043730139732e-03
1.055558249354362488e-01
1.664835065603256226e-01
3.180131316184997559e-02
1.643940061330795288e-01
6.713129580020904541e-02
-6.927752401679754257e-03
1.683196872472763062e-01
-1.343349665403366089e-01
1.400839239358901978e-01
-4.497949406504631042e-02
1.627920269966125488e-01
-1.512463092803955078e-01
2.530964314937591553e-01
7.507497817277908325e-02
1.872694492340087891e-01
2.189311683177947998e-01
1.210745945572853088e-01
1.872294694185256958e-01
-1.684321165084838867e-01
7.552087306976318359e-02
2.630927264690399170e-01
8.322165161371231079e-02
-8.203455805778503418e-02
-9.721062332391738892e-02
-2.701752483844757080e-01
-7.747999578714370728e-02
2.110105156898498535e-01
-2.362897098064422607e-01
-1.281086653470993042e-01
2.749021053314208984e-01
-3.961648792028427124e-02
6.529506295919418335e-02
-3.244606032967567444e-02
6.099623627960681915e-03
-1.192487478256225586e-01
-6.168854609131813049e-02
1.176175102591514587e-02
-6.053458526730537415e-02
7.600153982639312744e-02
-5.549461022019386292e-02
9.548109024763107300e-02
6.342083960771560669e-02
-1.136534810066223145e-01
-1.505358330905437469e-02
-9.809213876724243164e-02
-8.283822983503341675e-02
-4.259134642779827118e-03
-5.429421365261077881e-02
-5.736504867672920227e-02
-5.154841393232345581e-02
3.287740424275398254e-02
-7.526275515556335449e-02
9.382225573062896729e-02
1.086028963327407837e-01
3.316613659262657166e-02
-1.241108998656272888e-01
-2.603355096653103828e-03
4.897087812423706055e-02
-1.516144573688507080e-01
-1.612006127834320068e-01
2.323314398527145386e-01
-1.967459022998809814e-01
-2.752528786659240723e-01
1.797832399606704712e-01
2.312327474355697632e-01
1.420330256223678589e-01
-2.016329616308212280e-01
7.022047042846679688e-02
-4.779504239559173584e-02
2.633965015411376953e-01
2.785903960466384888e-02
-8.182240277528762817e-02
2.928482927381992340e-02
-9.108860045671463013e-02
-2.083065062761306763e-01
9.967815130949020386e-02
9.843673557043075562e-02
-1.811225861310958862e-01
1.860696822404861450e-01
4.604743793606758118e-02
5.666542425751686096e-02
-1.677384041249752045e-02
-2.261004149913787842e-01
-1.844240874052047729e-01
-1.257801651954650879e-01
1.659260243177413940e-01
-6.859330087900161743e-02
-1.193230897188186646e-01
2.436539828777313232e-01
1.726957783102989197e-02
1.350435018539428711e-01
-4.315156862139701843e-02
1.299112588167190552e-01
-1.456620544195175171e-01
4.583689570426940918e-02
6.050421670079231262e-02
1.518899798393249512e-01
1.221071928739547729e-01
2.071480602025985718e-01
-8.214118331670761108e-02
2.310835756361484528e-02
1.754394918680191040e-01
-5.743568018078804016e-02
2.895854413509368896e-02
-1.865671128034591675e-01
1.668290942907333374e-01
3.027985244989395142e-02
-7.956156879663467407e-02
-3.262506797909736633e-02
-2.295652776956558228e-01
-1.444947272539138794e-01
3.663704916834831238e-02
-2.739655971527099609e-01
1.070442497730255127e-01
-2.264412641525268555e-01
-1.119590774178504944e-01
8.512943238019943237e-02
1.319323331117630005e-01
-2.002228647470474243e-01
1.264513432979583740e-01
-2.049726434051990509e-02
1.051946431398391724e-01
-1.757655143737792969e-01
3.804618865251541138e-02
-2.328413277864456177e-01
1.197962090373039246e-01
-6.186457350850105286e-02
-8.845799416303634644e-02
1.776918172836303711e-01
-6.417319178581237793e-02
1.054376550018787384e-02
-6.437585502862930298e-02
-7.076127827167510986e-02
1.123042628169059753e-01
-9.097098372876644135e-03
-1.830016225576400757e-01
-1.914008893072605133e-02
-1.219506561756134033e-01
-7.865499705076217651e-02
3.067972138524055481e-02
-7.003660500049591064e-02
1.951978653669357300e-01
-1.073058247566223145e-01
-5.527710914611816406e-02
-5.820419639348983765e-02
1.029786914587020874e-01
1.567649096250534058e-01
-1.401102095842361450e-01
-1.644128262996673584e-01
-1.314323246479034424e-01
-5.064281448721885681e-02
1.387170553207397461e-01
2.204426079988479614e-01
2.462204843759536743e-01
2.576466500759124756e-01
-2.407941967248916626e-01
-9.119471907615661621e-02
-1.524396538734436035e-01
2.517290040850639343e-02
1.225260347127914429e-01
-2.574282325804233551e-02
-1.656075119972229004e-01
4.601784050464630127e-03
-1.464795023202896118e-01
4.122928529977798462e-02
-1.190874129533767700e-01
6.392097473144531250e-02
-1.763280034065246582e-01
7.736982312053442001e-03
1.362358033657073975e-01
1.169800385832786560e-01
2.271354943513870239e-01
-2.120871841907501221e-01
5.985772609710693359e-02
-7.669723033905029297e-02
1.765963286161422729e-01
1.448704749345779419e-01
-2.781696058809757233e-02
8.980607241392135620e-02
7.046923972666263580e-03
1.040895953774452209e-01
7.331372052431106567e-02
-1.440230458974838257e-01
2.042262107133865356e-01
6.736952811479568481e-02
3.853404195979237556e-03
-9.436894953250885010e-02
-8.715709671378135681e-03
-1.840146332979202271e-01
5.287848785519599915e-02
6.041456013917922974e-02
1.560376882553100586e-01
1.018376722931861877e-01
-1.033988520503044128e-01
5.496184900403022766e-02
-3.704401478171348572e-02
1.614365167915821075e-02
4.138980433344841003e-02
1.807112991809844971e-01
1.030739918351173401e-01
-1.926979273557662964e-01
5.366417393088340759e-02
1.988437585532665253e-02
-1.973939388990402222e-01
7.923770695924758911e-02
1.277560591697692871e-01
-1.230861619114875793e-01
2.309520840644836426e-01
2.603398859500885010e-01
2.178847193717956543e-01
-3.789970278739929199e-02
-1.073926873505115509e-02
-6.713928282260894775e-02
1.855227500200271606e-01
2.149744778871536255e-01
2.019916623830795288e-01
2.474595755338668823e-01
-1.185003072023391724e-01
7.098072767257690430e-02
-3.154327720403671265e-02
3.944138810038566589e-02
-5.604747682809829712e-02
-3.227626904845237732e-02
-1.574724018573760986e-01
-2.109898477792739868e-01
9.901540726423263550e-02
-4.259700700640678406e-02
2.257637679576873779e-01
8.305342495441436768e-02
8.957424759864807129e-02
1.553742438554763794e-01
-2.160839736461639404e-01
1.175832524895668030e-01
-3.106260299682617188e-02
-2.473034113645553589e-01
5.288926139473915100e-02
-2.149168401956558228e-02
-1.411609500646591187e-01
6.846500188112258911e-02
2.014453262090682983e-01
1.861761510372161865e-02
9.624431282281875610e-02
-1.528641022741794586e-02
-8.990383893251419067e-02
-1.206026375293731689e-01
-1.669460684061050415e-01
-1.311955899000167847e-01
-1.102178171277046204e-01
7.259414345026016235e-02
-1.428250521421432495e-01
-1.986320167779922485e-01
-1.657735258340835571e-01
-5.050065368413925171e-02
1.919686943292617798e-01
-2.552405297756195068e-01
1.643505692481994629e-02
-1.053688451647758484e-01
-1.797760426998138428e-01
6.638669967651367188e-02
-2.601977810263633728e-02
2.997225522994995117e-01
-1.668470650911331177e-01
7.184551795944571495e-04
1.799892336130142212e-01
6.506910175085067749e-02
4.775964468717575073e-02
1.284014284610748291e-01
-2.685859203338623047e-01
1.782059669494628906e-01
3.855513036251068115e-02
3.995212912559509277e-02
-8.791984617710113525e-02
2.702146470546722412e-01
-1.529256999492645264e-01
6.126449257135391235e-02
6.849829107522964478e-02
1.841617077589035034e-01
5.149130150675773621e-02
-9.354603290557861328e-02
-1.888615041971206665e-01
-1.063792705535888672e-01
3.562485426664352417e-02
-5.889245122671127319e-02
-1.280640624463558197e-02
2.883865870535373688e-02
6.025610119104385376e-02
4.052984341979026794e-02
-4.156561940908432007e-02
1.293087005615234375e-01
-9.233806282281875610e-02
6.171345710754394531e-02
4.062775149941444397e-02
-4.178051277995109558e-02
1.198945865035057068e-01
-7.802378386259078979e-02
-7.833216339349746704e-02
1.289608422666788101e-02
-2.933776192367076874e-02
-1.957002729177474976e-01
-1.117565706372261047e-01
-8.739954978227615356e-02
1.737889498472213745e-01
4.308977350592613220e-02
1.816006749868392944e-01
-1.951075345277786255e-01
1.114864945411682129e-01
-2.249914407730102539e-01
1.770596802234649658e-01
-1.137003004550933838e-01
1.441803276538848877e-01
-5.022789910435676575e-02
-1.517820656299591064e-01
2.146818637847900391e-01
-2.162537425756454468e-01
-1.768862009048461914e-01
-9.973406046628952026e-02
1.748854815959930420e-01
6.043396145105361938e-02
-6.055636331439018250e-02
8.651425689458847046e-02
-1.642362028360366821e-01
2.369904331862926483e-02
9.770656377077102661e-02
1.319374442100524902e-01
-2.731490731239318848e-01
1.596627831459045410e-01
9.490303695201873779e-02
1.198088303208351135e-01
-2.004196196794509888e-01
1.764474660158157349e-01
1.103742122650146484e-01
-4.660135507583618164e-02
-9.284231066703796387e-02
-1.359186470508575439e-01
8.070234954357147217e-02
-1.067316606640815735e-01
6.320129614323377609e-06
-7.519649807363748550e-03
1.348060667514801025e-01
6.676838546991348267e-02
-2.254343032836914062e-01
1.089430674910545349e-01
-3.063431568443775177e-02
-8.198200911283493042e-02
6.344838440418243408e-02
-1.227879617363214493e-02
7.136360555887222290e-02
-1.955078728497028351e-02
-7.961411774158477783e-02
1.248288527131080627e-01
3.771788999438285828e-02
1.141293570399284363e-01
-2.791035473346710205e-01
-2.543377131223678589e-02
-2.390100434422492981e-02
2.005272656679153442e-01
-2.345658540725708008e-01
-1.324635595083236694e-01
9.176792204380035400e-02
-1.313240528106689453e-01
1.513075083494186401e-01
-1.905212402343750000e-01
-2.028546780347824097e-01
-1.112745478749275208e-01
-1.542929559946060181e-01
9.833479672670364380e-02
-2.637660503387451172e-01
1.331852562725543976e-02
1.009206548333168030e-01
-1.715695708990097046e-01
3.892076760530471802e-02
2.823305428028106689e-01
-1.783152073621749878e-01
2.636887133121490479e-02
-1.310293190181255341e-02
1.788632869720458984e-01
-7.307711243629455566e-02
-1.350522935390472412e-01
-2.314845845103263855e-02
5.768407881259918213e-02
1.270191520452499390e-01
-3.402502089738845825e-02
-1.247423067688941956e-01
-5.745977163314819336e-02
2.933671697974205017e-02
-1.358501911163330078e-01
-9.289837628602981567e-02
-5.147033371031284332e-04
-4.260851535946130753e-03
-1.322825849056243896e-01
-7.944951206445693970e-02
1.499688625335693359e-01
2.490796893835067749e-01
-1.624943315982818604e-01
-1.557624638080596924e-01
1.205709576606750488e-02
2.926262617111206055e-01
2.093316167593002319e-01
-1.865886896848678589e-02
-1.653802767395973206e-02
-9.562059491872787476e-02
1.309925317764282227e-01
2.089555189013481140e-02
8.592186123132705688e-02
-2.668572068214416504e-01
-6.567122042179107666e-02
1.060997974127531052e-02
-1.152533013373613358e-02
-1.968342065811157227e-01
-1.451396346092224121e-01
-3.114217147231101990e-02
8.975338190793991089e-02
-2.291347682476043701e-01
-1.106180548667907715e-01
4.456773400306701660e-02
6.245702132582664490e-02
2.013613469898700714e-02
-3.724406287074089050e-02
1.411707401275634766e-01
1.369305402040481567e-01
-5.629451572895050049e-02
-9.649202227592468262e-02
1.344591006636619568e-02
-1.461763978004455566e-01
2.427008450031280518e-01
1.050816848874092102e-01
4.250138252973556519e-02
-1.204023212194442749e-01
-8.389468491077423096e-02
-2.079880982637405396e-02
-8.634494245052337646e-02
-1.144137457013130188e-01
3.165201097726821899e-02
-1.850001066923141479e-01
1.792240589857101440e-01
2.177019566297531128e-01
1.162267327308654785e-01
3.817543014883995056e-02
-1.208096593618392944e-01
1.152567751705646515e-02
1.194774806499481201e-01
1.466487497091293335e-01
2.149502635002136230e-01
1.744144409894943237e-01
7.580614089965820312e-02
4.039617255330085754e-02
2.059316933155059814e-01
-1.557614356279373169e-01
1.124694123864173889e-01
1.207521036267280579e-01
-4.481471329927444458e-02
-6.555392593145370483e-02
2.669724822044372559e-01
5.599686875939369202e-02
-1.490288078784942627e-01
-2.781725823879241943e-01
1.140311360359191895e-01
-4.549496248364448547e-02
1.539242118597030640e-01
8.133997768163681030e-02
2.272537350654602051e-02
-2.618684768676757812e-01
2.396750822663307190e-02
-5.523447319865226746e-02
2.021680921316146851e-01
7.184219360351562500e-02
1.007123216986656189e-01
-1.375331170856952667e-02
1.762496232986450195e-01
-6.627398729324340820e-02
4.012953117489814758e-02
1.279453784227371216e-01
-1.153697371482849121e-01
-2.045946381986141205e-02
-6.753243505954742432e-02
1.804362833499908447e-01
4.454759880900382996e-02
3.504251688718795776e-02
8.830421417951583862e-02
6.743352860212326050e-02
2.235957607626914978e-02
1.265921443700790405e-01
9.381492435932159424e-02
1.658841222524642944e-01
-1.695005744695663452e-01
1.913097053766250610e-01
-5.057833716273307800e-02
-4.951162263751029968e-03
-1.078977957367897034e-01
1.246642041951417923e-02
1.602071225643157959e-01
1.160932183265686035e-01
-2.483163028955459595e-01
-1.833349168300628662e-01
-2.139718979597091675e-01
7.989016175270080566e-02
-2.271401286125183105e-01
7.263001799583435059e-02
2.440423369407653809e-01
2.480710446834564209e-01
-2.576048374176025391e-01
-1.857018917798995972e-01
1.665383130311965942e-01
-1.131346300244331360e-01
-4.150651767849922180e-02
-1.889776736497879028e-01
4.336071759462356567e-02
7.027623802423477173e-02
-1.107107400894165039e-01
2.877588272094726562e-01
2.111386209726333618e-01
-2.814801968634128571e-02
1.054970994591712952e-01
-6.621121615171432495e-02
1.618535965681076050e-01
-1.969147920608520508e-01
1.625109761953353882e-01
7.141891866922378540e-02
1.903786659240722656e-01
-2.252515852451324463e-01
1.118895113468170166e-01
-8.020487427711486816e-02
1.757950522005558014e-02
-3.465915471315383911e-02
-1.792140828911215067e-04
-1.794432476162910461e-02
6.284245103597640991e-02
-1.069455686956644058e-02
2.538076788187026978e-02
4.925385862588882446e-02
-1.554880738258361816e-01
2.373024225234985352e-01
-4.046668857336044312e-02
-3.044137172400951385e-02
-8.241812139749526978e-02
2.562577724456787109e-01
2.012376785278320312e-01
-8.555764704942703247e-02
6.268736720085144043e-02
3.442654758691787720e-02
-1.824915856122970581e-01
-5.782691761851310730e-02
-1.801760345697402954e-01
-1.695054322481155396e-01
1.683831959962844849e-01
-7.457112520933151245e-02
1.769509315490722656e-01
1.548528224229812622e-01
4.691329598426818848e-02
1.235361099243164062e-01
6.962849199771881104e-02
1.078115892596542835e-03
-6.119899824261665344e-02
1.709019094705581665e-01
-1.014705095440149307e-02
-2.497031092643737793e-01
1.219701170921325684e-01
-1.889578104019165039e-01
-2.219208180904388428e-01
-5.423401296138763428e-02
5.390618368983268738e-02
-2.126632034778594971e-01
-1.181802451610565186e-01
9.794356673955917358e-02
-7.710748165845870972e-02
-1.613857895135879517e-01
8.816508203744888306e-02
1.894208788871765137e-01
6.726969778537750244e-02
2.367805317044258118e-02
1.627341657876968384e-01
3.337729349732398987e-02
6.943073868751525879e-02
-2.156903780996799469e-02
-1.501282006502151489e-01
4.118427634239196777e-02
1.394174695014953613e-01
1.918809022754430771e-03
1.101547107100486755e-01
1.576704531908035278e-01
-1.448703855276107788e-01
3.157001733779907227e-02
1.127764061093330383e-01
1.789702028036117554e-01
-7.637121528387069702e-02
-2.215081900358200073e-01
2.280737310647964478e-01
-1.961307972669601440e-01
6.613624095916748047e-02
1.886577904224395752e-01
-1.115729287266731262e-01
-1.125985532999038696e-01
-2.382422685623168945e-01
1.422052234411239624e-01
1.558818370103836060e-01
2.416675724089145660e-02
-1.759148091077804565e-01
-1.579719483852386475e-01
1.725386828184127808e-01
-5.522340070456266403e-03
9.792845696210861206e-02
-1.597844958305358887e-01
-9.801551699638366699e-02
9.233529865741729736e-02
-1.987018138170242310e-01
1.223322078585624695e-01
6.007288396358489990e-02
-1.624455302953720093e-01
2.944463789463043213e-01
6.575434654951095581e-02
6.428329274058341980e-03
-9.866774082183837891e-02
-2.374422401189804077e-01
1.190276592969894409e-01
-1.529042273759841919e-01
1.976469755172729492e-01
-2.376794219017028809e-01
1.036385446786880493e-02
-5.459174886345863342e-02
-2.155133783817291260e-01
-9.944739937782287598e-02
-4.755444824695587158e-02
-4.998758435249328613e-03
-8.055587857961654663e-02
1.332090348005294800e-01
3.883354365825653076e-02
-2.617331407964229584e-02
-7.462786138057708740e-02
1.945121735334396362e-01
-6.546804308891296387e-02
1.194731444120407104e-01
-5.725058913230895996e-02
-2.130233123898506165e-02
9.159076027572154999e-03
8.764110505580902100e-02
-3.422692790627479553e-02
2.350750714540481567e-01
-1.357033252716064453e-01
2.233303338289260864e-01
-1.990247219800949097e-01
-1.931106746196746826e-01
-2.363951317965984344e-02
5.088366940617561340e-02
-8.226624131202697754e-02
6.649988889694213867e-02
-1.990730613470077515e-01
-3.491874039173126221e-02
-1.762915402650833130e-01
5.640914291143417358e-02
1.636224538087844849e-01
1.770995557308197021e-01
-1.849943250417709351e-01
-9.898005425930023193e-02
2.123266160488128662e-01
-2.225990593433380127e-01
-8.598802238702774048e-02
-1.767252534627914429e-01
1.574303060770034790e-01
2.870630286633968353e-02
2.386458963155746460e-01
1.755739450454711914e-01
6.146716699004173279e-02
1.207649111747741699e-01
-3.283557668328285217e-02
1.381194889545440674e-01
9.676118381321430206e-03
-2.192391008138656616e-01
1.119239553809165955e-01
8.096449077129364014e-02
-4.467922076582908630e-02
1.358175370842218399e-02
1.114620789885520935e-01
1.142245531082153320e-01
-1.677335500717163086e-01
2.204127237200737000e-02
-1.643564999103546143e-01
-4.167003184556961060e-02
2.153302133083343506e-01
-6.139872130006551743e-03
2.212416529655456543e-01
-1.743330433964729309e-02
2.141241729259490967e-01
8.551300317049026489e-02
2.256580144166946411e-01
-1.016766875982284546e-01
1.296020299196243286e-01
1.430631279945373535e-01
1.938157528638839722e-01
-1.102427840232849121e-01
-2.431383728981018066e-01
1.904775053262710571e-01
5.693752691149711609e-02
1.440327912569046021e-01
-6.376732885837554932e-02
-1.347267478704452515e-01
-7.243988662958145142e-02
-5.751222372055053711e-02
1.135272756218910217e-01
2.597983181476593018e-01
-2.479379326105117798e-01
2.933741733431816101e-02
2.230252921581268311e-01
-1.796500980854034424e-01
-1.261696517467498779e-01
1.803432404994964600e-02
3.176147863268852234e-02
1.243021786212921143e-01
-7.929300516843795776e-02
-1.953358650207519531e-01
-2.606301009654998779e-01
-1.397172510623931885e-01
2.037418186664581299e-01
2.165215164422988892e-01
2.137323766946792603e-01
8.862716704607009888e-02
-1.492442935705184937e-01
2.006526440382003784e-01
2.420218437910079956e-01
-1.685757339000701904e-01
-4.141666367650032043e-02
2.233696132898330688e-01
2.072890549898147583e-01
-1.227393373847007751e-01
4.212512075901031494e-02
-1.184886619448661804e-01
-3.342632949352264404e-02
-1.255445927381515503e-01
-1.107707396149635315e-01
6.608039885759353638e-02
-2.327623963356018066e-02
-2.777443230152130127e-01
2.790538370609283447e-01
2.880874276161193848e-01
-2.209625691175460815e-01
2.162235975265502930e-01
2.847632858902215958e-03
-2.911554276943206787e-01
1.251678727567195892e-02
2.109165340662002563e-01
-1.079412624239921570e-01
-1.610244214534759521e-01
-1.070751622319221497e-01
-1.628069877624511719e-01
-1.150785461068153381e-01
1.137332692742347717e-01
2.092406600713729858e-01
1.769779324531555176e-01
-1.154667809605598450e-01
-1.342554688453674316e-01
-5.700023844838142395e-02
2.139703184366226196e-01
7.291478663682937622e-02
-2.483044937252998352e-02
8.972018957138061523e-02
-4.707764461636543274e-02
-1.349009275436401367e-01
1.977826654911041260e-01
-2.509953267872333527e-02
-7.289622724056243896e-02
9.627363830804824829e-02
-1.204992011189460754e-01
1.389965116977691650e-01
1.494366377592086792e-01
2.007516659796237946e-02
1.257724463939666748e-01
5.060004768893122673e-04
6.525021046400070190e-02
4.496844857931137085e-02
-1.007627416402101517e-02
1.808715760707855225e-01
-1.572243422269821167e-01
4.630480334162712097e-02
4.169316217303276062e-02
-1.928061842918395996e-01
2.244723439216613770e-01
2.371720373630523682e-01
1.528485119342803955e-01
9.586849063634872437e-02
-9.486017376184463501e-02
-6.460332311689853668e-03
-9.756533056497573853e-02
-1.133126169443130493e-01
2.299314141273498535e-01
-1.658483296632766724e-01
4.032016173005104065e-02
1.527365297079086304e-01
2.023587822914123535e-01
-1.961969286203384399e-01
2.350143045186996460e-01
2.378873899579048157e-02
-7.452135905623435974e-03
2.054620236158370972e-01
5.306289717555046082e-02
-4.004056565463542938e-03
-1.054946705698966980e-01
1.108949035406112671e-01
8.589123934507369995e-02
-9.438689053058624268e-02
1.143500432372093201e-01
8.122384548187255859e-02
1.650627404451370239e-01
-1.805903911590576172e-01
-8.143236045725643635e-04
2.983741462230682373e-02
-1.684164702892303467e-01
1.561830285936594009e-03
-1.535863876342773438e-01
1.141109913587570190e-01
8.325753360986709595e-02
-1.414605528116226196e-01
-6.816525012254714966e-02
1.598132550716400146e-01
1.923799663782119751e-01
-5.398609675467014313e-03
1.913028061389923096e-01
-8.921845257282257080e-02
1.061450839042663574e-01
-1.702782511711120605e-02
-1.814173609018325806e-01
1.419776529073715210e-01
-1.401745527982711792e-01
1.654686778783798218e-01
1.589495092630386353e-01
6.955973058938980103e-02
5.356997624039649963e-02
-7.847274094820022583e-02
-7.081924378871917725e-02
6.178461387753486633e-02
-1.461192667484283447e-01
-1.988637447357177734e-01
-1.695265620946884155e-01
-1.769094914197921753e-01
-2.643603459000587463e-02
2.052290141582489014e-01
1.457779258489608765e-01
1.454308778047561646e-01
1.322751790285110474e-01
3.127079689875245094e-04
1.272059977054595947e-01
1.718536615371704102e-01
-4.023635014891624451e-02
-5.120025575160980225e-02
-1.175893470644950867e-01
-3.074508011341094971e-01
-1.671134680509567261e-01
3.531071171164512634e-02
-1.890376657247543335e-01
1.063933968544006348e-01
2.630952596664428711e-01
1.476529240608215332e-01
-2.105459868907928467e-01
-9.352674335241317749e-02
1.682343333959579468e-01
8.335299044847488403e-02
-2.324053347110748291e-01
-6.945557892322540283e-02
9.202431887388229370e-02
1.112165302038192749e-01
2.123523801565170288e-01
-6.112449243664741516e-02
-5.395153164863586426e-02
-9.263756126165390015e-02
9.816905111074447632e-02
9.329773485660552979e-02
1.967752128839492798e-01
-1.379417926073074341e-01
-1.084574237465858459e-01
-1.865798681974411011e-01
5.137018486857414246e-02
2.072847336530685425e-01
-1.351777166128158569e-01
-3.495782613754272461e-02
-1.047283932566642761e-01
2.288299947977066040e-01
2.041761018335819244e-02
2.081863433122634888e-01
4.974653478711843491e-03
2.650744020938873291e-01
-9.485957771539688110e-02
2.860838174819946289e-02
-3.827266767621040344e-02
9.298793971538543701e-02
2.521606087684631348e-01
-3.394735604524612427e-02
-2.956117391586303711e-01
-1.275249123573303223e-01
8.944115787744522095e-02
2.258319556713104248e-01
2.132999897003173828e-01
-6.650469452142715454e-02
-1.516873687505722046e-01
-9.266611188650131226e-02
-9.415019303560256958e-03
-2.273471206426620483e-01
7.041449099779129028e-02
1.375227868556976318e-01
1.995189487934112549e-01
-2.583250403404235840e-02
-1.301879733800888062e-01
4.790462926030158997e-02
5.088449269533157349e-02
-1.213560998439788818e-01
9.572751075029373169e-02
1.762183010578155518e-01
-5.427327752113342285e-02
2.337557673454284668e-01
-1.144374161958694458e-01
8.910951018333435059e-02
6.800078786909580231e-03
1.499295085668563843e-01
-3.140377812087535858e-03
-5.700857564806938171e-02
-6.071368232369422913e-02
4.690822958946228027e-02
6.995528936386108398e-02
2.059445977210998535e-01
2.160589694976806641e-01
6.902849674224853516e-02
-1.421894729137420654e-01
-1.424084305763244629e-01
-4.101051390171051025e-02
-1.789023280143737793e-01
1.083802580833435059e-01
7.071933150291442871e-02
-3.024663962423801422e-02
8.291610330343246460e-02
-2.041345089673995972e-01
3.286601230502128601e-02
4.845179244875907898e-02
-4.612771794199943542e-02
-1.612779200077056885e-01
-5.846508964896202087e-02
-2.144212871789932251e-01
5.032831802964210510e-02
-2.964973151683807373e-01
-1.115449070930480957e-01
1.878343820571899414e-01
-8.522321283817291260e-02
8.804906904697418213e-02
5.176472663879394531e-02
1.871052682399749756e-01
-1.278338134288787842e-01
1.794628053903579712e-02
9.825577028095722198e-03
-2.452707290649414062e-02
2.509301304817199707e-01
-6.916080601513385773e-03
2.506175935268402100e-01
-3.098244965076446533e-01
-8.053763955831527710e-02
1.589097231626510620e-01
-1.209140568971633911e-01
-1.304821223020553589e-01
6.225362792611122131e-02
-1.791292577981948853e-01
7.308707106858491898e-03
-3.672102699056267738e-03
-5.919742956757545471e-02
-1.933556422591209412e-02
-3.442339226603507996e-02
-4.662290215492248535e-02
1.043146699666976929e-01
-1.458772718906402588e-01
-1.636047512292861938e-01
9.172825515270233154e-02
2.088009566068649292e-01
1.095243841409683228e-01
-6.161555647850036621e-02
-1.024758070707321167e-01
-1.487988382577896118e-01
1.329558044672012329e-01
-8.419231511652469635e-03
6.262418627738952637e-02
-1.108769234269857407e-02
-3.049046732485294342e-03
-1.665592640638351440e-01
-4.138294234871864319e-02
-1.071298271417617798e-01
1.169862002134323120e-01
-3.163221757858991623e-03
2.742197513580322266e-01
-3.038431704044342041e-01
-2.637479305267333984e-01
1.346588283777236938e-01
2.481298595666885376e-01
-1.813761889934539795e-01
2.100108563899993896e-01
5.831106007099151611e-02
-1.150516867637634277e-01
7.291533052921295166e-02
1.228818669915199280e-01
5.711427703499794006e-02
1.505216062068939209e-01
2.201748788356781006e-01
-1.764711439609527588e-01
9.538107365369796753e-02
-1.333861351013183594e-01
-3.585685044527053833e-02
-2.223765477538108826e-02
1.542988866567611694e-01
1.300300657749176025e-01
-1.942970603704452515e-02
1.248475089669227600e-01
-1.189931780099868774e-01
-1.407864242792129517e-01
6.750813871622085571e-02
1.010391768068075180e-02
5.937962234020233154e-02
4.532735794782638550e-02
-7.448469847440719604e-02
1.394523829221725464e-01
1.729941964149475098e-01
-4.022944718599319458e-02
-1.107659861445426941e-01
4.228530824184417725e-02
6.276289373636245728e-02
-2.968652732670307159e-02
4.381064325571060181e-02
-2.459893375635147095e-01
6.026603654026985168e-02
2.229456454515457153e-01
-1.328296065330505371e-01
1.998281627893447876e-01
-2.037960477173328400e-02
1.368224024772644043e-01
1.491927504539489746e-01
1.257313340902328491e-01
1.592801213264465332e-01
-3.537278249859809875e-02
1.175077110528945923e-01
-1.507119834423065186e-01
-1.854423880577087402e-01
6.150091439485549927e-02
1.322409063577651978e-01
-9.449781477451324463e-02
9.787798672914505005e-02
-1.242278143763542175e-01
7.979014515876770020e-02
-1.791564524173736572e-01
-7.562707643955945969e-03
-1.666248403489589691e-02
1.583168208599090576e-01
-1.402593404054641724e-01
-2.331462688744068146e-02
-2.100232839584350586e-01
-8.491445332765579224e-02
9.155323356389999390e-02
-4.342856258153915405e-02
-9.423387795686721802e-02
5.107845738530158997e-02
-1.809190027415752411e-02
-8.880668878555297852e-02
-1.123932749032974243e-02
1.822092980146408081e-01
1.043994948267936707e-01
6.765515357255935669e-02
-1.707822382450103760e-01
-5.526492744684219360e-02
-2.248195409774780273e-01
1.984361559152603149e-01
-1.871174387633800507e-02
-1.466679759323596954e-02
-4.805045574903488159e-02
1.754591800272464752e-02
1.361427456140518188e-01
-1.929785162210464478e-01
-1.955474354326725006e-02
-7.986929267644882202e-03
5.055860802531242371e-02
1.322997361421585083e-02
-3.992832824587821960e-02
1.654669344425201416e-01
-8.336048573255538940e-02
-4.850503057241439819e-02
-5.160890147089958191e-02
-7.735399901866912842e-02
1.870425492525100708e-01
-1.299331337213516235e-01
-8.377599716186523438e-02
1.680194884538650513e-01
1.676331758499145508e-01
-7.322971522808074951e-02
2.105317562818527222e-01
-1.878342777490615845e-01
1.806812137365341187e-01
-4.190680012106895447e-02
5.697828717529773712e-03
1.135417297482490540e-01
-1.652686297893524170e-01
1.712421476840972900e-01
1.738829016685485840e-01
1.272261589765548706e-01
7.373820990324020386e-02
1.095876693725585938e-01
9.317123144865036011e-02
-4.166648909449577332e-02
1.806400567293167114e-01
-9.790045022964477539e-02
1.763056367635726929e-01
6.753922998905181885e-02
1.986246109008789062e-01
1.862868517637252808e-01
8.919794112443923950e-02
-1.188949272036552429e-01
6.744218617677688599e-02
1.812005974352359772e-02
-1.803025156259536743e-01
1.281432807445526123e-01
2.564021050930023193e-01
-1.057773232460021973e-01
2.257079184055328369e-01
1.507788449525833130e-01
-1.914204657077789307e-01
3.162583112716674805e-01
1.140453666448593140e-01
-1.505747437477111816e-01
-8.560893684625625610e-02
-4.070670530200004578e-02
-6.907436251640319824e-02
1.776156872510910034e-01
-1.741964071989059448e-01
6.782562285661697388e-02
1.745176315307617188e-01
8.754762262105941772e-02
-4.835182800889015198e-02
-8.271212689578533173e-03
-2.351499646902084351e-01
-7.249499857425689697e-02
1.535332202911376953e-01
1.453156769275665283e-01
1.050186380743980408e-01
-3.531161695718765259e-03
-1.433613151311874390e-01
1.564091891050338745e-01
6.865422427654266357e-02
2.440703213214874268e-01
-1.666802316904067993e-01
1.792225753888487816e-03
-1.549381017684936523e-01
5.241282284259796143e-02
-1.360284239053726196e-01
2.714982628822326660e-01
-1.466404348611831665e-01
-7.506351172924041748e-02
1.649845540523529053e-01
3.886733576655387878e-02
1.981277465820312500e-01
1.083800848573446274e-02
-2.164396494626998901e-01
-1.785265654325485229e-01
6.911180913448333740e-02
-1.980524957180023193e-01
2.487405836582183838e-01
2.132302671670913696e-01
1.250726729631423950e-01
2.638880610466003418e-01
-1.134288683533668518e-01
-1.676251143217086792e-01
-3.962952271103858948e-02
2.553125619888305664e-01
-1.604030430316925049e-01
-4.531604796648025513e-02
1.700281500816345215e-01
1.857171952724456787e-02
-9.305533766746520996e-02
2.443816810846328735e-01
-3.891631215810775757e-02
-1.953809857368469238e-01
1.538828760385513306e-01
-5.639322474598884583e-02
-9.609532356262207031e-02
-1.922832615673542023e-02
-9.131520055234432220e-03
-2.051999866962432861e-01
-1.447949111461639404e-01
9.683013707399368286e-02
-2.057683467864990234e-01
-4.656331986188888550e-02
2.626219689846038818e-01
3.581071039661765099e-03
-1.129463240504264832e-01
2.210448384284973145e-01
1.804196685552597046e-01
1.454587001353502274e-02
5.330502241849899292e-02
1.380903571844100952e-01
2.545330822467803955e-01
1.867034286260604858e-01
-3.943939134478569031e-02
5.904883611947298050e-03
1.002351567149162292e-02
1.677463203668594360e-01
2.101513296365737915e-01
-9.644401073455810547e-02
-1.066389307379722595e-01
-4.377645626664161682e-02
5.905250087380409241e-02
5.993295088410377502e-02
-1.023574098944664001e-01
-1.608945243060588837e-02
-1.236810386180877686e-01
1.637586057186126709e-01
1.912332139909267426e-02
-1.467701047658920288e-01
1.405457705259323120e-01
-4.473985731601715088e-02
-4.158362373709678650e-02
-7.372079789638519287e-02
1.098783910274505615e-01
-1.885549426078796387e-01
1.914221793413162231e-01
-1.078588515520095825e-01
1.194173097610473633e-01
9.169436246156692505e-02
5.896587669849395752e-02
1.390317678451538086e-01
-7.363406568765640259e-02
-3.124802559614181519e-02
1.150349304080009460e-01
3.774422779679298401e-02
3.032427281141281128e-02
-1.396772414445877075e-01
1.669246852397918701e-01
-7.891649007797241211e-02
1.371216177940368652e-01
2.392895519733428955e-01
1.757456958293914795e-01
2.815320491790771484e-01
-3.540323674678802490e-02
1.702039092779159546e-01
-2.338492684066295624e-02
1.039988175034523010e-01
6.668979674577713013e-02
2.233243137598037720e-01
-1.553288549184799194e-01
1.296139061450958252e-01
2.583602815866470337e-02
2.041708230972290039e-01
-1.134107336401939392e-01
-1.084477156400680542e-01
-2.220059484243392944e-01
-7.743108272552490234e-02
-4.111633449792861938e-02
1.172178611159324646e-01
-1.430094689130783081e-01
-8.542455732822418213e-02
-2.016879767179489136e-01
-5.730303004384040833e-02
-9.674181044101715088e-02
-9.153859317302703857e-02
-9.229644387960433960e-02
1.745897680521011353e-01
-2.927324548363685608e-02
3.325709328055381775e-02
-1.361051648855209351e-01
-1.678683757781982422e-01
-1.505645066499710083e-01
2.162578701972961426e-01
-1.678174138069152832e-01
1.027030572295188904e-01
2.179767936468124390e-03
1.261626482009887695e-01
6.004983559250831604e-02
-3.085157275199890137e-02
-5.183108896017074585e-02
1.213096529245376587e-01
1.973094940185546875e-01
-1.654623746871948242e-01
1.232507601380348206e-01
-1.304930746555328369e-01
3.342896327376365662e-02
-1.096620634198188782e-01
1.181636825203895569e-01
-2.074304968118667603e-02
2.210655361413955688e-01
-3.668051213026046753e-02
2.101271301507949829e-01
2.479736208915710449e-01
-1.218118816614151001e-01
-2.123997807502746582e-01
5.888164415955543518e-02
3.504766523838043213e-02
-1.153300404548645020e-01
-3.035155870020389557e-02
-1.736269593238830566e-01
-5.245996266603469849e-02
-1.802195012569427490e-01
-1.444616466760635376e-01
-1.346662640571594238e-01
2.136171460151672363e-01
1.948019266128540039e-01
7.267944514751434326e-03
2.387184351682662964e-01
3.145751729607582092e-02
8.903004229068756104e-02
-1.830151975154876709e-01
1.640256121754646301e-02
2.115382254123687744e-01
1.062661707401275635e-01
9.852280467748641968e-02
-1.534942537546157837e-01
-2.482545934617519379e-02
-1.171201653778553009e-02
1.704146713018417358e-01
5.916833505034446716e-02
1.512684673070907593e-01
-9.334147721529006958e-02
4.281505011022090912e-03
1.630516350269317627e-01
2.896701544523239136e-02
7.706923037767410278e-02
-8.291742205619812012e-02
-8.900459110736846924e-02
8.625133335590362549e-02
-6.779802590608596802e-02
-1.669509112834930420e-01
1.532279998064041138e-01
7.780550420284271240e-02
7.745786756277084351e-02
2.058677077293395996e-01
1.843725740909576416e-01
-1.305585950613021851e-01
-7.778013497591018677e-02
-1.385351419448852539e-01
1.234847083687782288e-01
-6.576592102646827698e-03
-1.270342171192169189e-01
-5.537749081850051880e-02
3.660992020741105080e-03
2.194195389747619629e-01
-9.213472902774810791e-02
3.294914588332176208e-02
-1.035328358411788940e-01
8.543802052736282349e-02
-1.141277253627777100e-01
-6.648007035255432129e-02
1.602021604776382446e-01
-2.739721238613128662e-01
-2.649122178554534912e-01
1.925389766693115234e-01
-1.346440762281417847e-01
-1.087887510657310486e-01
1.253294348716735840e-01
2.247001826763153076e-01
8.288056403398513794e-02
1.715380698442459106e-01
5.935200676321983337e-02
-1.634221225976943970e-01
-2.047609686851501465e-01
9.514560550451278687e-02
-4.052722826600074768e-03
-3.944662958383560181e-02
-3.739091381430625916e-02
-8.180696517229080200e-02
-1.428428292274475098e-01
-1.588728651404380798e-02
1.716297715902328491e-01
-1.621041446924209595e-01
-1.665898263454437256e-01
-1.786161214113235474e-01
-2.278194874525070190e-01
-1.927064508199691772e-01
-9.774842299520969391e-03
6.552145630121231079e-02
-6.992978602647781372e-02
-3.065462224185466766e-02
8.506669104099273682e-02
-1.474571675062179565e-01
1.587350517511367798e-01
-3.829029947519302368e-02
-1.748791337013244629e-01
-2.524252235889434814e-01
2.187212109565734863e-01
1.200620736926794052e-02
-2.425040602684020996e-01
-3.586077690124511719e-02
-2.338369935750961304e-01
6.752530578523874283e-03
-1.030076742172241211e-01
2.581127360463142395e-02
-2.580030262470245361e-02
2.160454392433166504e-01
1.371077895164489746e-01
-1.868607252836227417e-01
-1.905918717384338379e-01
3.545530140399932861e-02
-1.752751916646957397e-01
-1.909081041812896729e-01
1.516775339841842651e-01
-9.014475159347057343e-03
1.772276312112808228e-01
4.402059596031904221e-03
1.673896461725234985e-01
1.402965635061264038e-01
1.617528870701789856e-02
-1.188676729798316956e-01
1.983533054590225220e-01
1.087435483932495117e-01
1.368900239467620850e-01
-9.042532742023468018e-02
-5.868511646986007690e-02
-2.416415227344259620e-04
1.712771207094192505e-01
8.580454438924789429e-02
7.957158237695693970e-02
-2.073803246021270752e-01
-1.580498069524765015e-01
-1.418710649013519287e-01
1.576318740844726562e-01
-8.136148005723953247e-02
-1.791573464870452881e-01
1.493905335664749146e-01
-2.601901628077030182e-02
-8.651778101921081543e-03
1.336560845375061035e-01
-8.673018217086791992e-02
1.434601545333862305e-01
2.101285010576248169e-01
-5.265720188617706299e-02
6.356461346149444580e-02
-1.384989079087972641e-02
-4.067868739366531372e-02
2.423691749572753906e-02
-2.569004148244857788e-02
1.497513055801391602e-01
-1.908079683780670166e-01
2.194920554757118225e-02
-7.203517854213714600e-02
1.983587145805358887e-01
-7.638674974441528320e-02
-4.805800691246986389e-02
1.259083598852157593e-01
-1.582831144332885742e-03
2.460362017154693604e-01
8.747240900993347168e-02
-9.968969970941543579e-02
-2.868785709142684937e-02
-1.271045804023742676e-01
-2.076497972011566162e-01
-1.886878162622451782e-01
-1.569858007133007050e-02
1.303461790084838867e-01
-1.776062846183776855e-01
7.754233479499816895e-02
1.210912615060806274e-01
1.949131675064563751e-02
1.533023081719875336e-02
-1.406105309724807739e-01
-2.096794694662094116e-01
3.058490902185440063e-02
1.546030044555664062e-01
-4.094910249114036560e-02
7.542255334556102753e-03
-1.686761081218719482e-01
1.628689318895339966e-01
1.666896641254425049e-01
1.750730536878108978e-02
8.163321018218994141e-02
-7.313864678144454956e-02
7.559804711490869522e-03
1.665750443935394287e-01
-1.206141337752342224e-01
1.344666928052902222e-01
-7.963085919618606567e-02
1.589302420616149902e-01
-1.328110545873641968e-01
-8.895386010408401489e-02
-7.397932559251785278e-02
1.409673392772674561e-01
-7.922594249248504639e-02
2.025280892848968506e-01
1.328589767217636108e-01
-6.952574104070663452e-02
1.654420793056488037e-01
-1.283187326043844223e-02
-3.686659969389438629e-03
5.226964876055717468e-02
-1.133245006203651428e-01
9.224264323711395264e-02
1.486880928277969360e-01
-7.499123364686965942e-02
-6.247837562114000320e-03
7.645975053310394287e-02
1.735389530658721924e-01
-9.108618833124637604e-03
-1.202617064118385315e-01
-1.561658382415771484e-01
-1.205200180411338806e-01
1.702563017606735229e-01
2.057541906833648682e-01
-9.459036588668823242e-02
1.370055228471755981e-01
-1.643022596836090088e-01
-1.146770417690277100e-01
1.983959972858428955e-01
-1.923799216747283936e-01
2.117438986897468567e-02
6.779367104172706604e-03
-6.928537040948867798e-02
8.110546320676803589e-02
-1.781959086656570435e-01
-6.489170342683792114e-02
5.244775116443634033e-02
1.373984217643737793e-01
1.451612077653408051e-02
1.488846093416213989e-01
3.933173790574073792e-02
-9.619554132223129272e-02
-8.243269473314285278e-02
-5.148073658347129822e-02
-8.776692301034927368e-02
1.051968410611152649e-01
-1.143805123865604401e-02
-2.069330960512161255e-02
-3.917721658945083618e-02
-1.135806664824485779e-01
-2.202757000923156738e-01
1.821801662445068359e-01
-2.343912273645401001e-01
2.424981892108917236e-01
-1.399765014648437500e-01
-5.692446604371070862e-02
7.939896732568740845e-02
-4.328004643321037292e-02
-1.671764999628067017e-02
2.113920450210571289e-01
1.406670361757278442e-01
-4.634157568216323853e-02
-1.490239351987838745e-01
2.176916301250457764e-01
-1.376610994338989258e-01
1.657457202672958374e-01
1.676158607006072998e-01
7.720880676060914993e-03
-1.510561406612396240e-01
-1.128097325563430786e-01
2.331254333257675171e-01
3.277971148490905762e-01
-7.120546698570251465e-02
3.732798248529434204e-02
8.228198438882827759e-02
1.717022955417633057e-01
-1.166235357522964478e-01
3.822131827473640442e-02
1.406581252813339233e-01
2.133857458829879761e-02
-1.487877126783132553e-02
1.871387213468551636e-01
-2.070423662662506104e-01
-1.407969295978546143e-01
4.543889686465263367e-02
-1.068311110138893127e-01
-3.059256263077259064e-02
1.514892131090164185e-01
-1.278134286403656006e-01
2.826700359582901001e-02
-3.428703919053077698e-02
-7.588461786508560181e-02
2.151909917593002319e-01
7.127745449542999268e-02
-1.147853955626487732e-01
1.564299315214157104e-01
2.620837688446044922e-01
1.878639459609985352e-01
-3.844539821147918701e-02
1.744510978460311890e-01
7.878675311803817749e-02
-6.203225627541542053e-02
-1.524181291460990906e-02
-3.465777263045310974e-02
1.845570504665374756e-01
-1.823980659246444702e-01
5.638494715094566345e-02
5.868347361683845520e-02
-6.833218783140182495e-02
-3.035875968635082245e-02
9.050058573484420776e-02
1.000252366065979004e-01
-1.838202476501464844e-01
1.552905440330505371e-01
1.042278781533241272e-01
4.876567050814628601e-02
8.494642376899719238e-02
5.938293877989053726e-03
6.334456056356430054e-02
-1.183506920933723450e-01
1.493219137191772461e-01
-2.245245687663555145e-02
1.276821792125701904e-01
2.361082732677459717e-01
-1.130163595080375671e-01
1.104537993669509888e-01
-4.314412921667098999e-02
1.657834947109222412e-01
1.642304360866546631e-01
-1.753904670476913452e-02
-3.498831391334533691e-02
2.027345597743988037e-01
-8.733374625444412231e-02
6.001183763146400452e-02
1.621004343032836914e-01
1.184487938880920410e-01
1.495095938444137573e-01
1.795370876789093018e-01
-6.790997087955474854e-02
1.710308939218521118e-01
5.628704652190208435e-02
-1.255566328763961792e-01
2.098779678344726562e-01
1.589008420705795288e-01
1.954431533813476562e-01
-1.451330035924911499e-01
-4.341099038720130920e-02
-1.960660070180892944e-01
1.761510074138641357e-01
-1.310604959726333618e-01
-1.511053442955017090e-01
-1.900078505277633667e-01
-1.669052690267562866e-01
-1.750061213970184326e-01
7.166151702404022217e-02
-1.876360736787319183e-02
8.864878863096237183e-02
-1.190766841173171997e-01
-2.755396068096160889e-03
-2.288607321679592133e-02
1.408290714025497437e-01
1.755976825952529907e-01
-1.382063180208206177e-01
-2.110471576452255249e-02
8.398751169443130493e-02
1.443497538566589355e-01
1.509402990341186523e-01
-1.282017976045608521e-01
2.484349906444549561e-01
-6.084901466965675354e-02
3.890119865536689758e-02
-3.804166615009307861e-02
1.680073589086532593e-01
7.156447321176528931e-02
2.051040530204772949e-01
8.523706346750259399e-02
-4.187740013003349304e-02
2.581110037863254547e-02
1.325194537639617920e-01
9.381419420242309570e-02
-2.852117270231246948e-02
-1.580871045589447021e-01
-1.526998132467269897e-01
-1.548352390527725220e-01
1.747274100780487061e-01
9.718286246061325073e-02
-1.723439246416091919e-01
-1.419590972363948822e-02
3.546105232089757919e-03
-1.848835349082946777e-01
1.116154491901397705e-01
-3.409568965435028076e-02
1.652341452427208424e-03
1.423041373491287231e-01
1.750363409519195557e-01
2.957965992391109467e-02
1.483032703399658203e-01
5.542713776230812073e-02
1.409956663846969604e-01
9.350980818271636963e-02
1.857875473797321320e-02
-2.618176303803920746e-02
1.935875974595546722e-02
-1.914103627204895020e-01
5.780638754367828369e-02
3.307804465293884277e-02
4.051413387060165405e-02
6.134941428899765015e-02
-2.808775007724761963e-01
-7.375626266002655029e-02
-1.643048375844955444e-01
9.585591405630111694e-02
-1.438721567392349243e-01
-1.198117658495903015e-01
4.117720946669578552e-02
-2.247911095619201660e-01
1.309007555246353149e-01
-1.923120319843292236e-01
-1.360610127449035645e-01
-3.442373871803283691e-02
1.811884902417659760e-02
-4.238553717732429504e-02
6.647601723670959473e-02
-2.289173454046249390e-01
-9.576256386935710907e-03
2.103845924139022827e-01
-1.382831037044525146e-01
2.125480026006698608e-01
9.220891632139682770e-03
9.588188678026199341e-02
3.961305320262908936e-02
-4.398576542735099792e-02
2.254756391048431396e-01
-8.131458610296249390e-02
-1.700461059808731079e-01
1.730640232563018799e-01
1.995156854391098022e-01
6.948735564947128296e-02
6.930608302354812622e-02
9.768269211053848267e-02
-1.316800862550735474e-01
-2.336098253726959229e-02
-1.250902861356735229e-01
-1.414208952337503433e-02
5.821571871638298035e-02
-1.456380486488342285e-01
6.206948682665824890e-02
-1.150618568062782288e-01
-9.789933264255523682e-02
2.664170041680335999e-02
-2.120236679911613464e-02
1.701147407293319702e-01
1.784914731979370117e-01
3.912402316927909851e-02
-6.877658516168594360e-02
8.080798387527465820e-02
6.164724379777908325e-02
1.198518276214599609e-01
-4.396519809961318970e-02
1.374596506357192993e-01
2.092207670211791992e-01
1.302511692047119141e-01
7.494682818651199341e-02
9.527898579835891724e-02
-5.021042376756668091e-02
-8.277924358844757080e-02
9.928256273269653320e-02
-1.110285595059394836e-01
-1.866018623113632202e-01
-1.275984663516283035e-02
3.097330778837203979e-02
6.634063273668289185e-02
1.245812326669692993e-02
2.002737298607826233e-02
-4.752240329980850220e-02
-1.741947233676910400e-01
-4.472573846578598022e-02
-2.502155601978302002e-01
1.082716658711433411e-01
1.990648657083511353e-01
1.167821437120437622e-01
-7.343535870313644409e-02
-1.279167383909225464e-01
-2.350988388061523438e-01
-9.058968722820281982e-02
-6.289420276880264282e-02
-2.510796785354614258e-01
1.481866836547851562e-01
1.707178950309753418e-01
3.370583802461624146e-02
8.475016057491302490e-02
4.095778614282608032e-02
1.632885485887527466e-01
-7.293771952390670776e-02
1.692013293504714966e-01
-1.111561506986618042e-01
1.506146136671304703e-02
2.688533626496791840e-02
2.995783835649490356e-02
1.206874698400497437e-01
-2.879150584340095520e-02
1.078372225165367126e-01
-7.090228050947189331e-02
1.217987760901451111e-01
7.490576803684234619e-02
-3.953022137284278870e-02
-1.688427105545997620e-02
-1.055222079157829285e-01
1.608316749334335327e-01
-1.578669548034667969e-01
7.193050533533096313e-02
1.115093454718589783e-01
-7.371456921100616455e-02
-8.257363736629486084e-02
1.705259382724761963e-01
2.109275162220001221e-01
-5.585884675383567810e-02
1.017312854528427124e-01
-1.060525327920913696e-01
-1.181350648403167725e-01
-1.368129104375839233e-01
2.334869801998138428e-01
8.750653266906738281e-02
-1.893073469400405884e-01
1.559052467346191406e-01
1.659984141588211060e-01
1.553210914134979248e-01
2.564445734024047852e-01
1.176869720220565796e-01
-1.145847365260124207e-01
2.207849025726318359e-01
-1.515024602413177490e-01
-7.678986340761184692e-02
-1.705204844474792480e-01
1.118729859590530396e-01
1.699494123458862305e-01
-2.092088311910629272e-01
-1.290153563022613525e-01
-1.953763812780380249e-01
-1.101813241839408875e-01
-2.081397026777267456e-01
-7.051712274551391602e-02
1.113788783550262451e-01
-1.047232598066329956e-01
1.938294768333435059e-01
1.289802044630050659e-01
-9.823580831289291382e-02
-4.504705965518951416e-02
-1.040842533111572266e-01
8.278181403875350952e-02
8.249917626380920410e-02
-2.227795124053955078e-01
-5.616920068860054016e-02
2.447547465562820435e-01
-1.580418497323989868e-01
-3.582767024636268616e-02
-9.555997699499130249e-02
1.863468065857887268e-02
-1.530280709266662598e-01
-3.136641904711723328e-02
1.171437054872512817e-01
4.864777997136116028e-02
-1.077590212225914001e-01
8.699997514486312866e-02
1.315972357988357544e-01
6.859140843152999878e-02
2.164555490016937256e-01
2.785564772784709930e-02
4.678495228290557861e-02
-1.182289421558380127e-01
1.061490699648857117e-01
-2.039432078599929810e-01
-1.401525922119617462e-02
-1.124122962355613708e-01
4.758391901850700378e-02
-3.573504462838172913e-02
8.580269664525985718e-02
-8.488752692937850952e-02
-4.919019713997840881e-02
4.545227810740470886e-02
-1.296972483396530151e-01
-2.118749171495437622e-01
5.147991329431533813e-02
6.720681488513946533e-02
-5.734944343566894531e-02
8.081480115652084351e-02
-2.161408215761184692e-01
-1.423013955354690552e-02
-1.938474625349044800e-01
6.019823998212814331e-02
-5.606518685817718506e-02
-1.169836446642875671e-01
2.835383266210556030e-02
-3.726438060402870178e-02
-1.173091232776641846e-01
1.271663308143615723e-01
-2.330288290977478027e-01
-1.815841943025588989e-01
-1.098664477467536926e-02
1.804289966821670532e-01
1.325425654649734497e-01
1.000749245285987854e-01
-6.800366938114166260e-02
1.390683799982070923e-01
4.866613447666168213e-02
6.719570606946945190e-02
1.097660586237907410e-01
-2.097946703433990479e-01
-4.285046458244323730e-02
1.328970044851303101e-01
1.898195296525955200e-01
-1.946536153554916382e-01
1.127639710903167725e-01
-1.975104361772537231e-01
-7.100331783294677734e-02
-1.877354979515075684e-01
-1.242834627628326416e-01
-6.636586040258407593e-02
-2.281973361968994141e-01
-1.412931680679321289e-01
-3.649619221687316895e-02
-1.041189804673194885e-01
-1.429751515388488770e-01
-1.572311818599700928e-01
2.064636945724487305e-01
-2.132337689399719238e-01
1.379525214433670044e-01
-9.141620248556137085e-02
6.913797557353973389e-02
-8.415489457547664642e-03
-6.303839385509490967e-02
1.697210818529129028e-01
5.074360594153404236e-02
1.441069841384887695e-01
1.428593099117279053e-01
-2.061204761266708374e-01
-1.203303262591362000e-01
-1.751418113708496094e-01
-1.892088651657104492e-01
-4.283962398767471313e-02
6.629242748022079468e-02
2.006461471319198608e-01
4.967716708779335022e-02
1.164355725049972534e-01
1.104332283139228821e-01
-6.612206250429153442e-02
1.376419663429260254e-01
1.562684029340744019e-01
-2.206841707229614258e-01
1.760232448577880859e-02
