1.698535084724426270e-01
-1.377305686473846436e-01
1.883468180894851685e-01
9.345112740993499756e-02
1.038577109575271606e-01
-2.574388980865478516e-01
2.776265740394592285e-01
1.890904619358479977e-03
-7.651311904191970825e-02
-6.552600860595703125e-02
-2.740192227065563202e-02
8.044060319662094116e-02
-8.438248932361602783e-02
1.123326048254966736e-01
-1.751435101032257080e-01
2.253103405237197876e-01
-2.343124002218246460e-01
1.826451122760772705e-01
-2.204887270927429199e-01
-2.790532112121582031e-01
1.563366800546646118e-01
1.204216405749320984e-01
-1.483900249004364014e-01
2.123776078224182129e-01
2.647353410720825195e-01
2.033417224884033203e-01
-7.525771856307983398e-02
4.332664608955383301e-02
-2.110658586025238037e-01
1.049204170703887939e-01
1.499424725770950317e-01
1.866105943918228149e-01
-1.038990616798400879e-01
-1.504707783460617065e-01
-1.977673321962356567e-01
-1.893594115972518921e-01
2.419020980596542358e-02
-2.495216131210327148e-01
2.578514628112316132e-02
-3.010659515857696533e-01
-1.132944673299789429e-01
1.153481826186180115e-01
1.231479123234748840e-01
-8.203525096178054810e-02
1.549924314022064209e-01
2.772671282291412354e-01
-1.223558746278285980e-02
-2.814214862883090973e-02
1.976464539766311646e-01
-6.451128982007503510e-03
-8.280437439680099487e-03
1.381309330463409424e-01
3.531497344374656677e-02
2.390544116497039795e-01
8.832320570945739746e-02
-1.729069650173187256e-01
1.879836618900299072e-02
5.914874002337455750e-02
9.318891912698745728e-02
9.013650566339492798e-02
-1.356382071971893311e-01
1.485911160707473755e-01
1.717928238213062286e-02
-1.270539164543151855e-01
6.774862855672836304e-02
1.578453928232192993e-01
-3.399770855903625488e-01
-1.018670387566089630e-02
-1.198895052075386047e-01
1.695711761713027954e-01
1.025196015834808350e-01
1.354285888373851776e-02
-1.871228069067001343e-01
2.478904277086257935e-01
-3.492376417852938175e-04
-2.279789745807647705e-02
6.483222544193267822e-02
3.397896885871887207e-01
-1.026497930288314819e-01
2.246145904064178467e-01
-9.384641051292419434e-02
-9.649653732776641846e-02
1.159124821424484253e-01
-8.889371156692504883e-02
-3.121812939643859863e-01
-1.054327264428138733e-01
-1.510059386491775513e-01
-4.899964481592178345e-02
2.654385864734649658e-01
5.364970117807388306e-02
1.938685774803161621e-01
1.505685597658157349e-01
-4.883613064885139465e-02
1.495611071586608887e-01
6.735642254352569580e-02
2.126931548118591309e-01
-1.358604524284601212e-03
-2.557292878627777100e-01
4.516568034887313843e-02
-1.745468527078628540e-01
-1.235515549778938293e-01
1.371909230947494507e-01
-2.855523228645324707e-01
1.303287148475646973e-01
2.032707035541534424e-01
1.684187948703765869e-01
-6.961590051651000977e-02
-1.207496374845504761e-01
-4.926364123821258545e-02
2.168861925601959229e-01
-7.316661626100540161e-02
1.094896271824836731e-01
-1.587879806756973267e-01
3.374579846858978271e-01
2.327081263065338135e-01
-1.188856884837150574e-01
6.373509764671325684e-02
-1.024840623140335083e-01
-1.955591738224029541e-01
4.099368525203317404e-04
-6.535995006561279297e-02
-9.645263850688934326e-02
1.280992180109024048e-01
-1.585473567247390747e-01
-8.015071041882038116e-03
-4.119345918297767639e-02
-1.760356277227401733e-01
-2.550771534442901611e-01
2.264831513166427612e-01
3.081160783767700195e-01
1.102844849228858948e-01
-2.813337929546833038e-02
7.212761789560317993e-02
4.566038399934768677e-02
-3.047867119312286377e-01
-1.100822240114212036e-01
1.594139039516448975e-01
1.667558550834655762e-01
-9.223838895559310913e-02
-2.047729641199111938e-01
1.543938964605331421e-01
-1.079587712883949280e-01
-2.489376515150070190e-01
1.296661049127578735e-01
1.539356857538223267e-01
-3.609720617532730103e-02
-2.542524039745330811e-01
1.555573940277099609e-01
-1.869139224290847778e-01
-7.010079920291900635e-02
2.437393218278884888e-01
1.338762342929840088e-01
3.012282848358154297e-01
-4.446262866258621216e-02
1.850050240755081177e-01
-3.083309158682823181e-02
4.932738468050956726e-02
4.416751861572265625e-02
1.101020872592926025e-01
-6.979190558195114136e-02
-7.213204354047775269e-02
7.458097487688064575e-02
1.792288571596145630e-01
-1.823685169219970703e-01
-8.315713703632354736e-02
1.345673948526382446e-01
2.832067310810089111e-01
-1.057423744350671768e-02
-2.066650539636611938e-01
2.458913326263427734e-01
-2.432469464838504791e-02
-5.080834403634071350e-02
-1.361625790596008301e-01
1.150033399462699890e-01
2.927064336836338043e-02
8.432091772556304932e-02
1.744680702686309814e-01
1.310119181871414185e-01
1.037593111395835876e-01
9.510789811611175537e-02
-1.083186566829681396e-01
-8.335147798061370850e-02
-1.489440351724624634e-01
2.211548537015914917e-01
-1.506008300930261612e-02
6.861953437328338623e-02
7.303794473409652710e-02
-1.959756016731262207e-01
2.315141558647155762e-01
2.347994130104780197e-03
1.035438030958175659e-01
9.747803211212158203e-03
2.461697906255722046e-01
2.710798755288124084e-03
1.014233753085136414e-01
2.042904943227767944e-01
-1.273358017206192017e-01
8.251726627349853516e-02
1.303697675466537476e-01
-1.781502664089202881e-01
-1.511310786008834839e-01
7.978759706020355225e-02
-1.241006851196289062e-01
3.109436295926570892e-02
7.586807757616043091e-02
-1.503344029188156128e-01
9.029213339090347290e-02
2.246589660644531250e-01
-8.084431290626525879e-02
-5.344806239008903503e-03
-2.081428021192550659e-01
-1.509897857904434204e-01
7.266291230916976929e-02
-7.893338054418563843e-02
1.753721535205841064e-01
6.165336072444915771e-02
8.587228506803512573e-02
1.014382243156433105e-01
2.330149114131927490e-01
-1.066387668251991272e-01
-2.544090747833251953e-01
-1.233685314655303955e-01
-7.242946326732635498e-02
-1.456837207078933716e-01
-9.458196908235549927e-02
-5.617820844054222107e-02
1.627714484930038452e-01
1.386498957872390747e-01
1.903840154409408569e-01
-1.086677387356758118e-01
6.247744709253311157e-02
-1.029065772891044617e-01
2.153621464967727661e-01
-1.412995159626007080e-01
1.079091336578130722e-02
7.448656111955642700e-02
1.008314117789268494e-01
2.455918192863464355e-01
2.374905794858932495e-01
-6.058085709810256958e-02
-1.641574800014495850e-01
-1.094871461391448975e-01
-1.114318668842315674e-01
6.475154310464859009e-02
-2.791012404486536980e-03
-5.065419524908065796e-02
1.343323290348052979e-01
-2.379084974527359009e-01
-1.996652632951736450e-01
-2.127302065491676331e-02
1.304133087396621704e-01
-1.222331002354621887e-01
2.148949205875396729e-01
3.701741993427276611e-02
2.285671234130859375e-01
-1.152597181499004364e-02
1.108954846858978271e-01
2.735757231712341309e-01
-3.078342378139495850e-01
2.025334835052490234e-01
-2.316128909587860107e-01
-5.251612886786460876e-02
-1.685431599617004395e-01
2.091856449842453003e-01
-1.881719529628753662e-01
2.729034423828125000e-02
9.333548136055469513e-03
8.821243792772293091e-02
4.770411923527717590e-02
1.232253685593605042e-01
6.826131045818328857e-02
2.753593027591705322e-01
-1.882247999310493469e-02
-1.411472111940383911e-01
-4.160730540752410889e-02
-7.693427056074142456e-02
-2.378412464167922735e-04
9.525984525680541992e-02
-1.668154895305633545e-01
1.320797353982925415e-01
-1.574910432100296021e-01
-1.608653962612152100e-01
-9.677810221910476685e-02
9.377435594797134399e-02
4.509963840246200562e-02
2.297596037387847900e-01
-1.509657353162765503e-01
-4.650517180562019348e-02
1.570922583341598511e-01
-1.237659081816673279e-01
1.725418120622634888e-01
-1.378616988658905029e-01
2.582208812236785889e-01
-2.747307159006595612e-02
7.520896196365356445e-02
-1.191170364618301392e-01
-1.145133599638938904e-01
-2.335913777351379395e-01
-1.208981573581695557e-01
5.100061371922492981e-02
5.121517181396484375e-02
-6.482797116041183472e-02
-1.736355945467948914e-02
4.139952734112739563e-02
-6.522689480334520340e-03
-3.767694160342216492e-02
-1.153846606612205505e-01
1.623148471117019653e-01
1.154988259077072144e-02
-2.046581506729125977e-01
-1.590713858604431152e-01
-1.314938515424728394e-01
-2.403682768344879150e-01
-9.894181787967681885e-02
-7.747642695903778076e-03
-6.269246339797973633e-03
3.828271105885505676e-02
-1.371757872402667999e-02
-7.544832676649093628e-02
-1.351193804293870926e-02
-1.256464272737503052e-01
1.939292699098587036e-01
1.431973576545715332e-01
2.475177198648452759e-01
-7.715084403753280640e-02
-1.023582220077514648e-01
-2.702337503433227539e-01
-1.385351121425628662e-01
1.988128423690795898e-01
-6.780323386192321777e-02
3.049997612833976746e-02
-1.404334902763366699e-01
5.303052812814712524e-02
2.028929442167282104e-01
2.199294865131378174e-01
1.256289184093475342e-01
9.925750643014907837e-02
8.608681708574295044e-02
-3.404104709625244141e-02
1.360953301191329956e-01
1.392321195453405380e-02
7.423511892557144165e-02
1.514263898134231567e-01
-5.878605693578720093e-02
2.521092295646667480e-01
2.229059636592864990e-01
-5.906784906983375549e-02
9.915946982800960541e-03
1.961512565612792969e-01
2.790280282497406006e-01
-1.787970513105392456e-01
-2.127407491207122803e-01
-3.074689954519271851e-02
2.331428378820419312e-01
2.122184783220291138e-01
7.198778539896011353e-02
2.013158751651644707e-03
-1.463432610034942627e-02
1.443717032670974731e-01
1.137476563453674316e-01
2.409267425537109375e-01
1.533753424882888794e-01
9.609811007976531982e-02
-2.920039892196655273e-01
-1.410884559154510498e-01
1.411886960268020630e-01
-5.466917902231216431e-02
6.787170469760894775e-02
7.926555350422859192e-03
1.446936726570129395e-01
2.355524748563766479e-01
5.067165195941925049e-02
9.096723049879074097e-02
3.000070340931415558e-03
-9.046205133199691772e-02
-1.262611001729965210e-01
2.673166990280151367e-02
-2.272087335586547852e-01
-1.620679348707199097e-02
1.446041762828826904e-01
2.111441791057586670e-01
1.806395649909973145e-01
2.244878858327865601e-01
-1.480063199996948242e-01
-1.820369064807891846e-01
2.321370318531990051e-02
-5.435287952423095703e-02
-1.681595742702484131e-01
-1.478207707405090332e-01
-2.123634330928325653e-02
7.498514023609459400e-04
8.256691694259643555e-02
-7.536137104034423828e-02
3.767510503530502319e-02
-2.531961537897586823e-02
1.703724414110183716e-01
2.283543646335601807e-01
-9.394035488367080688e-02
-1.492445766925811768e-01
4.949668794870376587e-02
-8.826310187578201294e-02
-1.991440951824188232e-01
-1.193428412079811096e-02
-2.532225549221038818e-01
-2.315210551023483276e-01
2.179614752531051636e-01
-1.406536549329757690e-01
1.816046983003616333e-02
4.941186308860778809e-02
2.306998707354068756e-03
-2.255031764507293701e-01
-2.378165721893310547e-01
-8.218437433242797852e-02
-2.196189612150192261e-01
-1.572057455778121948e-01
-1.918715133797377348e-05
8.640453964471817017e-02
1.246049553155899048e-01
1.589140594005584717e-01
-2.424061596393585205e-01
1.158464401960372925e-01
-6.538949161767959595e-02
1.308803558349609375e-01
-6.945952773094177246e-02
-1.129439622163772583e-01
-1.616488397121429443e-02
6.985913962125778198e-03
1.614960283041000366e-01
-1.103298664093017578e-01
-2.618371248245239258e-01
-3.395231813192367554e-02
1.574427634477615356e-01
-1.985301375389099121e-01
-1.189428046345710754e-01
-3.011439368128776550e-02
1.992268562316894531e-01
-7.919449359178543091e-02
-1.650702059268951416e-01
1.147389784455299377e-01
1.246958523988723755e-01
-1.354288607835769653e-01
-2.601003460586071014e-02
1.114135887473821640e-02
1.753786057233810425e-01
-1.296081691980361938e-01
1.920189112424850464e-01
9.717050194740295410e-02
-7.614026963710784912e-02
-1.823814362287521362e-01
7.504425942897796631e-02
-2.214212566614151001e-01
8.358375728130340576e-02
-3.614154458045959473e-02
-1.024010255932807922e-01
-1.040489748120307922e-01
1.168354749679565430e-01
4.705755040049552917e-02
1.653178930282592773e-01
9.234175086021423340e-02
1.884900629520416260e-01
1.101248189806938171e-01
-1.362562924623489380e-01
9.113258868455886841e-02
6.699571758508682251e-02
-1.254553906619548798e-02
-6.283750385046005249e-02
-4.796101525425910950e-02
-1.652761846780776978e-01
1.558180619031190872e-02
2.257548421621322632e-01
9.735948592424392700e-02
2.700249254703521729e-01
-8.547228574752807617e-02
-1.750109642744064331e-01
-2.569067478179931641e-01
-6.158556416630744934e-02
1.467993259429931641e-01
1.662303954362869263e-01
-2.795520722866058350e-01
5.894829519093036652e-04
-1.843335777521133423e-01
1.134209111332893372e-01
-8.440689742565155029e-02
-2.372984886169433594e-01
-1.748913228511810303e-01
5.166678503155708313e-02
-3.151426315307617188e-01
-2.560817897319793701e-01
-4.706865176558494568e-02
-3.950014337897300720e-02
2.346260547637939453e-01
6.828965246677398682e-02
-2.844339981675148010e-02
-1.133390963077545166e-01
-2.513841912150382996e-02
1.886919289827346802e-01
1.245250850915908813e-01
-2.532370686531066895e-01
3.995879739522933960e-02
1.794726550579071045e-01
-3.731278330087661743e-02
1.724804639816284180e-01
3.058471716940402985e-02
-2.346995472908020020e-01
1.317875534296035767e-01
2.021145373582839966e-01
3.355266898870468140e-02
1.957475095987319946e-01
-1.372214406728744507e-01
-5.295783281326293945e-02
-2.814185023307800293e-01
1.870602071285247803e-01
-1.844622939825057983e-02
7.373788952827453613e-02
-2.014356106519699097e-01
9.449327737092971802e-02
-3.524867072701454163e-02
5.665780231356620789e-02
-2.046746909618377686e-01
8.889709413051605225e-02
-2.189604565501213074e-02
-2.032988965511322021e-01
1.918332725763320923e-01
1.723538935184478760e-01
2.031784802675247192e-01
-2.764416635036468506e-01
-1.763422489166259766e-01
-1.985275745391845703e-02
-4.631083458662033081e-02
-2.484107017517089844e-01
-1.353815644979476929e-01
-1.363276094198226929e-01
1.646725982427597046e-01
1.894776523113250732e-01
4.327106475830078125e-02
5.865515768527984619e-02
2.034873068332672119e-01
9.187148511409759521e-02
1.657435297966003418e-01
1.391257047653198242e-01
1.508837640285491943e-01
-5.741304159164428711e-02
1.386768668889999390e-01
-2.446729093790054321e-01
-1.077731922268867493e-01
-1.395149677991867065e-01
-3.787485137581825256e-02
-2.595894634723663330e-01
-2.065781354904174805e-01
4.763943701982498169e-02
2.467402070760726929e-01
-1.645790487527847290e-01
1.364952623844146729e-01
2.164840847253799438e-01
-1.364399790763854980e-01
5.769706889986991882e-02
1.936868876218795776e-01
-1.411142796277999878e-01
-1.725680083036422729e-01
1.988632977008819580e-01
1.292098760604858398e-01
1.203340962529182434e-01
-1.057147979736328125e-01
1.827264577150344849e-01
-1.888970583677291870e-01
1.801671832799911499e-01
-1.670590937137603760e-01
1.225934997200965881e-01
4.085525870323181152e-02
-4.291919991374015808e-02
-2.351709902286529541e-01
2.107323855161666870e-01
-4.736429080367088318e-02
2.013972252607345581e-01
-7.712044566869735718e-02
-1.565419435501098633e-01
-3.048015199601650238e-02
-1.300215423107147217e-01
7.249959558248519897e-02
2.107844203710556030e-01
-1.114528849720954895e-01
-2.177713066339492798e-01
-3.331960365176200867e-02
1.220718026161193848e-01
-2.266204953193664551e-01
-1.961734592914581299e-01
1.455444693565368652e-01
5.783050134778022766e-02
-7.869888842105865479e-02
-7.717382628470659256e-03
-7.089025527238845825e-02
1.673175841569900513e-01
-9.005669504404067993e-02
4.309305921196937561e-02
-6.809405982494354248e-02
1.137682422995567322e-01
1.845620870590209961e-01
-1.238869875669479370e-01
-8.429135382175445557e-02
2.813959121704101562e-02
-1.169443577527999878e-01
1.311873495578765869e-01
7.617288827896118164e-02
-3.411556594073772430e-03
-1.417971104383468628e-01
-1.454705372452735901e-02
-2.794016618281602859e-03
-1.635227203369140625e-01
-5.331874638795852661e-02
1.509564835578203201e-02
-7.894875109195709229e-02
-3.992187604308128357e-02
1.002134475857019424e-02
-5.401729606091976166e-03
-8.548197150230407715e-02
9.891554713249206543e-02
1.313390731811523438e-01
2.535114586353302002e-01
-1.758297830820083618e-01
-1.780630201101303101e-01
-1.233616843819618225e-01
-7.421910762786865234e-02
2.260225266218185425e-01
1.020881980657577515e-01
1.177263334393501282e-01
1.820806115865707397e-01
4.126478731632232666e-02
-1.491715312004089355e-01
-3.841826925054192543e-03
1.042208373546600342e-01
-1.599928438663482666e-01
1.194421201944351196e-01
1.192438881844282150e-02
6.868638098239898682e-02
-9.958773851394653320e-02
-8.463024348020553589e-02
5.419318005442619324e-02
-2.597824633121490479e-01
-7.245429605245590210e-02
6.790617108345031738e-02
1.065901964902877808e-01
-6.899229437112808228e-02
2.741737365722656250e-01
2.281024158000946045e-01
-1.045028492808341980e-01
-1.179413776844739914e-02
1.454003155231475830e-01
-6.590389460325241089e-02
2.925942838191986084e-01
2.735657095909118652e-01
6.060608476400375366e-02
2.249045222997665405e-01
-1.432554274797439575e-01
-2.326669692993164062e-01
-2.457752674818038940e-01
2.645305991172790527e-01
9.660822153091430664e-02
-9.198716282844543457e-02
-2.051512151956558228e-01
2.504287660121917725e-02
-1.715631037950515747e-01
-2.053422182798385620e-01
6.120648607611656189e-02
2.499138191342353821e-02
-2.211069911718368530e-01
-7.090812921524047852e-02
2.060402780771255493e-01
3.976651933044195175e-03
2.182178944349288940e-01
-2.259300202131271362e-01
2.040923982858657837e-01
1.221355348825454712e-01
5.439262837171554565e-02
2.891788184642791748e-01
7.240573316812515259e-02
-1.128451451659202576e-01
1.268905699253082275e-01
-1.459272801876068115e-01
3.413744503632187843e-03
1.123736873269081116e-01
-1.631198525428771973e-01
-2.697101831436157227e-01
-3.187501430511474609e-02
1.546838730573654175e-01
2.228812873363494873e-01
9.108562953770160675e-03
-3.249091655015945435e-02
5.235950462520122528e-03
-2.458995133638381958e-01
-2.080160230398178101e-01
1.331422328948974609e-01
1.216694489121437073e-01
-2.187819927930831909e-01
9.414231404662132263e-03
1.469556689262390137e-01
-1.300722956657409668e-01
5.655766651034355164e-02
9.886766225099563599e-02
-1.216327622532844543e-01
2.605726718902587891e-01
-7.345198839902877808e-02
-2.339113205671310425e-01
1.007523685693740845e-01
2.536914050579071045e-01
-4.765479266643524170e-02
2.287608832120895386e-01
-2.323076315224170685e-02
1.615399569272994995e-01
3.031586483120918274e-02
5.240349099040031433e-02
1.497600525617599487e-01
2.645359374582767487e-02
2.141938544809818268e-02
1.148840188980102539e-01
-1.420714408159255981e-01
-4.104570671916007996e-02
-5.067915096879005432e-02
1.120330020785331726e-01
1.090660244226455688e-01
1.806988269090652466e-01
-7.596081495285034180e-02
-1.654082536697387695e-01
1.998972445726394653e-01
4.957420285791158676e-03
-7.806583307683467865e-03
1.086719408631324768e-01
-1.677424013614654541e-01
1.505963951349258423e-01
-4.438907280564308167e-02
2.545305192470550537e-01
1.224686503410339355e-01
2.468397021293640137e-01
-1.553186476230621338e-01
1.670655459165573120e-01
3.750265389680862427e-02
-1.980575770139694214e-01
1.052447929978370667e-01
1.511877924203872681e-01
2.983815371990203857e-01
6.644609570503234863e-02
-4.616172239184379578e-02
2.474767267704010010e-01
2.205128073692321777e-01
4.780576378107070923e-02
5.331455916166305542e-02
1.177325099706649780e-01
-1.435342729091644287e-01
-1.912194937467575073e-01
1.694601029157638550e-01
-2.639891207218170166e-02
-2.750892341136932373e-01
-1.133410818874835968e-02
-1.413237303495407104e-01
-2.265833467245101929e-01
2.872596681118011475e-01
-2.215835638344287872e-02
-1.642498224973678589e-01
-1.315759569406509399e-01
-1.193290427327156067e-01
-7.835278660058975220e-02
2.226328700780868530e-01
-8.947312831878662109e-02
2.175316810607910156e-01
6.936562806367874146e-02
4.108660295605659485e-02
-1.561086624860763550e-01
1.278356164693832397e-01
2.805128395557403564e-01
-1.537591516971588135e-01
-2.248594351112842560e-02
7.443451881408691406e-02
-1.896250993013381958e-02
-1.577918417751789093e-02
-7.071688026189804077e-02
-9.307818859815597534e-02
2.181404083967208862e-01
1.368087679147720337e-01
-1.022644154727458954e-02
9.717482328414916992e-02
-2.410869598388671875e-01
6.735354661941528320e-02
1.966190487146377563e-01
-2.543335221707820892e-02
2.009099423885345459e-01
-3.005162775516510010e-01
1.151614785194396973e-01
-1.445218622684478760e-01
-6.639104336500167847e-02
-1.589710265398025513e-01
-1.088627800345420837e-01
1.397388875484466553e-01
1.304664760828018188e-01
-9.469610452651977539e-02
-7.372289896011352539e-02
2.256794832646846771e-02
-9.752137959003448486e-02
1.510571241378784180e-01
-2.868461050093173981e-02
-1.531249098479747772e-02
-2.761022746562957764e-01
-1.325013488531112671e-01
-2.671336382627487183e-02
-2.984352707862854004e-01
-1.629189848899841309e-01
-7.052449882030487061e-02
-1.878044754266738892e-01
-1.225502416491508484e-01
2.722700685262680054e-02
-2.450403422117233276e-01
1.719617992639541626e-01
2.365952879190444946e-01
3.753126040101051331e-02
-2.631828188896179199e-01
2.548433467745780945e-02
-1.088088005781173706e-01
1.960950717329978943e-02
-2.150582224130630493e-01
1.397301405668258667e-01
-2.951622903347015381e-01
6.328907608985900879e-02
-1.290020626038312912e-02
-1.699441671371459961e-01
-1.863607168197631836e-01
-2.438557595014572144e-01
-2.946179509162902832e-01
-2.636666595935821533e-01
-1.586545854806900024e-01
1.666857451200485229e-01
-2.103481739759445190e-01
-2.109608985483646393e-02
-1.434136182069778442e-01
-1.212153360247612000e-01
-1.482854485511779785e-01
6.547409296035766602e-02
1.437252759933471680e-02
1.169695630669593811e-01
-1.584663987159729004e-01
-1.527438014745712280e-01
-1.068619862198829651e-01
1.505693495273590088e-01
2.745575644075870514e-02
2.096199393272399902e-01
-9.266945719718933105e-02
9.184802323579788208e-02
-2.077657580375671387e-01
1.861526966094970703e-01
-2.307435125112533569e-01
1.080560684204101562e-01
1.553146541118621826e-01
7.852837443351745605e-02
-2.893761992454528809e-01
-4.930048435926437378e-02
2.940896898508071899e-02
7.722921669483184814e-03
-1.574018001556396484e-01
2.345045804977416992e-01
2.484279870986938477e-01
-7.617659866809844971e-02
-1.096853539347648621e-01
-5.551796779036521912e-02
1.737487465143203735e-01
1.637280285358428955e-01
-9.420260787010192871e-03
-2.419809065759181976e-02
3.991680964827537537e-02
-5.886695906519889832e-02
-1.594421863555908203e-01
-1.946070939302444458e-01
-1.090513020753860474e-01
-2.942963540554046631e-01
5.268353968858718872e-02
-1.746677607297897339e-01
-8.301991224288940430e-02
-1.767886281013488770e-01
1.118397414684295654e-01
-2.394409179687500000e-01
1.712968796491622925e-01
-1.338020563125610352e-01
-3.019174793735146523e-03
-6.015771999955177307e-02
1.173765435814857483e-01
2.387553453445434570e-01
7.938713580369949341e-02
-1.050829328596591949e-02
-2.100267559289932251e-01
-1.302748471498489380e-01
-1.510655879974365234e-01
1.381765305995941162e-01
2.526747295632958412e-03
1.065376773476600647e-01
3.714897856116294861e-02
1.088320612907409668e-01
1.487479209899902344e-01
1.987939327955245972e-01
1.594422385096549988e-02
-1.004463806748390198e-01
-4.607274383306503296e-02
-1.374186128377914429e-01
1.159253865480422974e-01
-9.231322258710861206e-02
3.101017475128173828e-01
2.568683326244354248e-01
9.287352114915847778e-02
-1.911273598670959473e-01
2.001170255243778229e-02
-1.063649058341979980e-01
1.992833018302917480e-01
5.733896046876907349e-03
2.036832831799983978e-02
-1.642690896987915039e-01
2.736317217350006104e-01
6.607649475336074829e-02
-1.885461360216140747e-01
1.355536282062530518e-01
-1.505462676286697388e-01
9.995666146278381348e-02
2.859022617340087891e-01
1.020752713084220886e-01
-4.717126861214637756e-02
-9.956366568803787231e-02
2.301585227251052856e-01
2.738674171268939972e-02
5.810488760471343994e-02
1.755375862121582031e-01
-1.626499593257904053e-01
2.187196612358093262e-01
1.328095346689224243e-01
1.512042880058288574e-01
-1.473860591650009155e-01
-1.530778110027313232e-01
1.679682135581970215e-01
-1.523302402347326279e-02
2.471803575754165649e-01
-1.363077014684677124e-01
-1.111346110701560974e-01
-1.141539216041564941e-01
-5.767413228750228882e-02
-4.324146360158920288e-02
5.025719478726387024e-02
-1.005649790167808533e-01
-1.721212863922119141e-01
-6.406518816947937012e-02
-1.047693938016891479e-01
1.912398487329483032e-01
2.079542912542819977e-02
9.399982541799545288e-02
2.127539068460464478e-01
-1.051667630672454834e-01
-3.539802879095077515e-02
4.313866049051284790e-02
-1.186222657561302185e-01
-2.819608449935913086e-01
9.830338507890701294e-02
-7.466284185647964478e-02
-1.400686055421829224e-01
1.376194655895233154e-01
-2.077634930610656738e-01
-2.078163772821426392e-01
-2.508316934108734131e-01
5.206538829952478409e-03
1.557726506143808365e-02
1.235368400812149048e-01
1.781119257211685181e-01
-2.086766958236694336e-01
-4.398335143923759460e-02
-8.325652778148651123e-02
3.552206233143806458e-02
-1.323250494897365570e-02
-2.005711495876312256e-01
2.453386485576629639e-01
1.976318210363388062e-01
-1.141304597258567810e-01
1.082035377621650696e-01
2.104608714580535889e-02
7.501128315925598145e-02
-2.116305381059646606e-01
1.900999099016189575e-01
-2.024445980787277222e-01
1.248280927538871765e-01
-1.205985546112060547e-01
-2.549724876880645752e-01
1.741659045219421387e-01
1.066788211464881897e-01
1.016648933291435242e-01
-2.211142629384994507e-01
-1.792577207088470459e-01
-2.450617104768753052e-01
-3.214804828166961670e-02
1.036234050989151001e-01
-7.166727632284164429e-02
-8.489286527037620544e-03
1.646077781915664673e-01
-1.585893929004669189e-01
1.329522430896759033e-01
-5.129392258822917938e-03
1.889316588640213013e-01
-6.210886687040328979e-02
-1.901516467332839966e-01
-5.505721271038055420e-02
7.772571593523025513e-02
-2.164403796195983887e-01
6.321433931589126587e-02
-3.322064131498336792e-02
-3.197902068495750427e-02
3.120605647563934326e-02
-1.885087639093399048e-01
-2.000022865831851959e-02
-8.801325410604476929e-02
-8.202496916055679321e-02
-7.117068767547607422e-02
-1.325625777244567871e-01
-5.003868043422698975e-02
-2.148790508508682251e-01
-1.338301748037338257e-01
-7.765393704175949097e-02
8.438137173652648926e-02
1.244415491819381714e-01
-1.475117504596710205e-01
-1.141156405210494995e-01
-1.810764223337173462e-01
5.985422059893608093e-02
-3.119445219635963440e-02
7.312896847724914551e-02
1.028241664171218872e-01
-1.276911497116088867e-01
-9.181026369333267212e-02
1.462506651878356934e-01
-2.818185836076736450e-02
-2.066630274057388306e-01
1.410267055034637451e-01
-1.836305409669876099e-01
1.497369557619094849e-01
2.311182022094726562e-01
-2.006599009037017822e-01
-7.706189155578613281e-02
8.291313052177429199e-02
-1.968187987804412842e-01
2.803125977516174316e-01
4.160245880484580994e-02
-1.682769656181335449e-01
1.909520030021667480e-01
1.038212329149246216e-01
8.694661408662796021e-02
4.399972781538963318e-02
-4.317819699645042419e-02
1.868807896971702576e-02
2.532807365059852600e-02
2.108017504215240479e-01
4.023491963744163513e-02
1.483276337385177612e-01
-4.202262684702873230e-02
-2.100563645362854004e-01
1.121677532792091370e-01
-8.806793391704559326e-02
-1.138357296586036682e-01
-1.334026604890823364e-01
-1.073820590972900391e-01
8.777047693729400635e-02
-9.753386490046977997e-03
5.689517036080360413e-02
8.567599579691886902e-03
4.867573082447052002e-02
1.238877326250076294e-01
-7.657431066036224365e-02
-1.844445466995239258e-01
7.116916775703430176e-02
1.363704800605773926e-01
1.111430302262306213e-01
-1.145743653178215027e-01
7.974264770746231079e-02
1.259412895888090134e-02
8.606562763452529907e-02
5.995362065732479095e-03
-1.418623700737953186e-02
2.206516861915588379e-01
1.570969074964523315e-01
-1.155892983078956604e-01
-2.223067581653594971e-01
2.145182043313980103e-01
1.041195541620254517e-01
-9.317702054977416992e-02
-4.425586387515068054e-02
7.150277495384216309e-02
-4.372844845056533813e-02
1.362250298261642456e-01
-1.883977651596069336e-02
9.016511589288711548e-02
-7.088075857609510422e-03
-1.617356836795806885e-01
-1.820936650037765503e-01
-6.569995731115341187e-02
2.023370265960693359e-01
1.105324476957321167e-01
-2.524690926074981689e-01
1.926791518926620483e-01
5.058676749467849731e-02
1.580197960138320923e-01
1.215842068195343018e-01
-3.025670945644378662e-01
-1.670133024454116821e-01
-6.660609692335128784e-02
-2.893689572811126709e-01
2.555362284183502197e-01
1.342836320400238037e-01
-8.408796042203903198e-02
1.857845187187194824e-01
1.297037303447723389e-01
1.219937857240438461e-02
1.424315869808197021e-01
4.018912464380264282e-02
1.789496392011642456e-01
-4.787717759609222412e-02
-2.009757310152053833e-01
-7.579755038022994995e-02
-4.918184876441955566e-02
1.511390414088964462e-02
-2.520669102668762207e-01
1.420474946498870850e-01
-2.391777783632278442e-01
2.448504231870174408e-02
2.203319519758224487e-01
-1.548146307468414307e-01
8.756446838378906250e-02
-5.815359577536582947e-02
1.121660321950912476e-02
4.745808988809585571e-02
2.307594567537307739e-01
7.117208838462829590e-02
5.251980945467948914e-02
-1.727713644504547119e-01
-2.052728235721588135e-01
-1.119579598307609558e-01
7.180234882980585098e-03
1.298288069665431976e-02
2.924457192420959473e-01
1.060656160116195679e-01
-3.038181066513061523e-01
2.376175224781036377e-01
8.382800966501235962e-02
-2.177066057920455933e-01
-2.609088085591793060e-02
2.803904116153717041e-01
-7.702323794364929199e-02
-2.895805798470973969e-02
-1.074037626385688782e-01
-6.851838529109954834e-02
-1.589973568916320801e-01
4.472683370113372803e-02
-1.596195101737976074e-01
1.634405404329299927e-01
1.297915130853652954e-01
2.119881212711334229e-01
-1.453856378793716431e-01
-8.297663927078247070e-02
-4.653077200055122375e-02
-3.404572904109954834e-01
1.673786044120788574e-01
-1.983860582113265991e-01
7.507511973381042480e-02
2.027541548013687134e-01
1.492719203233718872e-01
3.401634842157363892e-02
-8.738780021667480469e-02
3.881531581282615662e-02
6.868311017751693726e-02
-2.343555837869644165e-01
6.362441927194595337e-02
7.792392373085021973e-02
2.698558196425437927e-02
2.045504450798034668e-01
5.833075847476720810e-03
-2.840291857719421387e-01
-2.067862153053283691e-01
-9.664399921894073486e-02
-2.851326763629913330e-01
2.279877960681915283e-01
-1.570846885442733765e-02
8.573873341083526611e-02
1.756792962551116943e-01
-2.887040376663208008e-01
-6.622853875160217285e-02
-1.280293017625808716e-01
-7.134653627872467041e-02
-1.194283813238143921e-01
1.576210260391235352e-01
-5.421986803412437439e-02
2.161596342921257019e-02
1.768744178116321564e-02
-6.640159338712692261e-02
1.225316449999809265e-01
-1.352880448102951050e-01
7.192285358905792236e-02
1.602389216423034668e-01
1.004844307899475098e-01
1.828250288963317871e-01
1.582298427820205688e-01
-2.539414167404174805e-01
-2.395462542772293091e-01
-3.367295861244201660e-02
6.546378135681152344e-02
-8.502549491822719574e-03
-1.942286491394042969e-01
-1.642408082261681557e-03
6.029768660664558411e-02
5.783272534608840942e-02
-1.280377805233001709e-01
2.300590723752975464e-01
1.629466265439987183e-01
1.009065285325050354e-01
4.977742210030555725e-03
-8.037292957305908203e-02
4.361191764473915100e-02
2.294437028467655182e-02
1.970490962266921997e-01
-1.531932055950164795e-01
-1.898898035287857056e-01
-4.033019393682479858e-02
1.241231411695480347e-01
-2.602498829364776611e-01
6.625533849000930786e-02
-2.179257869720458984e-01
1.263108402490615845e-01
9.579752571880817413e-03
3.814802691340446472e-02
-2.618034183979034424e-01
-2.696072682738304138e-02
-2.207312732934951782e-01
-1.165810301899909973e-01
1.184365898370742798e-01
6.367259472608566284e-02
1.161236539483070374e-01
1.908434778451919556e-01
-1.985248029232025146e-01
-8.363617956638336182e-02
1.223317831754684448e-01
-1.323945820331573486e-01
-2.555367648601531982e-01
-4.917727783322334290e-02
-8.879646658897399902e-02
1.188629046082496643e-01
-2.242348045110702515e-01
3.415013849735260010e-01
2.553674578666687012e-01
1.048951894044876099e-01
-1.530202925205230713e-01
1.168580353260040283e-01
1.002369169145822525e-02
1.512222439050674438e-01
2.195950746536254883e-01
-1.932030618190765381e-01
-1.709565520286560059e-01
5.977163836359977722e-02
1.718133836984634399e-01
-9.942468255758285522e-02
4.722211137413978577e-02
1.248031333088874817e-01
-7.785650342702865601e-02
-2.210383117198944092e-01
-1.085193753242492676e-01
1.024217978119850159e-01
5.968777835369110107e-02
-1.741298288106918335e-02
-1.057763397693634033e-01
1.796068996191024780e-01
-7.365750521421432495e-02
-2.473351545631885529e-02
1.774242371320724487e-01
-1.214756295084953308e-01
5.664882808923721313e-02
-2.236428111791610718e-01
1.339028179645538330e-01
1.451293826103210449e-01
1.737122386693954468e-01
1.875124871730804443e-01
1.981026679277420044e-01
-6.759621948003768921e-02
2.310347259044647217e-01
4.327348899096250534e-03
-1.744982004165649414e-01
-9.050408005714416504e-02
-1.748299002647399902e-01
-4.420942068099975586e-02
2.302370816469192505e-01
-1.391625404357910156e-01
1.112177893519401550e-01
1.604740917682647705e-01
-1.970470547676086426e-01
-1.376991719007492065e-01
-8.757534623146057129e-02
-1.236593648791313171e-01
-2.270071357488632202e-01
6.805721670389175415e-03
-9.226545691490173340e-02
2.191827297210693359e-01
8.689538389444351196e-02
-1.898918449878692627e-01
-1.941453367471694946e-01
-1.864717155694961548e-01
-2.637596428394317627e-01
-1.542930155992507935e-01
-1.423692796379327774e-02
1.034905835986137390e-01
1.057651489973068237e-01
-9.926375746726989746e-02
2.177406698465347290e-01
1.917548291385173798e-02
8.056824654340744019e-02
-8.510711789131164551e-02
-7.475048303604125977e-02
-2.535157650709152222e-02
-5.319697037339210510e-02
3.240255638957023621e-02
4.630309529602527618e-03
-1.898749023675918579e-01
4.380542784929275513e-02
5.352640897035598755e-02
7.479803264141082764e-02
2.988565713167190552e-02
2.881446182727813721e-01
-2.267065495252609253e-01
-2.405671179294586182e-01
8.105321973562240601e-02
1.786669194698333740e-01
1.672856956720352173e-01
-1.639871448278427124e-01
-7.009111344814300537e-02
-2.166515588760375977e-02
-1.570155620574951172e-01
-1.840491443872451782e-01
-1.759496629238128662e-01
8.175569772720336914e-02
8.164785057306289673e-02
-8.071745932102203369e-02
2.747351229190826416e-01
1.960268057882785797e-02
-7.321287691593170166e-02
-2.166076600551605225e-01
-2.600221335887908936e-01
2.120875380933284760e-02
-2.084585279226303101e-01
-1.950732022523880005e-01
3.546188771724700928e-01
-1.882916241884231567e-01
-9.221196919679641724e-02
-5.762952193617820740e-02
-1.088827997446060181e-01
2.142563462257385254e-01
9.906618297100067139e-02
-1.715807616710662842e-01
-2.025043964385986328e-01
-1.049961745738983154e-01
2.190995588898658752e-02
1.058479398488998413e-01
-1.348367333412170410e-01
1.442334800958633423e-01
1.700744777917861938e-01
-1.219884455204010010e-01
-1.925116963684558868e-02
2.816761098802089691e-02
2.004899978637695312e-01
7.466738671064376831e-02
-1.230258345603942871e-01
3.884735703468322754e-02
8.126803487539291382e-02
1.041570529341697693e-01
-5.361223593354225159e-02
-3.074782714247703552e-02
-5.478987842798233032e-02
-4.857976734638214111e-02
-7.736932486295700073e-02
-2.867181226611137390e-02
1.968611031770706177e-01
6.495268642902374268e-02
2.642133645713329315e-02
1.004533469676971436e-01
2.901165746152400970e-02
-1.696791797876358032e-01
4.386609420180320740e-02
-1.221913620829582214e-01
-1.269628852605819702e-01
-5.682658776640892029e-02
1.393735855817794800e-01
1.083436459302902222e-01
-1.357441693544387817e-01
7.031528651714324951e-02
-6.050664186477661133e-02
-7.762050628662109375e-02
-1.425385624170303345e-01
2.291455566883087158e-01
3.482798114418983459e-02
-1.421991586685180664e-01
-1.860831081867218018e-01
1.428569555282592773e-01
8.927855640649795532e-02
8.519276231527328491e-02
-1.481718271970748901e-01
-3.438199684023857117e-02
-1.392945274710655212e-02
1.961660236120223999e-01
-1.092503517866134644e-01
-1.398126035928726196e-01
5.358722060918807983e-02
1.069717034697532654e-01
1.545700281858444214e-01
-5.700282007455825806e-02
1.560533344745635986e-01
1.065465584397315979e-01
-8.680371195077896118e-02
-2.107890248298645020e-01
-5.746383592486381531e-02
7.460920512676239014e-02
1.809732317924499512e-01
-6.566250324249267578e-02
-1.366599798202514648e-01
3.259399160742759705e-02
-5.945655703544616699e-02
-5.906317383050918579e-02
3.079811930656433105e-01
-1.153028607368469238e-01
-1.493750810623168945e-01
1.687825769186019897e-01
-1.862850971519947052e-02
1.448911875486373901e-01
-1.887179762125015259e-01
4.558493569493293762e-02
-1.247448474168777466e-01
8.304551988840103149e-02
2.018038779497146606e-01
5.262945964932441711e-02
1.147475242614746094e-01
-1.908732801675796509e-01
3.371433168649673462e-02
4.790769517421722412e-02
2.340104281902313232e-01
-2.300547808408737183e-01
-1.483430117368698120e-01
6.197942048311233521e-02
1.944749951362609863e-01
-1.315842717885971069e-01
-8.840768784284591675e-02
5.866509303450584412e-02
-1.952744275331497192e-01
-9.177698940038681030e-02
-3.529408946633338928e-02
-4.347871616482734680e-02
-8.072078227996826172e-03
1.548243612051010132e-01
1.040518581867218018e-01
-1.708651036024093628e-01
-1.371369361877441406e-01
1.737030148506164551e-01
3.517585620284080505e-02
1.770344972610473633e-01
1.618800759315490723e-01
-1.488135904073715210e-01
-3.543840255588293076e-03
2.277394756674766541e-02
5.152258649468421936e-02
1.084505841135978699e-01
-1.322537064552307129e-01
1.671308279037475586e-01
2.685717865824699402e-02
2.579512894153594971e-01
1.492630392313003540e-01
7.085612416267395020e-02
-5.338624492287635803e-02
1.122533343732357025e-02
9.874150156974792480e-02
1.294153928756713867e-01
1.598203033208847046e-01
1.161626949906349182e-01
-1.012549847364425659e-01
2.935515716671943665e-02
5.336124822497367859e-02
-1.131447926163673401e-01
-1.984642148017883301e-01
-3.535507991909980774e-02
-7.453937083482742310e-02
1.573651134967803955e-01
-1.346384584903717041e-01
8.143939077854156494e-02
1.617193520069122314e-01
3.957049921154975891e-02
5.220472440123558044e-02
-6.991742551326751709e-02
-4.316091537475585938e-02
4.126879945397377014e-02
1.583385616540908813e-01
1.469559222459793091e-01
-9.293615072965621948e-02
-1.303407549858093262e-01
-5.285214260220527649e-02
-8.884665369987487793e-02
4.371307790279388428e-02
1.608089804649353027e-01
-1.382112056016921997e-01
-1.203441917896270752e-01
-1.484317332506179810e-01
6.678511947393417358e-02
-7.313447445631027222e-02
-1.254003345966339111e-01
-1.422977298498153687e-01
2.113070040941238403e-01
-8.370289206504821777e-02
-1.387649327516555786e-01
1.433055996894836426e-01
1.300274580717086792e-01
1.157099828124046326e-01
1.355909109115600586e-01
1.061960384249687195e-01
-1.864615231752395630e-01
-1.261155307292938232e-01
-1.189545616507530212e-01
2.372392639517784119e-02
-2.301200777292251587e-01
1.248361989855766296e-01
2.450061738491058350e-01
1.514164060354232788e-01
1.953771263360977173e-01
-1.023243218660354614e-01
-1.799958944320678711e-01
1.281574834138154984e-02
3.647541860118508339e-03
1.290469467639923096e-01
-2.820874452590942383e-01
2.738688290119171143e-01
-7.783830165863037109e-02
-1.391380131244659424e-01
-1.096981316804885864e-01
-1.816884055733680725e-02
-4.178208857774734497e-02
-9.910114854574203491e-02
1.689095981419086456e-02
1.944886147975921631e-01
-7.896199077367782593e-02
-7.971744239330291748e-02
4.870965704321861267e-02
-6.993017345666885376e-02
-8.580289781093597412e-02
-1.698664762079715729e-02
1.925044320523738861e-02
4.704744368791580200e-02
3.264993056654930115e-02
-7.020069658756256104e-02
-1.976241823285818100e-03
2.027024887502193451e-02
-6.053064018487930298e-02
2.074568867683410645e-01
-2.025917172431945801e-01
-5.313771963119506836e-02
-1.592800617218017578e-01
-8.036287128925323486e-02
1.183054074645042419e-01
2.196685820817947388e-01
-2.168170548975467682e-02
1.375472247600555420e-01
1.355926841497421265e-01
-3.452470526099205017e-02
2.321671992540359497e-01
2.279997989535331726e-02
1.523107886314392090e-01
4.385193437337875366e-02
-6.761002540588378906e-02
1.467185467481613159e-01
-8.725827187299728394e-02
1.162691693753004074e-02
2.565664052963256836e-01
5.265757068991661072e-02
-1.668428182601928711e-01
-9.390784800052642822e-02
-2.164432704448699951e-01
-9.282246977090835571e-02
9.405384212732315063e-02
1.091257557272911072e-01
1.860528886318206787e-01
-1.878393441438674927e-01
-1.727103739976882935e-01
9.831569623202085495e-04
-2.961224317550659180e-02
-1.606272310018539429e-01
1.879571229219436646e-01
-6.453461199998855591e-02
-5.907804518938064575e-02
5.841104686260223389e-02
-6.472945958375930786e-02
-2.022083848714828491e-01
6.408218294382095337e-02
5.677725002169609070e-02
-1.866772174835205078e-01
-9.098552912473678589e-02
6.762503832578659058e-02
3.201884403824806213e-02
2.133216410875320435e-01
2.194197326898574829e-01
7.061752676963806152e-02
-1.757250279188156128e-01
-1.464101076126098633e-01
1.757595315575599670e-02
-1.128420308232307434e-01
5.565795116126537323e-03
5.197828635573387146e-02
2.369335889816284180e-01
-1.809681206941604614e-01
8.033329248428344727e-02
1.708092391490936279e-01
1.870839297771453857e-01
-3.284691274166107178e-02
6.423145532608032227e-02
-1.660484075546264648e-01
-8.267316967248916626e-02
7.264559715986251831e-02
-1.485083699226379395e-01
-2.517800033092498779e-02
-3.585159406065940857e-02
-1.378076821565628052e-01
-1.355415135622024536e-01
6.682487577199935913e-02
-9.547410905361175537e-02
-1.443038284778594971e-01
-6.972715258598327637e-02
1.819233968853950500e-02
-1.515516825020313263e-02
2.093296200037002563e-01
6.916505843400955200e-02
4.809100180864334106e-03
2.046029455959796906e-02
4.847039002925157547e-03
-1.537473201751708984e-01
1.403274983167648315e-01
-2.089518308639526367e-02
-1.506028622388839722e-01
1.243257299065589905e-01
2.474237047135829926e-02
-5.782830342650413513e-02
1.010777652263641357e-01
-9.004017710685729980e-02
9.924524277448654175e-02
-9.748315066099166870e-02
1.259940266609191895e-01
-2.310953140258789062e-01
4.343729466199874878e-02
-9.382861852645874023e-02
-4.198295250535011292e-02
-8.709076046943664551e-02
-1.590687409043312073e-02
-9.861662983894348145e-02
2.368987165391445160e-02
9.132730215787887573e-02
-5.890553817152976990e-02
-1.629378199577331543e-01
-1.235580220818519592e-01
2.407368272542953491e-01
-1.378592550754547119e-01
1.616804674267768860e-02
-7.505916804075241089e-02
-4.041106253862380981e-02
2.484719455242156982e-02
-7.210501469671726227e-03
-2.069472223520278931e-01
7.272954285144805908e-02
1.626032292842864990e-01
2.649386227130889893e-01
-1.905207782983779907e-01
1.629116684198379517e-01
1.594161540269851685e-01
-3.657302260398864746e-02
-5.398737639188766479e-02
-1.656458526849746704e-02
1.288204044103622437e-01
-1.781845241785049438e-01
1.421122550964355469e-01
1.087718158960342407e-01
1.755955666303634644e-01
2.972704172134399414e-01
-1.818179190158843994e-01
-3.128025531768798828e-01
9.278891235589981079e-02
1.014842465519905090e-01
-1.074741929769515991e-01
6.200802698731422424e-02
-2.856171429157257080e-01
4.716359451413154602e-02
1.543695181608200073e-01
1.710352450609207153e-01
-2.652398347854614258e-01
2.057576626539230347e-01
1.357282400131225586e-01
1.755964756011962891e-02
-1.842599809169769287e-01
-7.396477460861206055e-02
-7.524137198925018311e-02
9.317081421613693237e-02
-1.258824020624160767e-01
1.404862757772207260e-02
1.260362118482589722e-01
2.219913154840469360e-01
1.782024204730987549e-01
1.396587938070297241e-01
-1.051879376173019409e-01
-7.994323968887329102e-02
-2.078791148960590363e-02
-4.880122840404510498e-02
-6.701444089412689209e-02
1.703161597251892090e-01
-1.967294700443744659e-02
-5.942679196596145630e-02
9.644737094640731812e-02
2.798899114131927490e-01
9.226659685373306274e-02
9.473794698715209961e-02
4.124502837657928467e-02
-4.771067574620246887e-02
3.465953096747398376e-02
-4.490508884191513062e-02
2.510283589363098145e-01
5.455586314201354980e-02
-1.511426568031311035e-01
7.035841047763824463e-02
1.801050305366516113e-01
-1.225633695721626282e-01
-1.723616421222686768e-01
1.595714837312698364e-01
9.408327192068099976e-02
2.164089232683181763e-01
-2.409051060676574707e-01
1.106469854712486267e-01
-3.322117626667022705e-01
-1.387517154216766357e-01
-5.887979269027709961e-02
9.281988441944122314e-02
-2.811950072646141052e-02
1.121094077825546265e-01
-8.251732587814331055e-02
1.893537342548370361e-01
8.362288773059844971e-02
6.556152552366256714e-02
-5.792542919516563416e-02
-1.166946068406105042e-01
-2.132125943899154663e-02
-3.551771864295005798e-02
-1.964243054389953613e-01
-9.683203697204589844e-02
-2.373358048498630524e-02
-8.628608286380767822e-02
-3.861771896481513977e-03
-1.687890291213989258e-02
1.480414811521768570e-02
8.126867562532424927e-02
4.254060238599777222e-02
8.781169354915618896e-02
7.081868499517440796e-02
1.236340478062629700e-01
4.106713924556970596e-03
-2.100507020950317383e-01
1.899154335260391235e-01
-1.067176088690757751e-01
2.290057204663753510e-02
1.414409726858139038e-01
1.222284417599439621e-02
-9.293492883443832397e-02
-8.975517004728317261e-02
-1.018511876463890076e-02
-9.412342309951782227e-02
1.012070104479789734e-01
1.230388879776000977e-01
-1.802596896886825562e-01
-5.641078203916549683e-02
5.392442271113395691e-02
-2.733690291643142700e-02
1.420276910066604614e-01
7.850988209247589111e-02
-8.441861718893051147e-02
7.982653379440307617e-02
1.254657097160816193e-02
7.299047708511352539e-02
1.479166001081466675e-01
-9.160386770963668823e-02
1.212558522820472717e-01
2.200650610029697418e-02
-7.962155155837535858e-03
-8.491050451993942261e-02
6.757293362170457840e-03
1.878695189952850342e-01
-8.351255208253860474e-02
1.014234796166419983e-01
-4.371498897671699524e-02
7.763581722974777222e-02
-1.592503786087036133e-01
-1.675115972757339478e-01
-1.331906616687774658e-01
2.460228651762008667e-02
-7.172089815139770508e-02
1.043691039085388184e-01
3.061103820800781250e-02
-3.840626031160354614e-02
-1.267581731081008911e-01
8.486945927143096924e-02
2.273595929145812988e-01
-8.457496762275695801e-02
9.066709876060485840e-02
1.936448961496353149e-01
1.372057665139436722e-02
-7.202564924955368042e-02
2.777033019810914993e-03
-1.088314950466156006e-01
1.054166108369827271e-01
-1.621432751417160034e-01
1.617392301559448242e-01
-1.574241816997528076e-01
1.155062764883041382e-01
1.789497286081314087e-01
-1.249584779143333435e-01
4.071382433176040649e-02
7.976396381855010986e-02
-2.028638571500778198e-01
-1.248074099421501160e-01
-9.027230739593505859e-02
-3.343672305345535278e-02
-1.305853277444839478e-01
3.647287189960479736e-02
1.042456999421119690e-01
9.825909137725830078e-02
-9.318796545267105103e-02
-3.471946716308593750e-02
-1.631640940904617310e-01
-1.472460776567459106e-01
1.963765174150466919e-02
1.740947365760803223e-01
1.940863579511642456e-01
-2.032862454652786255e-01
1.247520148754119873e-01
-8.984310179948806763e-02
-1.362848430871963501e-01
-3.970218822360038757e-02
1.295787841081619263e-01
4.187002405524253845e-02
5.878807231783866882e-02
-9.608081728219985962e-02
2.220839634537696838e-02
-8.751012384891510010e-02
1.904244273900985718e-01
1.794340312480926514e-01
-2.023801803588867188e-01
1.540886461734771729e-01
-6.073427945375442505e-02
-9.781078249216079712e-02
-1.743135899305343628e-01
-9.374799579381942749e-02
-1.335408687591552734e-01
1.288457363843917847e-01
7.320971786975860596e-02
-1.244860067963600159e-01
4.628781974315643311e-02
1.259120106697082520e-01
-1.621441692113876343e-01
3.139314800500869751e-02
7.558550685644149780e-02
-1.126931309700012207e-01
-3.097991459071636200e-02
-6.306103616952896118e-02
-3.016958199441432953e-02
9.315162897109985352e-02
4.544964060187339783e-03
5.422946065664291382e-02
3.095696493983268738e-02
-1.520842462778091431e-01
-1.594856753945350647e-02
1.110627129673957825e-01
-2.177971005439758301e-01
-1.398891657590866089e-01
1.075201630592346191e-01
2.305593788623809814e-01
1.929441392421722412e-01
-2.310453951358795166e-01
-5.520998686552047729e-02
-1.173984706401824951e-01
1.667597703635692596e-02
6.422417610883712769e-02
8.499808609485626221e-02
1.637422591447830200e-01
1.886834204196929932e-01
-7.109108567237854004e-02
1.323259323835372925e-01
-1.446508765220642090e-01
-1.391615569591522217e-01
-1.082275062799453735e-01
1.496091485023498535e-01
-1.795281022787094116e-01
-2.105026543140411377e-01
1.850664317607879639e-01
1.125121712684631348e-01
-2.045399695634841919e-01
2.129227668046951294e-01
1.284102350473403931e-01
1.642256230115890503e-01
6.764364987611770630e-02
1.331990659236907959e-01
-5.446430668234825134e-02
1.209701821208000183e-01
-2.049241662025451660e-01
6.862626224756240845e-02
1.366909593343734741e-01
4.787345975637435913e-02
-1.128194928169250488e-01
2.548942565917968750e-01
-1.460237503051757812e-01
8.661546558141708374e-02
-1.619722396135330200e-01
1.127788275480270386e-01
-8.650223910808563232e-02
7.502608746290206909e-02
-1.074077263474464417e-01
4.839857295155525208e-02
1.597828269004821777e-01
-1.890245229005813599e-01
-1.720172017812728882e-01
8.823253959417343140e-02
-1.449069380760192871e-01
-5.952931568026542664e-02
1.590840369462966919e-01
8.811003714799880981e-02
-1.400461047887802124e-01
3.631153330206871033e-02
8.049157261848449707e-02
-2.156275063753128052e-01
2.812808379530906677e-03
-3.480056673288345337e-02
1.294782012701034546e-01
8.452950976788997650e-03
-8.380276709794998169e-02
-4.268903657793998718e-02
-7.788478583097457886e-02
1.943340152502059937e-01
2.690658159554004669e-02
1.280231401324272156e-02
1.860814392566680908e-01
8.612235635519027710e-02
3.730718046426773071e-02
-1.283229291439056396e-01
1.453276872634887695e-01
-3.467515110969543457e-02
-1.125286594033241272e-01
-5.218954756855964661e-02
-1.334383338689804077e-01
1.272828429937362671e-01
9.546884894371032715e-02
-9.283957630395889282e-02
-6.409543752670288086e-02
-4.343417286872863770e-02
-1.318811476230621338e-01
7.035636901855468750e-02
-2.137111872434616089e-02
8.530440926551818848e-02
5.013924464583396912e-02
-1.072075441479682922e-01
-5.572748184204101562e-02
1.812887489795684814e-01
2.167894840240478516e-01
1.118748486042022705e-01
-8.397627621889114380e-02
1.508122775703668594e-02
2.026239931583404541e-01
1.351294964551925659e-01
-1.191858872771263123e-01
-4.551003128290176392e-02
4.954976961016654968e-03
3.833359479904174805e-02
-1.563902944326400757e-01
-8.498109132051467896e-02
1.532590761780738831e-02
2.151006609201431274e-01
9.247922897338867188e-02
-1.172101348638534546e-01
1.068309992551803589e-01
-7.019762881100177765e-03
9.379447996616363525e-02
9.232383221387863159e-02
2.145646214485168457e-01
9.313605725765228271e-02
4.720520600676536560e-02
-1.685993820428848267e-01
-5.402280366979539394e-04
-6.682615727186203003e-02
-2.036492340266704559e-02
8.927670866250991821e-02
3.698570281267166138e-02
-1.316603422164916992e-01
-1.508698463439941406e-01
1.329540163278579712e-01
3.965556249022483826e-02
1.088567972183227539e-01
-4.717939347028732300e-02
-6.244510412216186523e-02
-3.850511461496353149e-02
-4.606243222951889038e-02
8.082753419876098633e-02
-1.068698987364768982e-01
9.986950457096099854e-02
-2.956519834697246552e-02
-6.102344766259193420e-02
5.746383219957351685e-02
6.021150574088096619e-02
1.171275414526462555e-02
4.963418841361999512e-02
-5.478338897228240967e-02
-4.707157239317893982e-02
-1.834844984114170074e-02
8.396833389997482300e-02
1.113815046846866608e-02
2.079561538994312286e-02
-6.402518600225448608e-02
-7.248877733945846558e-02
-4.109085723757743835e-02
1.357051134109497070e-01
-1.111120283603668213e-01
-1.051077060401439667e-02
-1.577804833650588989e-01
-8.464222773909568787e-03
-6.211609020829200745e-02
1.796729490160942078e-02
1.092801392078399658e-01
3.220896050333976746e-02
-6.391672417521476746e-03
1.518549919128417969e-01
-1.294486671686172485e-01
-1.389053463935852051e-01
7.527232915163040161e-02
5.467760935425758362e-02
-1.967581510543823242e-01
1.891388744115829468e-01
-7.449001073837280273e-02
1.962572187185287476e-01
-4.653138294816017151e-02
2.422554939985275269e-01
-1.127267256379127502e-01
1.411777455359697342e-02
-6.714788079261779785e-02
1.520011872053146362e-01
2.693793363869190216e-02
-1.605405844748020172e-02
1.585436612367630005e-01
-3.717102482914924622e-02
-1.475526541471481323e-01
-1.211244687438011169e-01
-2.212498150765895844e-02
-2.167790085077285767e-01
8.362396061420440674e-02
-2.150307744741439819e-01
-3.380772098898887634e-02
-4.416845738887786865e-02
1.957286149263381958e-01
-3.480055928230285645e-02
-1.897040903568267822e-01
-1.223355457186698914e-01
5.293017998337745667e-02
5.396608263254165649e-03
6.670648604631423950e-02
1.424359977245330811e-01
4.734371602535247803e-02
-6.343010067939758301e-02
-1.584700345993041992e-01
1.248442530632019043e-01
1.570823192596435547e-01
1.225498020648956299e-01
-9.994295984506607056e-02
-1.318670343607664108e-03
1.067437455058097839e-01
1.727896742522716522e-04
8.728675544261932373e-02
-7.521746307611465454e-02
-9.238290041685104370e-02
-2.658011158928275108e-03
-1.076852157711982727e-01
-1.308058053255081177e-01
-1.207831725478172302e-01
3.644891828298568726e-02
-3.692284598946571350e-02
-1.495669186115264893e-01
1.406088769435882568e-01
1.254142522811889648e-01
-1.624171137809753418e-01
1.987078636884689331e-01
-4.316153004765510559e-02
-2.454034537076950073e-01
7.473116368055343628e-02
-1.580510735511779785e-01
-7.752228528261184692e-02
8.710691332817077637e-02
-1.116965934634208679e-01
1.368109434843063354e-01
-1.623281389474868774e-01
-1.612698435783386230e-01
4.897674545645713806e-02
-2.090812176465988159e-01
-1.101760193705558777e-01
7.423581182956695557e-02
-1.623439136892557144e-03
-1.410842686891555786e-01
-3.851924464106559753e-02
-1.222116425633430481e-01
1.118969172239303589e-01
9.205041080713272095e-02
1.240986436605453491e-01
5.747841298580169678e-02
4.187969490885734558e-03
-1.402620673179626465e-01
-3.645009920001029968e-02
-1.977628655731678009e-02
-1.070798560976982117e-01
-1.853876709938049316e-01
-1.397118568420410156e-01
1.488891988992691040e-01
1.057036221027374268e-02
7.275639474391937256e-02
3.197827562689781189e-02
-2.862115390598773956e-02
8.750515989959239960e-03
8.213821053504943848e-02
-2.020463049411773682e-01
7.937738299369812012e-02
-3.903099894523620605e-02
-1.117835715413093567e-01
1.139456629753112793e-01
-2.251056721433997154e-03
-1.090909019112586975e-01
3.637881949543952942e-02
3.446904569864273071e-02
1.352776587009429932e-01
-7.801719754934310913e-02
6.450027227401733398e-02
-1.867364794015884399e-01
-2.054534405469894409e-01
-2.108288742601871490e-02
5.789133161306381226e-02
8.318842947483062744e-02
1.561888214200735092e-02
-7.727038115262985229e-02
1.254473626613616943e-02
-1.765993982553482056e-01
1.204527020454406738e-01
-5.296155437827110291e-02
-9.353588521480560303e-02
-6.065982952713966370e-02
3.069465607404708862e-02
-8.210014551877975464e-02
1.087963394820690155e-02
-6.827050447463989258e-02
9.978714585304260254e-02
1.434409022331237793e-01
-5.677140504121780396e-02
-1.253240704536437988e-01
4.969886317849159241e-02
3.720072284340858459e-02
-1.261305361986160278e-01
7.771398872137069702e-02
-7.053515315055847168e-02
4.893026500940322876e-02
1.174797713756561279e-01
-1.478506326675415039e-01
-6.298538297414779663e-03
5.962688475847244263e-02
-1.132075935602188110e-01
3.435259684920310974e-02
-7.680716365575790405e-02
-2.277592383325099945e-02
1.177754718810319901e-03
3.780889138579368591e-02
2.048948779702186584e-02
4.938650410622358322e-03
1.190731152892112732e-01
-1.229664757847785950e-01
-7.113727927207946777e-02
-1.599748432636260986e-01
7.012617588043212891e-02
1.160875260829925537e-01
8.068115264177322388e-02
1.991026103496551514e-02
3.521598130464553833e-02
3.066073171794414520e-02
-1.313643902540206909e-01
5.596297234296798706e-02
1.643675379455089569e-02
-3.115477738901972771e-03
1.160533949732780457e-01
1.418824046850204468e-01
1.261874940246343613e-02
3.592980280518531799e-02
-5.820381641387939453e-02
-4.295445606112480164e-02
1.220261398702859879e-02
-9.021429717540740967e-02
1.997857727110385895e-02
7.289240509271621704e-02
9.755326807498931885e-02
-1.483194380998611450e-01
-4.622851312160491943e-02
8.245502412319183350e-02
3.571505099534988403e-02
-1.974396109580993652e-01
3.161530569195747375e-02
-3.563314303755760193e-02
6.682166829705238342e-03
4.915358126163482666e-02
2.475789934396743774e-02
-1.300968676805496216e-01
9.192662686109542847e-02
-8.051563054323196411e-02
5.113740637898445129e-02
6.025971844792366028e-03
-6.100814417004585266e-02
-1.288903653621673584e-01
-1.438024938106536865e-01
6.506843119859695435e-02
-2.175523526966571808e-02
-4.281080886721611023e-02
8.017777651548385620e-02
-1.113264486193656921e-01
-2.524995617568492889e-02
2.048545517027378082e-02
8.420704863965511322e-03
-2.024351619184017181e-02
2.044322043657302856e-01
-7.436258345842361450e-02
-4.983598738908767700e-02
-1.502061486244201660e-01
1.506299525499343872e-01
4.077263921499252319e-02
9.359709173440933228e-02
-8.084500581026077271e-02
3.787411376833915710e-02
8.309214562177658081e-02
-1.268411874771118164e-01
4.385485127568244934e-02
4.566872119903564453e-02
-1.430047750473022461e-01
-1.101693958044052124e-01
-1.278274804353713989e-01
8.456360548734664917e-02
-4.085302725434303284e-02
5.299992859363555908e-02
-6.376151740550994873e-02
-2.779363468289375305e-02
8.356750756502151489e-02
-1.147684976458549500e-01
-2.401887476444244385e-01
1.145132184028625488e-01
1.069959700107574463e-01
-9.229135513305664062e-02
-1.228298768401145935e-01
-4.317393526434898376e-02
1.163564473390579224e-01
3.542267158627510071e-02
-1.638313531875610352e-01
4.359344393014907837e-02
-1.074002012610435486e-01
9.331703931093215942e-02
7.947148382663726807e-02
-3.744894405826926231e-03
-2.021168470382690430e-01
-1.380138993263244629e-01
-6.958492100238800049e-02
1.514360755681991577e-01
1.561311632394790649e-01
7.950026541948318481e-02
-3.254691511392593384e-02
-1.171783879399299622e-01
-9.037704020738601685e-02
-1.046704351902008057e-01
-3.854951064568012953e-04
1.030504480004310608e-01
8.868039399385452271e-02
-4.593575373291969299e-02
-1.013816744089126587e-01
-4.847328644245862961e-03
2.338676005601882935e-01
1.429712772369384766e-01
-1.188376694917678833e-01
-1.153954192996025085e-01
8.133231848478317261e-02
1.421045362949371338e-01
9.242710471153259277e-02
-6.953553110361099243e-02
8.934169262647628784e-02
1.811583526432514191e-02
1.347448527812957764e-01
-1.851406693458557129e-01
-8.801013231277465820e-02
1.392635256052017212e-01
-4.845127463340759277e-02
-5.561298877000808716e-02
1.285663545131683350e-01
-8.772025257349014282e-02
-1.193267758935689926e-02
1.588241606950759888e-01
-1.406427770853042603e-01
-2.206716388463973999e-01
5.151568329893052578e-04
1.554661337286233902e-02
1.397029459476470947e-01
-1.415871530771255493e-01
1.042627990245819092e-01
6.394362449645996094e-02
-1.600262522697448730e-01
-7.452689856290817261e-02
-2.986072190105915070e-02
-7.095372676849365234e-02
1.248110737651586533e-02
-1.095496267080307007e-01
2.383055835962295532e-01
1.506644021719694138e-02
1.036182343959808350e-01
-5.142432451248168945e-02
1.315298378467559814e-01
2.071960829198360443e-02
3.535809740424156189e-02
-4.682284221053123474e-02
6.270337849855422974e-02
7.825222611427307129e-02
-2.986753825098276138e-03
4.265584051609039307e-02
-3.343737125396728516e-02
1.443814486265182495e-02
-2.461308799684047699e-02
-8.643569052219390869e-02
9.515409357845783234e-03
-1.337007991969585419e-02
1.089451387524604797e-01
1.307354122400283813e-01
-2.348945662379264832e-02
6.859932839870452881e-02
1.545201241970062256e-01
6.422245502471923828e-02
-2.916531637310981750e-03
9.772758185863494873e-02
-1.722682267427444458e-01
3.864635154604911804e-02
-2.885104343295097351e-02
9.055780828930437565e-04
1.654134094715118408e-01
-9.373010694980621338e-02
-9.920787066221237183e-02
2.328916825354099274e-02
-1.078293919563293457e-01
-7.139825820922851562e-02
2.267477288842201233e-02
-1.174957752227783203e-01
2.934943512082099915e-02
1.144392192363739014e-01
-2.164236828684806824e-02
1.061545778065919876e-02
-2.799144200980663300e-02
6.268811225891113281e-02
-1.126004979014396667e-01
6.008290499448776245e-02
-3.581854328513145447e-02
9.336855262517929077e-02
4.450345784425735474e-02
-1.492704600095748901e-01
3.368018567562103271e-02
-3.451058641076087952e-02
-6.660710275173187256e-02
9.366437047719955444e-02
2.137817591428756714e-01
-1.310732215642929077e-01
-1.331662684679031372e-01
-5.256702005863189697e-02
1.553838998079299927e-01
-1.068263500928878784e-01
3.672112897038459778e-02
-5.828237044624984264e-05
7.677568495273590088e-02
3.915520012378692627e-02
-1.362096071243286133e-01
-6.079645827412605286e-02
-7.526973634958267212e-02
1.834571361541748047e-01
6.138557940721511841e-02
1.571593619883060455e-02
7.422406226396560669e-02
-3.266597166657447815e-02
-1.658601611852645874e-01
2.045824192464351654e-02
1.767161637544631958e-01
-7.574208080768585205e-02
4.906555637717247009e-02
1.295090466737747192e-01
2.805929398164153099e-03
2.338192425668239594e-02
1.085848454385995865e-02
8.635073900222778320e-02
-7.940272241830825806e-02
-3.588528186082839966e-02
9.038631804287433624e-03
-1.539674550294876099e-01
2.097120136022567749e-02
1.119745448231697083e-01
-1.580981165170669556e-01
-2.670111134648323059e-03
1.242954749614000320e-02
-4.050034284591674805e-02
-9.694837965071201324e-03
-1.621209084987640381e-02
-9.785035252571105957e-02
4.615701735019683838e-02
1.305603515356779099e-02
-1.095878481864929199e-01
-4.118372127413749695e-02
1.188701093196868896e-01
8.568834513425827026e-02
-3.137296438217163086e-02
-6.598269939422607422e-02
1.629963666200637817e-01
3.944485634565353394e-02
-2.962885238230228424e-02
6.272959709167480469e-02
-1.117887645959854126e-01
1.221402361989021301e-01
-1.700208336114883423e-02
-1.270157098770141602e-01
-1.521240323781967163e-01
-1.093927547335624695e-01
4.340695217251777649e-02
1.926832348108291626e-01
6.226980593055486679e-03
-6.184819713234901428e-02
-4.335868731141090393e-02
1.156825199723243713e-02
-5.848379060626029968e-02
4.200305789709091187e-03
-8.755783736705780029e-02
-1.214881688356399536e-01
-4.816371202468872070e-02
1.297329664230346680e-01
-1.256197690963745117e-01
8.776324242353439331e-02
8.108282834291458130e-02
-1.681197136640548706e-01
-1.419249176979064941e-01
-9.232779033482074738e-03
2.225126884877681732e-02
-1.703281700611114502e-02
4.171508178114891052e-02
8.301858603954315186e-02
-6.640110164880752563e-02
1.230222210288047791e-01
-2.761270850896835327e-02
-1.335102766752243042e-01
4.964930564165115356e-02
-1.642308533191680908e-01
-3.181768581271171570e-02
-5.064726248383522034e-02
-4.901201650500297546e-02
7.180730253458023071e-02
-1.349868476390838623e-01
1.023489087820053101e-01
7.745501399040222168e-02
-1.536187231540679932e-01
1.906520724296569824e-01
-6.185715645551681519e-02
1.057322137057781219e-02
3.952433913946151733e-02
-6.796526908874511719e-02
4.359326884150505066e-02
5.437604337930679321e-02
-8.916145563125610352e-02
1.344071477651596069e-01
-1.829368025064468384e-01
-1.207057503052055836e-03
1.200364381074905396e-01
1.954807937145233154e-01
1.013294160366058350e-01
-2.451662346720695496e-02
9.568522125482559204e-02
-1.489854156970977783e-01
-1.100677177309989929e-01
-3.033053502440452576e-02
-2.967726625502109528e-02
9.475881606340408325e-02
-1.093091517686843872e-01
-1.934005171060562134e-01
-2.696185931563377380e-02
1.385823935270309448e-01
5.034576728940010071e-02
9.977934509515762329e-02
5.599679052829742432e-02
2.901698276400566101e-02
-7.398784905672073364e-02
1.070930883288383484e-01
-9.841434657573699951e-02
9.524088352918624878e-03
-1.885950714349746704e-01
5.557084083557128906e-02
-1.298538148403167725e-01
-1.792744100093841553e-01
-4.754328634589910507e-03
3.838603571057319641e-02
2.233680188655853271e-01
1.690126061439514160e-01
1.847868561744689941e-01
-7.654055207967758179e-02
-2.107429057359695435e-01
1.067704409360885620e-01
-1.173886731266975403e-01
-2.108447700738906860e-01
1.756456643342971802e-01
4.488670825958251953e-02
1.631612777709960938e-01
1.301614046096801758e-01
8.542024530470371246e-03
8.212907612323760986e-02
-2.842211350798606873e-02
-8.225397765636444092e-02
-1.481359750032424927e-01
-1.243865042924880981e-01
1.163131147623062134e-01
2.120824903249740601e-01
-1.630161404609680176e-01
2.270483672618865967e-01
-1.374237355776131153e-03
-1.133889853954315186e-01
1.385793685913085938e-01
8.240312337875366211e-02
-4.140093922615051270e-02
1.839492022991180420e-01
-1.568729877471923828e-01
1.512159407138824463e-02
3.272183239459991455e-02
1.387061476707458496e-01
2.164873480796813965e-01
1.690878868103027344e-01
2.012686338275671005e-03
2.647911608219146729e-01
1.845563501119613647e-01
2.238100022077560425e-01
-8.096849173307418823e-02
1.333491504192352295e-01
2.147540599107742310e-01
-1.490864604711532593e-01
-1.765214949846267700e-01
1.502694189548492432e-01
1.766163408756256104e-01
1.546250581741333008e-01
6.655554287135601044e-03
-2.715596184134483337e-02
1.400792319327592850e-02
2.282551825046539307e-01
-9.795992076396942139e-02
-2.002334296703338623e-01
-4.727191850543022156e-02
1.504629999399185181e-01
2.086936533451080322e-01
1.199871227145195007e-01
7.852485775947570801e-02
-5.527431890368461609e-02
1.682646945118904114e-02
-3.904477506875991821e-02
1.535605341196060181e-01
9.269738197326660156e-02
-6.273280829191207886e-02
-1.799325942993164062e-01
1.266500204801559448e-01
-1.753533482551574707e-01
-2.390417084097862244e-02
-7.042626291513442993e-02
-1.552228778600692749e-01
-1.366919130086898804e-01
1.983845978975296021e-01
-1.265032887458801270e-01
-1.867498904466629028e-01
1.812846958637237549e-01
1.874442398548126221e-01
-6.915401667356491089e-02
-1.458154320716857910e-01
1.822175383567810059e-01
-9.478688240051269531e-02
-1.933960914611816406e-01
-1.199088245630264282e-01
-8.568525314331054688e-02
3.803603976848535240e-05
2.265847288072109222e-02
2.488096356391906738e-01
-2.055502869188785553e-02
1.357569843530654907e-01
1.734725534915924072e-01
1.348414719104766846e-01
5.247341096401214600e-02
2.129043489694595337e-01
1.556853018701076508e-02
2.064810246229171753e-01
2.219087444245815277e-02
2.076520472764968872e-01
-2.359374798834323883e-02
-6.534076482057571411e-02
-1.922253370285034180e-01
1.742118783295154572e-02
-7.418153434991836548e-02
4.330066591501235962e-02
-1.082645915448665619e-02
1.599132567644119263e-01
2.139238566160202026e-01
-1.024863123893737793e-01
-5.951127782464027405e-02
-7.745422422885894775e-02
-7.330000400543212891e-02
-6.096067279577255249e-02
-1.567371487617492676e-01
6.812799721956253052e-02
1.902369558811187744e-01
-7.186963409185409546e-02
-1.166110113263130188e-01
1.175974607467651367e-01
-4.389114305377006531e-02
-1.252190023660659790e-01
-2.191652506589889526e-01
1.191269326955080032e-02
-9.379574656486511230e-02
1.068992018699645996e-01
-1.339461505413055420e-01
-5.749887600541114807e-02
-4.722617566585540771e-02
4.318419843912124634e-02
-1.909516751766204834e-01
-1.280083209276199341e-01
-5.432843416929244995e-02
-1.101570203900337219e-02
6.355569511651992798e-02
2.205524146556854248e-01
-6.563615053892135620e-02
1.626351028680801392e-01
1.004068087786436081e-02
-1.140785589814186096e-01
-1.522625237703323364e-01
1.326552182435989380e-01
8.412181586027145386e-02
1.726923882961273193e-01
-8.233479410409927368e-02
6.896520033478736877e-03
2.180411219596862793e-01
1.306525468826293945e-01
-9.963293373584747314e-02
8.313156664371490479e-02
1.981910318136215210e-01
-5.336996912956237793e-02
5.918109789490699768e-02
-9.205293655395507812e-02
-1.093491315841674805e-01
-1.263545304536819458e-01
-1.878943443298339844e-01
1.085748197510838509e-03
1.392065919935703278e-02
-2.049858421087265015e-01
4.607772454619407654e-02
-2.151599973440170288e-01
1.244880333542823792e-01
-8.283748477697372437e-02
5.847049877047538757e-03
-1.585643589496612549e-01
-1.570338904857635498e-01
4.643050208687782288e-02
1.950013488531112671e-01
-1.753595620393753052e-01
3.376720938831567764e-03
-7.794859260320663452e-02
1.458589918911457062e-02
1.261439174413681030e-01
2.079423516988754272e-01
-2.128453366458415985e-02
7.306065410375595093e-02
7.294486463069915771e-02
-1.931483298540115356e-02
-1.903697401285171509e-01
-1.750022172927856445e-01
-6.458992511034011841e-02
1.166806668043136597e-01
-6.805399060249328613e-02
7.765679154545068741e-03
7.554567605257034302e-02
1.655496507883071899e-01
-5.355948209762573242e-02
6.880806386470794678e-02
6.641305983066558838e-02
4.035565629601478577e-02
-1.255657076835632324e-01
9.476364403963088989e-02
1.967736035585403442e-01
-6.381641328334808350e-02
1.059617996215820312e-01
8.063305169343948364e-02
-8.519084076397120953e-05
-1.924950480461120605e-01
2.208630144596099854e-01
1.982108503580093384e-01
2.370506674051284790e-01
1.029380783438682556e-02
-1.183498650789260864e-01
1.971394270658493042e-01
8.765494078397750854e-02
4.192071408033370972e-02
1.904045343399047852e-01
6.704112142324447632e-02
-9.243793040513992310e-02
1.353129744529724121e-01
6.680461764335632324e-02
-1.090795695781707764e-01
1.587461978197097778e-01
1.707939058542251587e-01
3.975406289100646973e-02
1.440500020980834961e-01
2.378970980644226074e-01
-1.198209375143051147e-01
-7.225312292575836182e-02
1.003720462322235107e-01
1.326915919780731201e-01
-8.857925236225128174e-02
6.635890156030654907e-02
4.413947090506553650e-02
2.217167988419532776e-02
-1.861328184604644775e-01
-8.758876472711563110e-02
-1.448641717433929443e-02
-2.274798415601253510e-02
-7.142803817987442017e-02
-1.257102787494659424e-01
8.507705479860305786e-02
1.091970503330230713e-01
-9.608820080757141113e-02
2.331451326608657837e-01
-1.048350185155868530e-01
4.491174593567848206e-02
-2.605347894132137299e-03
-8.972617797553539276e-03
-9.807440638542175293e-02
2.053416073322296143e-01
7.806085050106048584e-02
1.732119768857955933e-01
-2.008541226387023926e-01
2.198876440525054932e-01
-1.073470711708068848e-01
1.162756979465484619e-01
-4.447628930211067200e-02
4.320134595036506653e-02
4.171887040138244629e-02
1.485283076763153076e-01
1.885595768690109253e-01
1.903232336044311523e-01
9.805163741111755371e-02
1.558979004621505737e-01
1.113557294011116028e-01
-7.927826792001724243e-02
-1.983263045549392700e-01
1.539475619792938232e-01
-9.553670138120651245e-02
1.550246775150299072e-01
1.615899503231048584e-01
7.540022023022174835e-03
2.138135023415088654e-02
8.636634051799774170e-02
1.885485500097274780e-01
-6.374079734086990356e-02
5.343823507428169250e-02
1.074996516108512878e-01
1.514441072940826416e-01
-2.232868671417236328e-01
-4.066555947065353394e-02
-1.040102466940879822e-01
2.656891942024230957e-02
6.491192430257797241e-02
-2.255820110440254211e-02
-8.063820004463195801e-02
-6.348248571157455444e-02
1.663270220160484314e-02
-1.196763888001441956e-01
-1.188284680247306824e-01
2.421365380287170410e-01
-6.358957290649414062e-02
1.764803752303123474e-02
2.573735453188419342e-02
-1.179388985037803650e-01
-1.905587464570999146e-01
-1.261712163686752319e-01
6.416940689086914062e-02
4.724648315459489822e-04
7.303015142679214478e-02
6.792318075895309448e-02
9.899758547544479370e-02
-1.925356499850749969e-02
3.704442828893661499e-02
-8.913273364305496216e-02
7.625856995582580566e-02
-1.211332753300666809e-01
1.664137700572609901e-03
1.897511929273605347e-01
-1.930867731571197510e-01
-1.980498880147933960e-01
-9.902672469615936279e-02
-1.795927882194519043e-01
2.374686300754547119e-01
-1.490668058395385742e-01
4.357408732175827026e-02
2.367592602968215942e-02
7.331357151269912720e-02
-1.441783607006072998e-01
7.986265420913696289e-02
-1.199795380234718323e-01
9.321410325355827808e-04
1.972147971391677856e-01
-8.199086040258407593e-02
-2.370775490999221802e-01
-1.865452527999877930e-01
-9.545359015464782715e-02
-3.926686570048332214e-02
-6.843643635511398315e-02
1.703041046857833862e-02
3.782119229435920715e-02
9.504568576812744141e-02
9.649480134248733521e-02
-7.993096858263015747e-02
-1.584271788597106934e-01
2.250844836235046387e-01
1.634301096200942993e-01
-2.010428607463836670e-01
2.203836590051651001e-01
6.849610805511474609e-02
1.354862898588180542e-01
-1.729730218648910522e-01
6.529358774423599243e-02
1.785293519496917725e-01
6.193067878484725952e-02
-1.210722699761390686e-01
-1.253104805946350098e-01
-6.976808607578277588e-02
1.522984355688095093e-01
7.634057104587554932e-02
1.173538640141487122e-01
-9.790034964680671692e-03
1.343157738447189331e-01
1.212163716554641724e-01
1.043421924114227295e-01
-9.558446705341339111e-02
-1.634783744812011719e-01
2.195737659931182861e-01
-1.817672848701477051e-01
2.348000854253768921e-01
4.794858768582344055e-02
-7.006867229938507080e-02
8.340387791395187378e-02
1.628514677286148071e-01
1.130627617239952087e-01
2.805379917845129967e-03
4.616923257708549500e-02
-1.129489042796194553e-03
-6.144481152296066284e-02
1.303715556859970093e-01
1.139696985483169556e-01
5.265028774738311768e-02
-1.541050896048545837e-02
9.725920855998992920e-02
-1.015779823064804077e-01
2.505486905574798584e-01
1.575173735618591309e-01
-7.656319439411163330e-02
-9.230379760265350342e-02
-2.345522493124008179e-01
-1.097274199128150940e-01
-1.055873706936836243e-01
2.034379243850708008e-01
7.381130754947662354e-02
2.191631495952606201e-01
1.405409127473831177e-01
-7.625515013933181763e-02
-6.496580690145492554e-02
1.369095593690872192e-01
4.679852351546287537e-02
-5.723187699913978577e-03
1.910238713026046753e-01
-1.362882107496261597e-01
-1.245855465531349182e-01
-1.674483269453048706e-01
-4.935472086071968079e-02
-1.162402108311653137e-01
-2.580536156892776489e-02
1.375899612903594971e-01
2.290949821472167969e-01
-5.923193693161010742e-02
-9.783230721950531006e-02
-1.989557892084121704e-01
-6.182971224188804626e-02
1.981654912233352661e-01
1.729408092796802521e-02
2.324675917625427246e-01
2.043601274490356445e-01
-1.558307111263275146e-01
6.299404799938201904e-02
3.711130097508430481e-02
-1.836463510990142822e-01
-1.138445138931274414e-01
2.227405160665512085e-01
2.033264487981796265e-01
-2.113158553838729858e-01
-6.560293585062026978e-02
-6.504887342453002930e-02
-2.062412537634372711e-02
-2.815754339098930359e-02
1.981399655342102051e-01
-2.131695449352264404e-01
-2.082793116569519043e-01
-2.143181413412094116e-01
1.773246228694915771e-01
2.401567995548248291e-02
2.255638241767883301e-01
-5.979143828153610229e-02
2.260054945945739746e-01
7.773777097463607788e-02
-1.545531153678894043e-01
2.668309509754180908e-01
-1.343462169170379639e-01
7.144354283809661865e-03
-1.833642125129699707e-01
-1.582456529140472412e-01
-6.645488739013671875e-02
-5.246008560061454773e-02
1.500869840383529663e-01
1.101300567388534546e-01
5.473631620407104492e-02
7.203836739063262939e-02
1.231080070137977600e-01
1.303768008947372437e-01
5.864368751645088196e-02
-1.618292182683944702e-02
8.181013166904449463e-02
-1.429392248392105103e-01
-1.661384403705596924e-01
-1.982898265123367310e-01
1.100388094782829285e-01
-1.944011002779006958e-01
1.514077335596084595e-01
3.074279241263866425e-02
-1.496145874261856079e-01
1.224204078316688538e-01
-2.523943223059177399e-02
3.382312506437301636e-02
-1.931929886341094971e-01
2.815067768096923828e-02
-2.037297189235687256e-01
8.552394062280654907e-02
-1.430847346782684326e-01
-1.210499182343482971e-01
-9.299700707197189331e-02
9.285070933401584625e-03
-2.053186446428298950e-01
9.108037501573562622e-02
5.623226240277290344e-02
1.455552726984024048e-01
-1.823653653264045715e-02
5.676554143428802490e-02
2.154438793659210205e-01
1.365496683865785599e-02
-1.145663410425186157e-01
-1.361805498600006104e-01
1.774189621210098267e-01
4.971234872937202454e-02
-1.330893486738204956e-01
1.486700959503650665e-02
1.039848551154136658e-01
2.073590755462646484e-01
2.183730006217956543e-01
1.860305219888687134e-01
1.920170783996582031e-01
1.110732778906822205e-01
-8.212666958570480347e-03
1.719629019498825073e-01
-4.957253858447074890e-02
-1.206771507859230042e-01
-6.736329942941665649e-02
6.808843463659286499e-02
2.246826291084289551e-01
4.944062978029251099e-02
1.199667081236839294e-01
2.983498945832252502e-02
-1.331650763750076294e-01
-1.430397182703018188e-01
-1.112689375877380371e-01
-1.820914596319198608e-01
-6.665420532226562500e-02
1.121117025613784790e-01
-1.954796351492404938e-02
1.232319623231887817e-01
6.701721996068954468e-02
-4.334520548582077026e-03
2.393463253974914551e-01
1.551746279001235962e-01
3.264313563704490662e-02
-1.823836117982864380e-01
-1.966776251792907715e-01
1.153155565261840820e-01
-7.128591090440750122e-02
9.145430475473403931e-02
-2.073366194963455200e-01
7.214162498712539673e-02
1.213550269603729248e-01
-1.856271922588348389e-01
1.945723444223403931e-01
-2.311004102230072021e-01
7.638014107942581177e-02
-5.282603204250335693e-02
-2.190879918634891510e-02
1.998126208782196045e-01
1.481074690818786621e-01
-1.835544705390930176e-01
-6.789557170122861862e-03
-4.789820685982704163e-02
-1.157318726181983948e-01
-1.648157685995101929e-01
1.917727105319499969e-02
2.138065248727798462e-01
2.186226397752761841e-01
-3.063625842332839966e-02
-1.714516580104827881e-01
1.611646115779876709e-01
5.136276036500930786e-02
4.121519625186920166e-02
-6.225730851292610168e-02
1.009014546871185303e-01
-1.029689759016036987e-01
-3.585899621248245239e-02
-2.047988921403884888e-01
-1.089172065258026123e-01
-1.700994819402694702e-01
-1.829095482826232910e-01
-1.344069838523864746e-01
-8.590373396873474121e-02
3.882417827844619751e-02
1.686576306819915771e-01
1.424049139022827148e-01
7.210574299097061157e-02
1.716447435319423676e-02
-1.691998690366744995e-01
2.269069254398345947e-01
-1.782822757959365845e-01
9.974857419729232788e-02
-3.669373923912644386e-03
2.255243360996246338e-01
-3.691536560654640198e-02
2.382252365350723267e-01
6.579004228115081787e-03
-1.736984401941299438e-01
1.755226403474807739e-01
-1.481139808893203735e-01
-6.384237855672836304e-02
2.121524065732955933e-01
6.421776860952377319e-02
-9.903371334075927734e-02
-2.068053372204303741e-02
-1.911756992340087891e-01
1.745767444372177124e-01
-9.207376092672348022e-02
-2.336505055427551270e-02
-8.093477785587310791e-02
-4.955050069838762283e-03
5.353389307856559753e-02
-8.447573333978652954e-02
-1.653978973627090454e-01
6.025486439466476440e-02
-1.422269195318222046e-01
2.193437814712524414e-01
5.339751765131950378e-02
-6.496718525886535645e-02
-1.013023629784584045e-01
1.236004978418350220e-01
6.636583805084228516e-02
-1.010038107633590698e-01
2.256290018558502197e-01
1.394638121128082275e-01
-1.837906539440155029e-01
-1.746513098478317261e-01
5.926744267344474792e-02
3.774408996105194092e-02
1.421737521886825562e-01
6.120947003364562988e-02
2.048288099467754364e-02
-7.724030874669551849e-03
-5.246878042817115784e-02
1.548461318016052246e-01
1.418230682611465454e-01
-6.675511598587036133e-02
2.006956189870834351e-01
5.584359914064407349e-02
1.101985275745391846e-01
-4.975430667400360107e-02
1.317442804574966431e-01
1.142803346738219261e-03
-2.584152109920978546e-02
2.144312113523483276e-01
2.435856312513351440e-01
1.363992691040039062e-01
-1.646503508090972900e-01
7.326751202344894409e-02
1.048490330576896667e-01
-1.344683319330215454e-01
2.079272121191024780e-01
1.686637699604034424e-01
-2.243901602923870087e-02
9.967328980565071106e-03
6.757166981697082520e-02
-2.615410387516021729e-01
-1.675018481910228729e-02
1.367336958646774292e-01
-1.757004484534263611e-02
3.206775486469268799e-01
2.373454421758651733e-01
3.437725082039833069e-02
7.531703915446996689e-03
-1.412276029586791992e-01
-1.863189488649368286e-01
-4.637539759278297424e-02
2.050705403089523315e-01
-1.681068688631057739e-01
5.406200513243675232e-02
-7.850809395313262939e-02
-2.151661366224288940e-01
1.175606846809387207e-01
1.287829428911209106e-01
1.585444509983062744e-01
6.155985593795776367e-02
1.128543689846992493e-01
2.542215287685394287e-01
-8.771792054176330566e-02
9.558050334453582764e-02
2.294073104858398438e-01
2.099412493407726288e-02
4.564176779240369797e-03
1.849866211414337158e-01
-1.362341940402984619e-01
-2.385642379522323608e-01
2.338689267635345459e-01
1.085349172353744507e-01
2.833955883979797363e-01
2.137436568737030029e-01
-3.103627078235149384e-02
-9.220923483371734619e-02
8.552441000938415527e-02
-1.612720340490341187e-01
-2.096411585807800293e-01
3.313453868031501770e-02
1.815404146909713745e-01
2.050449103116989136e-01
-2.495901584625244141e-01
-1.714633405208587646e-01
-3.194953501224517822e-02
-1.404005587100982666e-01
2.014661580324172974e-01
1.682077050209045410e-01
3.380758687853813171e-02
-2.038282603025436401e-01
2.650124132633209229e-01
-4.502544179558753967e-02
-6.519818305969238281e-02
-2.688236720860004425e-02
7.250977214425802231e-03
-1.784646511077880859e-01
-1.625898182392120361e-01
5.537404865026473999e-02
2.405954748392105103e-01
1.714703291654586792e-01
-8.578431606292724609e-02
-8.761709555983543396e-03
2.064275890588760376e-01
-1.766546368598937988e-01
-1.959698051214218140e-01
7.714879512786865234e-02
-7.988109253346920013e-03
2.277071624994277954e-01
1.519508063793182373e-01
-7.957948744297027588e-02
-5.050871521234512329e-02
2.209158241748809814e-01
-9.380117058753967285e-02
2.157675474882125854e-01
-1.098901256918907166e-01
2.712138891220092773e-01
-1.582882553339004517e-01
-1.337051093578338623e-01
1.573937237262725830e-01
-7.451380789279937744e-02
-9.275958687067031860e-02
-1.096114665269851685e-01
2.156294286251068115e-01
1.507305502891540527e-01
1.923914104700088501e-01
6.004325672984123230e-02
1.793727278709411621e-01
-1.706097275018692017e-01
1.196109130978584290e-01
-1.882176846265792847e-01
-1.288703829050064087e-01
-2.036258876323699951e-01
-1.632706373929977417e-01
-2.207133322954177856e-01
-9.862736798822879791e-03
-2.301255613565444946e-01
1.751987934112548828e-01
-6.565793603658676147e-02
-1.282806694507598877e-01
-1.110520288348197937e-01
7.543095201253890991e-02
-7.542587071657180786e-02
1.498197764158248901e-01
1.102236509323120117e-01
5.047671869397163391e-02
3.849014639854431152e-02
-1.830758005380630493e-01
2.103616148233413696e-01
-1.395087391138076782e-01
-5.468405783176422119e-03
-8.053206652402877808e-02
-8.384195715188980103e-02
-1.429017037153244019e-01
-1.937907785177230835e-01
5.558421462774276733e-02
1.593586802482604980e-01
-2.059862166643142700e-01
8.879559487104415894e-02
-1.584833115339279175e-01
1.378836482763290405e-01
1.166595593094825745e-01
-3.099280875176191330e-04
-2.426765300333499908e-02
2.518358640372753143e-02
-1.862338185310363770e-01
-6.164487078785896301e-02
4.010366648435592651e-02
-1.933715045452117920e-01
3.971931990236043930e-03
1.649949140846729279e-02
2.671426348388195038e-02
1.932800859212875366e-01
-1.815693527460098267e-01
1.381972432136535645e-01
2.206503972411155701e-02
-2.206173725426197052e-02
4.627324268221855164e-02
6.990189850330352783e-02
1.466311216354370117e-01
2.289892584085464478e-01
1.627625315450131893e-03
7.994079589843750000e-02
-2.086801379919052124e-01
-1.662021577358245850e-01
-3.175688534975051880e-02
-1.527459025382995605e-01
1.671728640794754028e-01
-2.114204503595829010e-02
-1.049319058656692505e-01
-6.897155195474624634e-03
7.282890379428863525e-02
1.534935384988784790e-01
1.087628230452537537e-01
2.095229923725128174e-01
1.767818927764892578e-01
3.722272440791130066e-02
-9.751727804541587830e-03
-6.998518109321594238e-02
-7.621952146291732788e-02
4.526182264089584351e-02
-4.202657192945480347e-02
-5.509661883115768433e-02
-1.566332727670669556e-01
1.152554899454116821e-01
1.359661370515823364e-01
2.272622734308242798e-01
1.216947287321090698e-01
1.415528059005737305e-01
4.169452190399169922e-02
1.323821395635604858e-01
-9.230220317840576172e-02
3.369586169719696045e-02
-1.389608383178710938e-01
-1.323547959327697754e-01
-1.566485017538070679e-01
2.386137843132019043e-01
2.172502875328063965e-01
1.615229807794094086e-02
1.728054881095886230e-01
-6.256879121065139771e-02
1.597696840763092041e-01
1.622344553470611572e-01
9.837047010660171509e-02
-2.096845656633377075e-01
5.047291982918977737e-03
-7.416124641895294189e-02
9.986349195241928101e-02
-2.655069716274738312e-02
3.628142643719911575e-03
-3.428659960627555847e-02
-1.325047463178634644e-01
-8.966992795467376709e-02
-1.788876801729202271e-01
1.464188545942306519e-01
-1.110150292515754700e-01
2.214318066835403442e-01
7.342133205384016037e-03
2.602824382483959198e-02
1.120255738496780396e-01
-1.411006301641464233e-01
-3.657285869121551514e-02
4.970534937456250191e-04
-1.283440440893173218e-01
1.735129505395889282e-01
2.039240002632141113e-01
-2.293119579553604126e-02
-1.424336880445480347e-01
1.021426096558570862e-01
4.017679393291473389e-02
-2.099245972931385040e-02
1.662668287754058838e-01
1.041679605841636658e-01
7.027114182710647583e-02
1.240245066583156586e-02
4.682803153991699219e-02
2.107760757207870483e-01
9.661789238452911377e-02
9.262108802795410156e-02
1.953556388616561890e-01
-2.168826311826705933e-01
5.226977914571762085e-02
-1.129476577043533325e-01
2.316050529479980469e-01
-1.058239936828613281e-01
-1.252842415124177933e-02
1.110604628920555115e-01
-1.719900220632553101e-01
5.237769708037376404e-02
1.385331600904464722e-01
3.167975321412086487e-02
7.187452912330627441e-02
9.083414077758789062e-02
1.568248681724071503e-02
1.859784722328186035e-01
1.116243600845336914e-01
-6.267054378986358643e-02
-4.717728868126869202e-02
-1.498059183359146118e-01
7.068564742803573608e-02
1.428147554397583008e-01
1.273583322763442993e-01
1.666710078716278076e-01
3.524198755621910095e-02
-5.935203284025192261e-02
-1.852600872516632080e-01
-2.825734205543994904e-02
1.906075328588485718e-01
1.450244784355163574e-01
-1.834568381309509277e-02
-3.991657868027687073e-02
-1.647042781114578247e-01
-9.309251606464385986e-02
-1.541385054588317871e-01
-8.456106483936309814e-02
-1.674144268035888672e-01
2.092719078063964844e-01
8.950608968734741211e-02
-9.675995260477066040e-02
8.071143180131912231e-03
-3.203195706009864807e-02
1.325072348117828369e-01
-1.994254738092422485e-01
-1.434132903814315796e-01
1.346945315599441528e-01
6.835205107927322388e-02
-1.532169580459594727e-01
-1.383600383996963501e-01
1.109300404787063599e-01
-1.401943266391754150e-01
2.642531991004943848e-01
-2.958715148270130157e-02
-1.342566162347793579e-01
2.060895785689353943e-02
1.681687384843826294e-01
-5.946720391511917114e-02
1.757414340972900391e-01
1.661121398210525513e-01
-6.361357867717742920e-02
-3.051085397601127625e-02
-4.747878387570381165e-02
2.163137644529342651e-01
2.108277231454849243e-01
1.935395449399948120e-01
9.183329343795776367e-02
-7.748646289110183716e-02
-2.156376689672470093e-01
-1.556164771318435669e-01
2.135602682828903198e-01
-1.842199265956878662e-02
-6.329809874296188354e-02
-3.764067217707633972e-02
1.617539376020431519e-01
1.402937918901443481e-01
-2.653019037097692490e-04
-1.189664602279663086e-01
-1.806441098451614380e-01
-1.771765761077404022e-02
1.281383335590362549e-01
-1.423245668411254883e-01
2.799578905105590820e-01
2.631649374961853027e-02
2.957572415471076965e-02
1.422000229358673096e-01
-4.869177192449569702e-02
1.071461364626884460e-01
-5.888137966394424438e-02
1.557504087686538696e-01
-2.334940806031227112e-02
1.772630512714385986e-01
-1.171049028635025024e-01
1.175193116068840027e-01
1.095903851091861725e-02
-9.476636536419391632e-03
6.765451282262802124e-02
4.336463660001754761e-02
-8.402259647846221924e-02
9.868060052394866943e-02
-1.263290494680404663e-01
2.364222332835197449e-02
1.855137571692466736e-02
-2.764144539833068848e-02
1.571602076292037964e-01
-4.063682630658149719e-02
-1.166742146015167236e-01
-9.971693158149719238e-02
-1.805464923381805420e-01
-2.503282018005847931e-02
1.598599702119827271e-01
2.128261700272560120e-02
5.915614962577819824e-02
1.418354958295822144e-01
-6.648434698581695557e-02
-1.997718065977096558e-01
1.240172311663627625e-01
-2.745972760021686554e-02
2.517526224255561829e-02
-7.587407529354095459e-02
-1.529406011104583740e-01
1.579690724611282349e-01
6.866284529678523540e-04
1.738329827785491943e-01
8.715549111366271973e-02
-1.481748223304748535e-01
-6.027743592858314514e-02
3.661990910768508911e-02
4.730882123112678528e-02
-3.674610331654548645e-02
5.565852299332618713e-02
-1.035722270607948303e-01
3.115438297390937805e-02
-1.464610248804092407e-01
4.189616441726684570e-02
-6.307915598154067993e-02
-7.150515168905258179e-02
7.730737328529357910e-02
-1.926684379577636719e-02
5.230715870857238770e-02
-1.741348532959818840e-03
2.250563800334930420e-01
6.391856819391250610e-02
-9.352596849203109741e-02
7.641855627298355103e-02
2.175984978675842285e-01
-2.789882123470306396e-01
-3.249016776680946350e-02
1.316842138767242432e-01
1.018528640270233154e-01
-1.063765436410903931e-01
-2.276191115379333496e-01
2.703104615211486816e-01
-1.675554364919662476e-01
-2.213270962238311768e-01
1.505945175886154175e-01
1.885877698659896851e-01
-4.300493001937866211e-02
3.210841864347457886e-02
-1.722113192081451416e-01
3.265932574868202209e-02
-1.507924348115921021e-01
1.101250648498535156e-01
-5.192871019244194031e-02
8.433697372674942017e-02
1.748971641063690186e-01
-1.453312765806913376e-02
-3.464193269610404968e-02
1.976182013750076294e-01
-3.663114085793495178e-02
5.500463023781776428e-02
-1.709576398134231567e-01
-1.035361588001251221e-01
-3.556379675865173340e-02
-1.748110353946685791e-01
1.227762699127197266e-01
-4.880080744624137878e-02
1.711579412221908569e-01
1.802645921707153320e-01
1.942399889230728149e-01
-8.170430362224578857e-02
1.283480077981948853e-01
-2.087558060884475708e-01
-2.039834409952163696e-01
1.267139762639999390e-01
-6.607545167207717896e-02
1.112803146243095398e-01
1.756703853607177734e-01
2.110973149538040161e-01
-1.200355365872383118e-01
-7.375289499759674072e-02
-1.340655833482742310e-01
7.902994751930236816e-02
1.268540322780609131e-01
8.332630246877670288e-02
-2.367603965103626251e-02
8.630191534757614136e-02
-3.371051698923110962e-02
-5.030484497547149658e-02
1.607770621776580811e-01
-6.093786656856536865e-02
-1.111886203289031982e-01
-2.891292423009872437e-02
1.695227026939392090e-01
1.282295137643814087e-01
-1.269041001796722412e-01
1.116454228758811951e-01
-4.949356615543365479e-02
-1.380963530391454697e-02
2.632509544491767883e-02
-1.392997056245803833e-01
2.465406954288482666e-01
1.711563467979431152e-01
1.275596469640731812e-01
5.326040461659431458e-02
-1.599979996681213379e-01
-1.673678308725357056e-01
-1.795786321163177490e-01
4.830756783485412598e-02
2.699441835284233093e-02
-1.310877874493598938e-02
-7.591420412063598633e-02
1.661611795425415039e-01
-7.105950266122817993e-02
-1.340184360742568970e-01
-2.112448513507843018e-01
1.313038915395736694e-01
1.745636463165283203e-01
-5.395408347249031067e-02
4.734193906188011169e-02
9.851817041635513306e-02
1.235844343900680542e-01
-7.430271059274673462e-02
-1.554191559553146362e-01
1.153599191457033157e-02
1.713041961193084717e-01
-7.269415259361267090e-02
2.210525870323181152e-01
-1.188091635704040527e-01
-1.276614516973495483e-01
-6.900370866060256958e-02
-1.767334043979644775e-01
-9.782601147890090942e-02
-5.829204991459846497e-02
-1.186633035540580750e-01
-8.965640515089035034e-02
-2.442321856506168842e-04
-1.202166676521301270e-01
-8.785960380919277668e-04
-6.414762884378433228e-02
-1.746571809053421021e-02
9.524897485971450806e-02
7.032840698957443237e-02
-1.524597406387329102e-02
-1.141794323921203613e-01
-2.772097103297710419e-02
-2.135563194751739502e-01
-1.412110030651092529e-01
3.833988308906555176e-02
-2.556461095809936523e-02
8.946339786052703857e-02
1.017138287425041199e-01
-7.778356224298477173e-02
3.468419983983039856e-02
-3.445933107286691666e-03
-1.306477785110473633e-01
1.778875440359115601e-01
8.725336194038391113e-02
-9.469617903232574463e-02
1.505404859781265259e-01
-7.688985764980316162e-02
9.312274865806102753e-03
-1.279343366622924805e-01
1.290259659290313721e-01
-4.682087153196334839e-02
-1.946005225181579590e-01
-1.490373015403747559e-01
-1.914966702461242676e-01
1.443171501159667969e-01
-9.126154333353042603e-02
5.133032798767089844e-02
-2.091694474220275879e-01
-1.491652578115463257e-01
-6.691792607307434082e-02
1.416501700878143311e-01
-4.668061435222625732e-02
7.126963883638381958e-02
-5.082141607999801636e-02
2.463125623762607574e-02
-8.332298696041107178e-02
-6.747198849916458130e-02
-8.707381784915924072e-03
9.128491580486297607e-02
9.741279296576976776e-03
1.387105137109756470e-01
1.911566853523254395e-01
-2.317763119935989380e-02
1.255373563617467880e-02
1.511466503143310547e-01
2.247320674359798431e-02
1.985943466424942017e-01
1.722682965919375420e-03
7.670680433511734009e-02
-1.138665527105331421e-01
2.235039621591567993e-01
-1.889504725113511086e-03
-1.439334899187088013e-01
-1.989976316690444946e-01
1.651044189929962158e-01
-9.334341622889041901e-03
1.944128721952438354e-01
-1.880380362272262573e-01
-6.796376407146453857e-02
1.404755711555480957e-01
-6.936580687761306763e-02
4.340026527643203735e-02
1.165200546383857727e-01
1.569420546293258667e-01
-9.803178906440734863e-02
-9.898592531681060791e-02
-1.319987326860427856e-01
1.247926652431488037e-01
-9.390800260007381439e-03
-1.561472713947296143e-01
-4.784133285284042358e-02
-5.946880578994750977e-02
3.600456193089485168e-02
-2.750996872782707214e-02
1.261527538299560547e-01
1.205522567033767700e-01
-6.349254399538040161e-02
-1.281008571386337280e-01
1.351055456325411797e-03
-2.843171823769807816e-03
-5.803596973419189453e-02
-1.587866991758346558e-01
-1.028590947389602661e-01
6.322049349546432495e-02
-2.732187509536743164e-01
8.241736143827438354e-02
-1.157829239964485168e-01
-3.433264791965484619e-02
1.434536091983318329e-02
5.869435518980026245e-02
8.826769888401031494e-02
2.205741703510284424e-01
1.674881130456924438e-01
-3.365762531757354736e-02
-1.525119245052337646e-01
1.017956957221031189e-01
1.123096719384193420e-01
-1.544281691312789917e-01
9.969387948513031006e-02
1.098700314760208130e-01
7.717708498239517212e-02
1.228262633085250854e-01
1.481073498725891113e-01
-1.572641879320144653e-01
2.700670447666198015e-04
9.039732068777084351e-02
-1.141588166356086731e-01
1.453104168176651001e-01
-1.729148812592029572e-02
-1.625346988439559937e-01
-1.510468423366546631e-01
5.009033484384417534e-04
-4.242654517292976379e-02
1.507857232354581356e-04
1.215750798583030701e-01
-5.611054226756095886e-02
1.166124269366264343e-02
-1.139898598194122314e-01
1.519732326269149780e-01
6.901542097330093384e-02
1.399104893207550049e-01
-1.321676522493362427e-01
9.893681854009628296e-03
1.248946134001016617e-02
-1.640979349613189697e-01
-1.805619150400161743e-01
2.197485230863094330e-02
7.999647641554474831e-05
-1.164690852165222168e-01
1.421527713537216187e-01
8.823215216398239136e-02
6.636866182088851929e-02
5.775337666273117065e-02
-6.801766157150268555e-02
-1.825072914361953735e-01
-1.843385994434356689e-01
1.497936099767684937e-01
-1.487274467945098877e-01
-2.175977453589439392e-02
-6.305938959121704102e-02
-5.374540016055107117e-02
1.872948706150054932e-01
-1.763332337141036987e-01
-1.171959415078163147e-01
4.712094366550445557e-02
2.030863463878631592e-01
5.157261621206998825e-03
-6.649599224328994751e-02
3.183225635439157486e-03
-3.278644755482673645e-02
-1.961913257837295532e-01
-4.644566029310226440e-02
-1.027174741029739380e-01
-8.733088523149490356e-02
-2.298528887331485748e-02
-2.917894534766674042e-02
8.346252888441085815e-02
1.284695118665695190e-01
-1.113683730363845825e-01
4.216500744223594666e-02
8.348307013511657715e-02
-9.228364564478397369e-03
-1.211660578846931458e-01
-1.684252917766571045e-01
-1.384938061237335205e-01
1.672019064426422119e-01
-7.262863963842391968e-02
-3.389914706349372864e-02
1.322686076164245605e-01
2.349509149789810181e-01
-1.325183361768722534e-01
-1.663634367287158966e-02
-8.259253203868865967e-02
1.050625368952751160e-01
1.507183760404586792e-01
2.281591482460498810e-02
2.130349427461624146e-01
1.377266496419906616e-01
1.547564566135406494e-01
-1.250704377889633179e-02
-1.792660355567932129e-01
-1.348854787647724152e-02
-1.343979388475418091e-01
1.267084181308746338e-01
1.133758276700973511e-01
-6.344836950302124023e-02
1.528273820877075195e-01
1.053569018840789795e-01
1.154930591583251953e-01
-1.258855015039443970e-01
-8.000361919403076172e-02
4.411792010068893433e-02
6.825399398803710938e-02
-1.544300913810729980e-01
1.199373677372932434e-01
-5.973704531788825989e-02
8.289796859025955200e-02
-1.772321760654449463e-01
-1.370077114552259445e-02
2.280756086111068726e-02
8.045739680528640747e-02
-1.640427410602569580e-01
-2.007829397916793823e-01
-2.239737212657928467e-01
-2.235665917396545410e-01
1.203366741538047791e-01
-8.671984076499938965e-02
4.728355258703231812e-02
1.363249272108078003e-01
1.659938544034957886e-01
-4.193882271647453308e-02
6.681331992149353027e-02
1.578299850225448608e-01
2.168162018060684204e-01
-1.202691644430160522e-01
-1.056170673109591007e-03
1.636963188648223877e-01
1.056937351822853088e-01
-9.157907217741012573e-02
-1.027664393186569214e-01
-1.068921983242034912e-01
1.792483031749725342e-01
-6.394759565591812134e-02
-1.066696122288703918e-01
7.489549368619918823e-02
1.308829635381698608e-01
2.274208143353462219e-02
-5.660218000411987305e-02
1.698900014162063599e-01
-2.019334584474563599e-01
-8.723324537277221680e-02
1.487480401992797852e-01
-2.703026495873928070e-02
9.458154439926147461e-02
-1.486393511295318604e-01
1.545200347900390625e-01
1.340312510728836060e-02
4.387639462947845459e-02
-1.836612969636917114e-01
1.882159262895584106e-01
-2.911337651312351227e-02
-5.312949046492576599e-02
1.464043557643890381e-02
-7.974754273891448975e-02
-1.063795015215873718e-01
8.239844813942909241e-03
-1.831392496824264526e-01
1.058867871761322021e-01
1.519382447004318237e-01
8.172219991683959961e-02
-2.481111697852611542e-02
-1.979400068521499634e-01
-9.279675781726837158e-02
-1.448733173310756683e-02
-7.637543231248855591e-02
9.887238591909408569e-02
-1.304225772619247437e-01
8.421723544597625732e-02
-2.079502493143081665e-01
1.580817252397537231e-01
3.736007260158658028e-03
8.817114681005477905e-02
1.353358626365661621e-01
-1.361325532197952271e-01
1.791430413722991943e-01
1.417864710092544556e-01
-8.815603703260421753e-02
-1.507411804050207138e-02
-1.002212241291999817e-01
-2.167965658009052277e-02
-1.480950415134429932e-01
-1.585012972354888916e-01
-2.345117628574371338e-01
5.123852752149105072e-03
-1.371695566922426224e-02
-1.376602947711944580e-01
5.699235945940017700e-03
2.549365460872650146e-01
-2.133966833353042603e-01
1.622963324189186096e-02
-2.160495370626449585e-01
1.855382174253463745e-01
-3.530768677592277527e-02
-1.610593646764755249e-01
5.155763775110244751e-02
1.039930135011672974e-01
-2.236170470714569092e-01
-5.660590901970863342e-02
8.831205219030380249e-02
-5.075635761022567749e-02
8.312226831912994385e-02
9.215121716260910034e-02
1.269811391830444336e-01
9.595265984535217285e-02
-4.749262705445289612e-02
-7.395578548312187195e-03
8.788310736417770386e-02
2.115693241357803345e-01
-1.147900745272636414e-01
-2.904219925403594971e-02
6.877715885639190674e-02
-1.786254793405532837e-01
-1.943607628345489502e-01
2.088068723678588867e-01
2.760984189808368683e-02
3.771894797682762146e-02
-1.563301682472229004e-01
1.586073487997055054e-01
-1.405457258224487305e-01
1.180439372546970844e-03
1.276495307683944702e-01
8.394383639097213745e-02
2.143665216863155365e-02
-1.217164099216461182e-01
-1.040882691740989685e-01
-7.073623687028884888e-02
-1.137926988303661346e-02
7.202000916004180908e-02
-6.224863603711128235e-02
1.469169557094573975e-01
6.804955750703811646e-02
4.516750201582908630e-02
-1.203541923314332962e-02
9.150274842977523804e-02
-1.033348664641380310e-01
-1.650209277868270874e-01
1.067820936441421509e-01
-2.159743010997772217e-01
2.256109751760959625e-02
1.470314413309097290e-01
-5.264540389180183411e-02
-2.076888829469680786e-01
1.950920969247817993e-01
6.323137134313583374e-02
2.349217049777507782e-02
1.582489162683486938e-02
-2.448715828359127045e-02
-1.474210917949676514e-01
-1.222462877631187439e-01
1.236695423722267151e-01
-1.023014560341835022e-01
1.598616838455200195e-01
7.843527197837829590e-02
2.136488407850265503e-01
7.338618487119674683e-02
1.021180115640163422e-02
8.815838024020195007e-03
2.849063873291015625e-01
