-1.730355918407440186e-01
6.360948085784912109e-02
-1.478146016597747803e-01
2.750663757324218750e-01
-1.986657679080963135e-01
1.290604323148727417e-01
-7.643231749534606934e-02
-1.587747782468795776e-01
-2.513429224491119385e-01
-7.790099829435348511e-03
4.387245699763298035e-02
-7.368770241737365723e-02
2.114721834659576416e-01
-5.174852535128593445e-02
-1.320584863424301147e-01
-5.309575796127319336e-02
9.210619144141674042e-03
5.969205126166343689e-02
1.370539069175720215e-01
-1.954957097768783569e-01
-1.935805976390838623e-01
2.383018881082534790e-01
2.422697991132736206e-01
-6.211815029382705688e-02
1.653525531291961670e-01
-1.979487836360931396e-01
-5.820722877979278564e-02
-2.380297780036926270e-01
-2.901680171489715576e-01
-9.245238266885280609e-03
-4.819925874471664429e-02
-4.660119861364364624e-02
2.869757115840911865e-01
-1.593689769506454468e-01
-2.389332093298435211e-02
1.757210642099380493e-01
-1.572279930114746094e-01
2.625898718833923340e-01
1.968524903059005737e-01
-7.389070838689804077e-02
-8.339213207364082336e-03
-3.141526132822036743e-02
-6.253884732723236084e-02
1.662437021732330322e-01
2.632316946983337402e-01
-2.181037217378616333e-01
-1.815679669380187988e-01
1.449708342552185059e-01
1.194247156381607056e-01
6.442748755216598511e-02
1.088465079665184021e-01
2.394808530807495117e-01
1.129485890269279480e-01
-2.416865527629852295e-01
2.619663812220096588e-02
2.055938094854354858e-01
-1.666405797004699707e-02
1.007130667567253113e-01
7.655908912420272827e-02
3.332815691828727722e-02
-2.214376777410507202e-01
2.734836637973785400e-01
2.830669470131397247e-02
-2.089545130729675293e-01
-1.785090267658233643e-01
1.470670402050018311e-01
2.531796395778656006e-01
-1.191927567124366760e-01
2.766639590263366699e-01
-1.194035410881042480e-01
3.169608488678932190e-02
-3.291224315762519836e-02
-2.738326489925384521e-01
-2.227953076362609863e-01
-1.402072310447692871e-01
-1.223226040601730347e-01
2.327148020267486572e-01
-1.101139113306999207e-01
-2.134522199630737305e-01
-6.760632246732711792e-02
-9.009084105491638184e-02
1.476052403450012207e-01
1.410011500120162964e-01
-1.477763950824737549e-01
-6.740204989910125732e-02
3.274068236351013184e-01
1.917190998792648315e-01
-2.542193233966827393e-01
-5.956923961639404297e-02
2.727268263697624207e-02
2.196988910436630249e-01
-2.292681336402893066e-01
1.287525594234466553e-01
-2.934570610523223877e-01
2.787233591079711914e-01
-2.031750045716762543e-02
-2.961755096912384033e-01
-6.747384369373321533e-02
1.474124938249588013e-01
3.336406499147415161e-02
-9.875827282667160034e-02
-2.930123805999755859e-01
-1.486293375492095947e-01
4.233517870306968689e-02
2.883054316043853760e-01
-8.051512390375137329e-02
1.909485459327697754e-01
1.127909347414970398e-01
-2.125560641288757324e-01
-1.835039407014846802e-01
7.553712930530309677e-03
3.626015968620777130e-04
2.733497023582458496e-01
7.714187260717153549e-03
4.880433436483144760e-03
-1.484719663858413696e-01
-1.715654730796813965e-01
2.627362608909606934e-01
5.602359771728515625e-02
1.649278849363327026e-01
1.768466532230377197e-01
3.675873577594757080e-02
-2.786187231540679932e-01
1.148877218365669250e-01
7.008833438158035278e-02
-1.082525774836540222e-01
1.439851671457290649e-01
-8.639799803495407104e-02
7.888881862163543701e-02
-2.078023850917816162e-01
2.737898230552673340e-01
-8.834546804428100586e-02
1.482981741428375244e-01
9.717505425214767456e-02
2.886999547481536865e-01
2.154325693845748901e-02
1.128479614853858948e-01
-2.572907209396362305e-01
-2.703076414763927460e-02
5.840183794498443604e-02
-4.111683368682861328e-02
1.182662770152091980e-01
-1.346976608037948608e-01
-1.530700773000717163e-01
1.144316121935844421e-01
2.328351587057113647e-01
-1.278819441795349121e-01
1.612051129341125488e-01
3.366299346089363098e-02
3.417109698057174683e-02
-1.828377991914749146e-01
-4.543890058994293213e-02
-1.599949896335601807e-01
2.544492781162261963e-01
9.674758464097976685e-02
-1.572058051824569702e-01
-1.480232179164886475e-01
-1.002036035060882568e-01
7.842814177274703979e-02
8.544870465993881226e-02
-2.396111786365509033e-01
-8.617115765810012817e-02
1.807850301265716553e-01
1.406634449958801270e-01
-2.204758822917938232e-01
-1.745824664831161499e-01
-2.539338730275630951e-02
-9.933318942785263062e-02
-1.067233383655548096e-01
-1.074870303273200989e-01
7.791863381862640381e-02
7.700615562498569489e-03
1.404981464147567749e-01
-5.217995867133140564e-02
1.592942923307418823e-01
-4.141617938876152039e-02
1.790558695793151855e-01
-2.149106711149215698e-01
-4.347854480147361755e-02
-2.544592618942260742e-01
1.664324402809143066e-01
5.103211477398872375e-02
-2.387779653072357178e-01
2.085352838039398193e-01
-2.853453159332275391e-01
-1.584533303976058960e-01
1.025581732392311096e-01
-1.176568586379289627e-02
1.094494313001632690e-01
-2.108583748340606689e-01
-1.817184984683990479e-01
1.911922395229339600e-01
-1.498138010501861572e-01
1.587343961000442505e-02
1.267036944627761841e-01
-3.484608232975006104e-02
-1.547102630138397217e-01
-5.801748111844062805e-02
-2.747251987457275391e-01
2.102722674608230591e-01
-5.125429481267929077e-02
7.140634953975677490e-02
1.139703020453453064e-01
-1.802093833684921265e-01
-1.460762172937393188e-01
4.842754825949668884e-02
-1.624154299497604370e-01
-2.255843728780746460e-01
-9.642974287271499634e-02
2.204770445823669434e-01
6.215930357575416565e-02
2.289843261241912842e-01
1.277026236057281494e-01
4.091761633753776550e-02
8.536592125892639160e-03
5.637956317514181137e-03
-1.113527789711952209e-01
3.322478849440813065e-03
1.647514104843139648e-01
1.610801070928573608e-01
-1.046262234449386597e-01
-4.109013453125953674e-02
-1.888830214738845825e-01
1.508330106735229492e-01
1.129271909594535828e-01
-1.387636214494705200e-01
2.011337578296661377e-01
-1.398500204086303711e-01
6.485103070735931396e-02
4.897144809365272522e-02
-5.554939433932304382e-02
1.369137596338987350e-02
7.450032979249954224e-02
-1.939194053411483765e-01
7.580405473709106445e-02
-1.433465778827667236e-01
-5.779819935560226440e-02
1.445028185844421387e-02
-8.477875590324401855e-02
-6.931428611278533936e-02
1.165839657187461853e-01
5.072807148098945618e-02
9.921614080667495728e-02
-6.170647218823432922e-02
1.364047527313232422e-01
-2.455125153064727783e-01
-1.486276835203170776e-01
-1.802399158477783203e-01
-2.321484684944152832e-01
-2.029339820146560669e-01
5.464870855212211609e-02
7.267967332154512405e-03
1.564093828201293945e-01
-1.128868758678436279e-01
6.845546513795852661e-02
-1.547054052352905273e-01
1.265925914049148560e-01
5.848380550742149353e-02
-1.349257081747055054e-01
-9.182801097631454468e-02
2.283104807138442993e-01
5.356919765472412109e-02
1.112267673015594482e-01
5.386500805616378784e-02
-4.288442060351371765e-02
-6.095079332590103149e-02
-1.781146228313446045e-01
-1.078805699944496155e-01
1.962820440530776978e-01
2.894235849380493164e-01
6.349395215511322021e-02
-2.557080090045928955e-01
-1.106760278344154358e-01
-5.171660799533128738e-03
2.824516594409942627e-02
1.878845840692520142e-01
-2.433270663022994995e-01
8.684721589088439941e-02
2.646042220294475555e-02
1.938377320766448975e-01
-1.479439139366149902e-01
9.601087868213653564e-02
-1.755975931882858276e-01
2.238973975181579590e-02
-2.127779126167297363e-01
-2.886231839656829834e-01
1.702327430248260498e-01
2.355465739965438843e-01
-1.148162782192230225e-01
-1.233818233013153076e-01
1.574548333883285522e-01
2.059465348720550537e-01
-6.018461659550666809e-02
-1.372102797031402588e-01
-1.291895955801010132e-01
1.672086566686630249e-01
-1.631075441837310791e-01
-2.342434972524642944e-01
-1.409619748592376709e-01
2.046323418617248535e-01
-2.055240795016288757e-03
1.911764293909072876e-01
1.524873822927474976e-01
-2.560744881629943848e-01
7.295449823141098022e-02
-1.664971560239791870e-02
-1.944137066602706909e-01
1.726835370063781738e-01
6.886782590299844742e-03
7.428281754255294800e-02
9.667793661355972290e-02
1.585331410169601440e-01
1.802708953619003296e-01
1.037988625466823578e-02
-2.392495274543762207e-01
-1.003233119845390320e-01
9.760683029890060425e-02
-7.569961994886398315e-02
1.264849603176116943e-01
8.227007091045379639e-02
-2.183521687984466553e-01
-1.246359422802925110e-01
1.993468701839447021e-01
1.040513142943382263e-01
-8.208321779966354370e-02
1.252104640007019043e-01
1.717155575752258301e-01
4.648199304938316345e-02
-5.001388490200042725e-02
-2.571789920330047607e-01
1.834177076816558838e-01
-1.195310279726982117e-01
-1.431054919958114624e-01
9.001190960407257080e-02
8.782073110342025757e-02
1.128709614276885986e-01
-9.704682230949401855e-02
2.294373363256454468e-01
1.584030538797378540e-01
-9.163648635149002075e-02
2.294559478759765625e-01
1.349174678325653076e-01
-7.689667493104934692e-02
-2.164361476898193359e-01
-7.038251310586929321e-02
1.185717508196830750e-01
1.270327568054199219e-01
-2.151715103536844254e-03
-2.004807889461517334e-01
-2.432113140821456909e-01
1.270780116319656372e-01
-5.660886690020561218e-02
-2.398422360420227051e-01
-2.695883624255657196e-02
-2.432562559843063354e-01
4.594228416681289673e-02
-6.909960508346557617e-02
4.268885403871536255e-02
2.024783641099929810e-01
9.349429607391357422e-02
-8.947859704494476318e-02
-2.532412707805633545e-01
-1.648255735635757446e-01
2.150481939315795898e-01
-8.555111475288867950e-03
-8.831786364316940308e-02
-4.031853750348091125e-02
-9.442413598299026489e-02
-1.504247784614562988e-01
-1.556396782398223877e-01
-2.163613289594650269e-01
1.933700144290924072e-01
-1.140812039375305176e-01
1.598365902900695801e-01
-2.195677012205123901e-01
-1.287065260112285614e-02
-5.517498031258583069e-02
1.513836625963449478e-02
8.994279056787490845e-02
-8.389054238796234131e-02
-3.650091961026191711e-02
2.279094047844409943e-02
1.412099301815032959e-01
-1.452301144599914551e-01
2.066410481929779053e-01
1.843459308147430420e-01
2.166418731212615967e-01
-7.611149549484252930e-02
-1.689822971820831299e-01
1.908418536186218262e-01
-1.626162081956863403e-01
-1.905082017183303833e-01
-9.090817719697952271e-02
-1.225370839238166809e-01
1.706111133098602295e-01
2.088260501623153687e-01
9.041494876146316528e-02
-2.460544109344482422e-01
1.104411259293556213e-01
-1.885606050491333008e-01
1.492211818695068359e-01
2.667174339294433594e-01
2.039091736078262329e-01
2.019443362951278687e-02
1.798789352178573608e-01
4.781867843121290207e-03
1.720670461654663086e-01
-1.503122746944427490e-01
-1.373782157897949219e-01
-6.838858127593994141e-02
1.266553699970245361e-01
8.872914314270019531e-02
2.344667445868253708e-03
-2.400706857442855835e-01
-1.096251979470252991e-01
1.265864670276641846e-01
-8.123799413442611694e-02
-2.030028700828552246e-01
-1.489717066287994385e-01
-1.652310341596603394e-01
-1.418983489274978638e-01
-2.329169362783432007e-01
-1.375944763422012329e-01
2.037965655326843262e-01
-2.410613745450973511e-02
-4.233638197183609009e-02
1.458314806222915649e-01
3.247623890638351440e-02
-3.410891443490982056e-02
1.047992706298828125e-01
-2.399626187980175018e-02
-9.043685346841812134e-02
-3.380456939339637756e-02
1.808006912469863892e-01
8.570976555347442627e-03
-3.194306278601288795e-03
-1.316686570644378662e-01
-4.460124671459197998e-02
-1.564609706401824951e-01
2.179141789674758911e-01
1.996853947639465332e-01
1.500916928052902222e-01
1.824855688028037548e-03
2.656072974205017090e-01
5.650728568434715271e-02
-1.882808357477188110e-01
1.897039636969566345e-02
2.265384942293167114e-01
-1.532008647918701172e-01
-6.724757701158523560e-02
-2.407748699188232422e-01
-1.504427790641784668e-01
-1.543008387088775635e-01
1.309010013937950134e-02
-7.788696140050888062e-02
-5.991298332810401917e-02
4.087448865175247192e-02
-2.288518100976943970e-01
-4.867804795503616333e-02
-3.364745900034904480e-02
-1.239291355013847351e-01
-1.433164905756711960e-02
-1.415374130010604858e-01
4.280677530914545059e-03
-2.000875622034072876e-01
7.945193350315093994e-02
1.637995392084121704e-01
1.866693496704101562e-01
-1.696498095989227295e-01
-2.189787626266479492e-01
1.041399538516998291e-01
7.317802403122186661e-03
-1.710624396800994873e-01
5.410014837980270386e-02
2.225635051727294922e-01
1.607851833105087280e-01
1.928082108497619629e-01
1.374440342187881470e-01
1.537853628396987915e-01
-1.574506908655166626e-01
1.091293245553970337e-01
-6.374408304691314697e-02
-1.828127652406692505e-01
-1.044258847832679749e-02
6.530237942934036255e-02
2.539313435554504395e-01
2.391896396875381470e-01
1.980431973934173584e-01
5.459898151457309723e-03
1.667583286762237549e-01
-4.277522116899490356e-02
2.010077238082885742e-01
-1.492449790239334106e-01
2.174932062625885010e-01
2.310191988945007324e-01
1.736322343349456787e-01
2.293699383735656738e-01
1.697905957698822021e-01
-9.700309485197067261e-02
2.343595772981643677e-01
-5.559414252638816833e-02
7.981591857969760895e-03
2.106488198041915894e-01
1.123817265033721924e-01
-9.728436917066574097e-02
-1.302755326032638550e-01
-6.757976859807968140e-02
1.292508244514465332e-01
1.577700525522232056e-01
1.718135327100753784e-01
3.409895673394203186e-02
-1.456555873155593872e-01
-9.422680735588073730e-02
1.743279099464416504e-01
-3.357413783669471741e-02
9.221403300762176514e-02
-8.209920674562454224e-02
1.606847345829010010e-01
6.396579742431640625e-02
-5.658960342407226562e-02
2.343830168247222900e-01
1.469913721084594727e-01
-3.595020389184355736e-03
7.956946641206741333e-02
-1.799273788928985596e-01
1.939150691032409668e-01
2.272877246141433716e-01
2.156648188829421997e-01
2.843133546411991119e-02
1.962732225656509399e-01
-2.150011248886585236e-02
1.297168135643005371e-01
-1.927332431077957153e-01
-1.959351599216461182e-01
-2.017793059349060059e-01
1.664237827062606812e-01
-1.969841122627258301e-01
1.570455282926559448e-01
9.485297650098800659e-02
-2.163069322705268860e-02
-1.485754996538162231e-01
-7.657597959041595459e-02
2.453254535794258118e-03
-1.226810831576585770e-02
-1.712880879640579224e-01
-8.772675693035125732e-02
-6.136245280504226685e-02
1.174342185258865356e-01
1.710065752267837524e-01
-8.148557692766189575e-02
-1.742577850818634033e-01
-8.744419366121292114e-02
1.436659544706344604e-01
2.300243079662322998e-01
-1.226949505507946014e-02
3.244570270180702209e-02
6.961505115032196045e-02
5.643466487526893616e-02
1.470386981964111328e-01
5.122011527419090271e-02
2.114760577678680420e-01
-1.270992308855056763e-02
-2.041609883308410645e-01
-1.021610051393508911e-01
1.890709847211837769e-01
2.073376774787902832e-01
-1.927584558725357056e-01
2.122775316238403320e-01
-2.134815305471420288e-01
1.772275418043136597e-01
-2.291033715009689331e-01
1.903159022331237793e-01
-1.337240934371948242e-01
-6.206129863858222961e-02
1.126609519124031067e-01
6.316976249217987061e-02
1.069837883114814758e-01
-8.164157718420028687e-02
-1.469813585281372070e-01
1.661202609539031982e-01
2.243602722883224487e-01
2.001489102840423584e-01
-2.459360659122467041e-01
-7.397618889808654785e-02
-6.042986363172531128e-02
-1.101833358407020569e-01
1.757195293903350830e-01
-1.828875988721847534e-01
-3.299856930971145630e-02
7.871600985527038574e-02
-3.794864937663078308e-02
-2.482541501522064209e-01
1.468947902321815491e-02
-1.397307664155960083e-01
2.319607697427272797e-02
-8.376180380582809448e-02
-2.625187337398529053e-01
2.194226980209350586e-01
-2.637757956981658936e-01
-1.691412180662155151e-01
2.947559058666229248e-01
-4.466382414102554321e-02
-7.728170603513717651e-02
-2.069887518882751465e-01
1.961140334606170654e-01
-1.868503913283348083e-02
-3.296270966529846191e-02
-1.921827942132949829e-01
-6.679715961217880249e-02
9.963355958461761475e-02
7.613949477672576904e-02
-2.989688701927661896e-02
2.613556087017059326e-01
-7.585716899484395981e-03
-1.252940446138381958e-01
-1.593153476715087891e-01
1.588604152202606201e-01
-1.595605723559856415e-02
1.444741040468215942e-01
1.145433261990547180e-01
-2.301454991102218628e-01
-5.391134694218635559e-02
-2.543467581272125244e-01
-8.994593471288681030e-02
-1.690822243690490723e-01
2.571990713477134705e-02
-2.221500724554061890e-01
1.553087029606103897e-02
1.077696010470390320e-01
-2.021069824695587158e-01
1.719338148832321167e-01
1.117365583777427673e-01
-4.919273406267166138e-02
2.592643201351165771e-01
1.658304035663604736e-01
-1.913381069898605347e-01
2.302581518888473511e-01
2.556736171245574951e-01
1.645484715700149536e-01
1.689563393592834473e-01
-4.895760118961334229e-02
-5.785521864891052246e-02
-1.764103397727012634e-02
-6.463920325040817261e-02
-3.222899883985519409e-02
2.017381638288497925e-01
1.971693336963653564e-01
-1.362125426530838013e-01
-2.081568539142608643e-01
1.531437784433364868e-01
5.153282359242439270e-02
1.056583225727081299e-01
-2.230473458766937256e-01
4.307074844837188721e-02
1.422840058803558350e-01
6.917906552553176880e-02
4.758577421307563782e-02
-2.206356823444366455e-01
-2.063868045806884766e-01
-4.718755371868610382e-03
-1.735414415597915649e-01
-7.820263504981994629e-02
-2.006806731224060059e-01
-8.162636309862136841e-02
-9.211237728595733643e-02
-4.135698825120925903e-02
1.567507386207580566e-01
1.510021835565567017e-01
8.930601179599761963e-03
-1.548636853694915771e-01
2.683836966753005981e-02
-1.056095585227012634e-01
2.207545191049575806e-01
-1.906097680330276489e-01
1.134167537093162537e-01
-1.223704293370246887e-01
1.080459654331207275e-01
1.889571845531463623e-01
1.691620051860809326e-01
-1.263902038335800171e-01
-9.287184476852416992e-02
2.246140986680984497e-01
-1.750241070985794067e-01
2.027948498725891113e-01
2.093450129032135010e-01
-3.428350761532783508e-02
2.492585331201553345e-01
-5.081416107714176178e-03
2.000252604484558105e-01
-8.922845125198364258e-03
-1.159045845270156860e-01
9.678581357002258301e-02
-1.637374460697174072e-01
-1.177261099219322205e-01
-1.598350256681442261e-01
3.801372647285461426e-02
1.634267121553421021e-01
4.684983938932418823e-02
1.830143481492996216e-01
-3.557633981108665466e-02
1.791611164808273315e-01
1.168061867356300354e-01
-9.177093207836151123e-02
-7.800655066967010498e-02
1.752047799527645111e-02
-1.386732161045074463e-01
1.113930493593215942e-01
-1.838110238313674927e-01
-3.304651007056236267e-02
8.176632225513458252e-02
-1.635709963738918304e-02
6.781916320323944092e-02
-9.321541339159011841e-02
-1.384461373090744019e-01
-8.812263607978820801e-02
-2.207560539245605469e-01
1.318901330232620239e-01
-1.501042097806930542e-01
1.978872120380401611e-01
2.561536803841590881e-02
-7.270696014165878296e-02
3.738492354750633240e-02
3.107196465134620667e-02
-9.251831471920013428e-02
1.038297340273857117e-01
1.574841439723968506e-01
1.975656598806381226e-01
1.515311151742935181e-01
-2.214549481868743896e-01
-9.464918822050094604e-02
-1.857665926218032837e-01
-7.347738742828369141e-02
-8.828002959489822388e-02
2.359841018915176392e-01
2.114643156528472900e-01
-6.125533208250999451e-02
-1.790928393602371216e-01
-1.440255790948867798e-01
-1.616122573614120483e-01
6.874848902225494385e-02
-1.394586414098739624e-01
-2.359186299145221710e-03
-1.508064717054367065e-01
-1.834538877010345459e-01
1.142930090427398682e-01
-1.776162087917327881e-01
-8.817524462938308716e-02
-1.134164184331893921e-01
2.240130156278610229e-01
-1.436313837766647339e-01
-6.255151331424713135e-02
-2.013754397630691528e-01
9.932025521993637085e-02
1.500257253646850586e-01
-1.840769201517105103e-01
5.062801018357276917e-02
3.396786004304885864e-02
-1.948189735412597656e-01
2.314030528068542480e-01
2.261080145835876465e-01
9.939415007829666138e-02
1.393139082938432693e-02
-4.977460578083992004e-02
1.656568497419357300e-01
1.857057660818099976e-01
-2.050019055604934692e-01
1.219118833541870117e-01
3.777247387915849686e-03
-5.896061658859252930e-02
-2.767679095268249512e-01
-5.302597209811210632e-02
-1.573458462953567505e-01
1.403720974922180176e-01
2.059010714292526245e-01
4.973762109875679016e-02
-1.854819357395172119e-01
-2.493443340063095093e-01
-2.403817139565944672e-02
-8.302012085914611816e-02
2.039974555373191833e-02
-1.130457594990730286e-01
-2.803107202053070068e-01
2.381135970354080200e-01
2.201712429523468018e-01
-2.583691179752349854e-01
1.732132583856582642e-01
-4.178919829428195953e-03
1.290844380855560303e-01
-1.211259737610816956e-01
6.935539841651916504e-02
2.020826488733291626e-01
-5.912503972649574280e-02
-1.969012618064880371e-01
2.949184924364089966e-02
-8.259265683591365814e-03
-2.658060789108276367e-01
-2.765468657016754150e-01
-2.196289747953414917e-01
-7.284611463546752930e-02
1.584638804197311401e-01
1.350275427103042603e-01
7.065488025546073914e-03
-1.704158931970596313e-01
2.648611366748809814e-02
4.157791659235954285e-02
-2.594440877437591553e-01
-2.204125821590423584e-01
-1.542031913995742798e-01
9.954331070184707642e-02
-2.712189257144927979e-01
-2.126660943031311035e-02
-2.616493105888366699e-01
-2.054047137498855591e-01
3.113110065460205078e-01
9.776820987462997437e-02
-2.247888147830963135e-01
-4.390359297394752502e-02
2.029742896556854248e-01
-5.763867497444152832e-02
1.735004968941211700e-02
-2.515471167862415314e-02
-1.065863147377967834e-01
-4.565082956105470657e-03
-2.305352687835693359e-01
-3.334734961390495300e-02
-1.527947932481765747e-01
-1.179977282881736755e-01
2.844918370246887207e-01
-1.302827298641204834e-01
4.523443430662155151e-02
1.988340020179748535e-01
-1.461472362279891968e-01
-9.758075326681137085e-02
-4.431912302970886230e-02
-1.729902327060699463e-01
-4.277630522847175598e-02
8.046516776084899902e-02
-1.679603457450866699e-01
2.487073987722396851e-01
-5.800817534327507019e-02
1.064485162496566772e-01
-2.756494879722595215e-01
-1.013912335038185120e-01
-9.227065742015838623e-02
-1.625289171934127808e-01
1.826670765876770020e-01
-1.302031725645065308e-01
1.468926519155502319e-01
-5.708193033933639526e-02
-1.348377615213394165e-01
-2.641283273696899414e-01
1.891833841800689697e-01
-9.752425551414489746e-02
-2.590955495834350586e-01
-1.327686458826065063e-01
8.568813651800155640e-02
4.748976975679397583e-02
-1.314433962106704712e-01
1.715737432241439819e-01
2.178202867507934570e-01
-5.904594063758850098e-02
5.640961229801177979e-02
3.708362206816673279e-02
1.965567320585250854e-01
-2.649718336760997772e-02
7.041511684656143188e-02
4.415722191333770752e-02
1.261728852987289429e-01
-2.272624373435974121e-01
2.263282053172588348e-02
2.221553921699523926e-01
-1.012143269181251526e-01
2.070217430591583252e-01
1.303682029247283936e-01
-1.162242367863655090e-01
-1.024791374802589417e-01
-1.170448884367942810e-01
8.726130425930023193e-02
2.134797424077987671e-01
8.021055161952972412e-02
-1.204870641231536865e-02
1.185063421726226807e-01
-1.623783409595489502e-01
-1.185740754008293152e-01
-2.549280226230621338e-01
-1.874319463968276978e-02
-9.070686995983123779e-02
-1.095691621303558350e-01
-3.718180814757943153e-03
-1.151854023337364197e-01
-1.641303151845932007e-01
-4.858472570776939392e-02
1.417258977890014648e-01
-1.582354754209518433e-01
1.612908691167831421e-01
-2.409341037273406982e-01
1.650201082229614258e-01
-1.863245815038681030e-01
-2.593145668506622314e-01
-1.998498141765594482e-01
-5.129530280828475952e-02
6.468625366687774658e-02
-9.458220750093460083e-02
1.694378405809402466e-01
2.297412604093551636e-01
-2.168332785367965698e-02
-2.394713461399078369e-02
9.090165793895721436e-02
-1.986918300390243530e-01
-3.777722269296646118e-02
1.024442464113235474e-01
3.112098947167396545e-02
1.308173090219497681e-01
7.561132311820983887e-02
-7.164930552244186401e-02
-6.083291769027709961e-02
-8.301088213920593262e-02
-2.088146805763244629e-01
-1.391118764877319336e-01
-2.250914424657821655e-01
-1.346978098154067993e-01
-2.412050217390060425e-01
-8.820004761219024658e-02
-1.491201668977737427e-01
-1.100329235196113586e-01
6.612830609083175659e-02
7.065502554178237915e-02
6.636985391378402710e-02
7.931689918041229248e-02
8.488618582487106323e-02
1.860913485288619995e-01
-1.615381985902786255e-01
-1.884997189044952393e-01
-1.639711260795593262e-01
3.566494584083557129e-02
2.172937244176864624e-01
3.838917007669806480e-03
-1.243628486990928650e-01
1.405246406793594360e-01
-2.039984017610549927e-01
3.288758918642997742e-02
-7.384149730205535889e-02
5.294067412614822388e-02
-5.757329240441322327e-02
-2.776151299476623535e-01
1.563639640808105469e-01
-2.226128429174423218e-01
2.897560000419616699e-01
-1.120101436972618103e-01
-3.045604825019836426e-01
-6.851459294557571411e-02
1.487683802843093872e-01
-1.146135255694389343e-01
-4.268474876880645752e-02
-1.765919923782348633e-01
1.873722076416015625e-01
1.718087494373321533e-01
-7.448676228523254395e-02
-8.991928398609161377e-02
-1.252793222665786743e-01
1.013639569282531738e-01
8.295501768589019775e-02
1.379406005144119263e-01
-1.064398437738418579e-01
-2.143614888191223145e-01
-2.575450539588928223e-01
1.582343727350234985e-01
-6.955365836620330811e-02
1.136169731616973877e-01
-3.884141892194747925e-02
-6.104702129960060120e-02
-6.529612094163894653e-02
6.520430743694305420e-02
-2.045636773109436035e-01
1.376156136393547058e-02
2.049382627010345459e-01
1.440785266458988190e-02
5.636564642190933228e-02
-2.542387545108795166e-01
9.920651465654373169e-02
-1.097089238464832306e-02
-1.169764846563339233e-01
1.558657288551330566e-01
1.396785080432891846e-01
-1.885217130184173584e-01
1.719090342521667480e-01
-8.836115151643753052e-02
-5.255789682269096375e-02
2.600238099694252014e-02
-1.706881225109100342e-01
1.629068851470947266e-01
1.937650442123413086e-01
6.153073906898498535e-02
1.820963025093078613e-01
3.961438313126564026e-02
8.734812960028648376e-03
-1.603964716196060181e-01
1.760846525430679321e-01
-2.353183738887310028e-02
-3.053403273224830627e-02
1.114510297775268555e-01
9.324279427528381348e-02
-1.094600036740303040e-01
2.020110189914703369e-02
-9.223589301109313965e-02
1.119275838136672974e-01
-1.396234631538391113e-01
-1.135454922914505005e-01
-1.067489609122276306e-01
1.086298376321792603e-02
1.701959073543548584e-01
1.472411602735519409e-01
1.486798226833343506e-01
1.032787710428237915e-01
1.313237249851226807e-01
1.786400079727172852e-01
1.822127401828765869e-01
-3.204730898141860962e-02
-6.960505247116088867e-02
1.793033182621002197e-01
1.526267081499099731e-01
-1.352405548095703125e-01
1.302617136389017105e-02
1.642393618822097778e-01
4.363760352134704590e-02
4.605165868997573853e-02
-1.600658446550369263e-01
2.014776617288589478e-01
1.369476020336151123e-01
-2.443273067474365234e-01
2.781222164630889893e-01
-4.277556668967008591e-03
-1.197200641036033630e-02
-7.969015091657638550e-02
-5.142557248473167419e-02
-1.571443048305809498e-03
-1.196805462241172791e-01
1.277589201927185059e-01
2.990932948887348175e-02
1.564354151487350464e-01
1.210964843630790710e-01
1.521584540605545044e-01
-3.289296850562095642e-02
-5.503179877996444702e-02
-1.832257658243179321e-01
-1.368738114833831787e-01
1.691468954086303711e-01
-1.391629874706268311e-02
-6.176052615046501160e-02
1.260005496442317963e-02
7.034021615982055664e-02
-1.055542677640914917e-01
1.573380380868911743e-01
-6.159042194485664368e-02
-1.113543361425399780e-01
2.516610920429229736e-01
-6.459360569715499878e-02
-2.569873332977294922e-01
-2.239408046007156372e-01
-7.955032587051391602e-02
-1.348496675491333008e-01
7.797656208276748657e-02
-1.408851444721221924e-01
-1.857650578022003174e-01
5.731852725148200989e-02
-9.161692857742309570e-02
4.137827455997467041e-02
2.168585956096649170e-01
1.509995013475418091e-01
1.055408939719200134e-01
-4.470482096076011658e-02
2.713085617870092392e-03
2.395407110452651978e-01
-1.755335740745067596e-02
3.495631041005253792e-03
-3.499416634440422058e-02
-5.500204861164093018e-02
-5.741254240274429321e-02
-1.943816803395748138e-02
-1.896622776985168457e-01
-2.246649116277694702e-01
1.072702035307884216e-01
1.512059122323989868e-01
-2.072391472756862640e-02
1.327077448368072510e-01
-1.194153819233179092e-02
1.401245445013046265e-01
-7.757402956485748291e-02
1.883239299058914185e-01
-6.748937070369720459e-02
-1.731677167117595673e-02
-1.555887609720230103e-01
-1.806824803352355957e-01
-2.169086337089538574e-01
-2.032147943973541260e-01
-2.804475128650665283e-01
7.641868293285369873e-02
-1.548783034086227417e-01
2.030983567237854004e-01
5.225119367241859436e-02
2.994547188282012939e-01
-1.341904997825622559e-01
2.014014124870300293e-01
-1.322518587112426758e-01
-2.126284390687942505e-01
-2.331639453768730164e-02
1.644937507808208466e-02
9.379027038812637329e-02
2.030961960554122925e-01
1.744577139616012573e-01
2.293856739997863770e-01
-2.119557857513427734e-01
-2.052190452814102173e-01
-1.806501485407352448e-02
-1.550216525793075562e-01
1.827590540051460266e-02
2.642167806625366211e-01
1.128169819712638855e-01
-2.355266958475112915e-01
-1.251084506511688232e-01
-6.908052414655685425e-02
1.778725087642669678e-01
-1.616219431161880493e-01
-1.585623025894165039e-01
-8.785629272460937500e-02
2.690754532814025879e-01
3.200056552886962891e-01
-9.908624738454818726e-02
-2.544812560081481934e-01
2.405854463577270508e-01
-1.241121068596839905e-01
3.076531551778316498e-02
-2.113811299204826355e-02
-2.421032637357711792e-01
-1.595696359872817993e-01
2.283455431461334229e-01
-1.119771525263786316e-01
8.815765380859375000e-02
-2.027868293225765228e-02
-8.569005876779556274e-02
1.659302860498428345e-01
-1.539980154484510422e-02
3.102843761444091797e-01
1.177879422903060913e-01
2.625371515750885010e-01
-7.763261348009109497e-02
3.463487625122070312e-01
-1.626687943935394287e-01
-1.320977658033370972e-01
1.869467087090015411e-02
-1.828032135963439941e-01
-6.766987591981887817e-02
2.078134566545486450e-01
2.238831669092178345e-01
1.545068249106407166e-02
1.460177004337310791e-01
1.167544201016426086e-01
1.130959689617156982e-01
-7.271192222833633423e-02
-1.815624535083770752e-01
6.884641200304031372e-02
2.593482732772827148e-01
-2.832151651382446289e-01
1.497938483953475952e-01
-1.605830192565917969e-01
2.924177981913089752e-02
-4.521997272968292236e-02
-2.059796750545501709e-01
1.894134432077407837e-01
2.222959399223327637e-01
4.271598905324935913e-02
1.538458913564682007e-01
1.293013542890548706e-01
-6.916191428899765015e-03
-1.536645293235778809e-01
-6.932490319013595581e-02
1.872222572565078735e-01
6.412656605243682861e-02
2.650423943996429443e-01
-2.176818400621414185e-01
-1.541030704975128174e-01
-1.721649616956710815e-02
-3.830179572105407715e-02
-4.935764707624912262e-03
-8.052637800574302673e-03
1.983851194381713867e-01
-4.064469784498214722e-02
-7.133363932371139526e-02
3.432523831725120544e-02
-3.096768632531166077e-02
-1.915029585361480713e-01
1.543345600366592407e-01
1.243109181523323059e-01
1.003257185220718384e-01
-2.172783315181732178e-01
-2.588968873023986816e-01
-9.016816318035125732e-02
2.955652587115764618e-02
1.260020583868026733e-01
-1.435382068157196045e-01
-2.202979773283004761e-01
-4.698832985013723373e-03
1.919671148061752319e-01
2.577571272850036621e-01
-2.196076959371566772e-01
1.006514206528663635e-01
-4.408212751150131226e-02
1.184610277414321899e-02
2.164698392152786255e-01
-1.013648808002471924e-01
3.995317034423351288e-03
-1.915172040462493896e-01
-3.482444956898689270e-02
-1.347328126430511475e-01
5.832982808351516724e-02
4.034420102834701538e-02
2.622789144515991211e-01
-6.868457049131393433e-02
-8.257074281573295593e-03
-2.848081476986408234e-02
2.145450413227081299e-01
-1.565201021730899811e-02
-1.794337332248687744e-01
-1.038872152566909790e-01
-1.415891796350479126e-01
2.272707670927047729e-01
-1.253626346588134766e-01
1.351349502801895142e-01
1.177581865340471268e-02
-2.304342761635780334e-02
-1.867041438817977905e-01
3.786275163292884827e-02
1.314737051725387573e-01
-2.093802243471145630e-01
2.532966434955596924e-01
-2.320491224527359009e-01
1.700541079044342041e-01
1.130114495754241943e-01
6.360844522714614868e-02
-1.314478516578674316e-01
8.369339257478713989e-02
1.577656716108322144e-01
2.673999220132827759e-02
2.372847795486450195e-01
-1.599737405776977539e-01
-9.102592617273330688e-02
-1.471134871244430542e-01
2.909922301769256592e-01
1.564647108316421509e-01
1.630112528800964355e-01
-2.577565312385559082e-01
-5.064064264297485352e-02
1.926752924919128418e-01
5.504647642374038696e-02
-2.844495177268981934e-01
7.740464061498641968e-02
1.677855998277664185e-01
-2.506712377071380615e-01
-1.627934277057647705e-01
-1.097997650504112244e-01
3.150340914726257324e-01
-1.340692043304443359e-01
1.959235221147537231e-01
2.639501728117465973e-02
-7.250803709030151367e-02
-2.488638907670974731e-01
1.418320089578628540e-02
6.598515808582305908e-02
-1.944206953048706055e-01
-9.841450303792953491e-02
-1.731631308794021606e-01
1.710893064737319946e-01
-1.293706297874450684e-01
1.698280870914459229e-01
-1.728427857160568237e-01
1.344707310199737549e-01
-1.876245252788066864e-02
-1.518478542566299438e-01
-2.041431814432144165e-01
-1.919870376586914062e-01
-1.080190390348434448e-01
1.731529980897903442e-01
1.568117141723632812e-01
-4.630048945546150208e-02
1.729635596275329590e-01
2.139707654714584351e-01
1.814634054899215698e-01
-3.176511451601982117e-02
2.073998153209686279e-01
1.791183650493621826e-01
1.876623481512069702e-01
-6.529795378446578979e-02
7.599381729960441589e-03
-2.002038210630416870e-01
-3.798089921474456787e-02
-3.095130324363708496e-01
2.150739282369613647e-01
-1.963385939598083496e-01
-2.529308497905731201e-01
2.312978953123092651e-01
2.254177629947662354e-01
5.411263555288314819e-02
9.793640114367008209e-03
-1.197931692004203796e-01
2.519780695438385010e-01
-4.432640224695205688e-02
9.405108541250228882e-02
-3.912001475691795349e-02
1.215276718139648438e-01
1.826534867286682129e-01
-5.073515232652425766e-03
3.063438273966312408e-02
-2.860664129257202148e-01
1.924069225788116455e-01
4.840240254998207092e-02
2.510141432285308838e-01
-7.366038113832473755e-02
2.366536995396018028e-03
1.659331917762756348e-01
-1.322900652885437012e-01
1.656595468521118164e-01
2.205539681017398834e-02
-2.117119580507278442e-01
-3.005293756723403931e-02
-1.016002893447875977e-01
-9.946606308221817017e-02
-1.856617033481597900e-01
-2.372089028358459473e-01
-2.035612910985946655e-01
5.001983046531677246e-02
-5.198745522648096085e-03
2.393828779458999634e-01
2.553454339504241943e-01
-1.243137419223785400e-01
-9.940658509731292725e-02
3.035318851470947266e-02
1.835533417761325836e-02
-2.307988256216049194e-01
-1.287271231412887573e-01
6.471154093742370605e-02
-1.914031058549880981e-01
-2.032254338264465332e-01
-7.456044107675552368e-02
-2.729392796754837036e-02
-2.582640647888183594e-01
-1.022347249090671539e-02
-6.926842033863067627e-02
-1.621382534503936768e-01
-1.040771305561065674e-01
-1.542505025863647461e-01
-1.263002604246139526e-01
-2.367713749408721924e-01
4.856643453240394592e-02
-7.367916405200958252e-02
-6.813755631446838379e-02
-4.778398200869560242e-02
1.770354621112346649e-02
-1.292743086814880371e-01
3.363777324557304382e-02
1.925398707389831543e-01
-1.788252145051956177e-01
9.741767495870590210e-02
2.604165859520435333e-02
-6.846524029970169067e-02
1.265558451414108276e-01
1.537166982889175415e-01
-4.695207253098487854e-02
1.485447864979505539e-02
1.086521297693252563e-01
1.442743539810180664e-01
5.814142152667045593e-02
1.945538371801376343e-01
-1.110819354653358459e-01
-3.599905874580144882e-03
9.099505096673965454e-02
-1.506228744983673096e-01
1.207930371165275574e-01
-8.952978253364562988e-02
1.866270154714584351e-01
1.759101003408432007e-01
-7.955170422792434692e-02
1.464438885450363159e-01
-3.526646271347999573e-02
1.693226844072341919e-01
1.505828835070133209e-02
-6.918323785066604614e-02
-2.107871174812316895e-01
-1.746054179966449738e-02
2.160767763853073120e-01
-9.296742081642150879e-02
-4.470904543995857239e-02
-1.738602668046951294e-01
-5.484446138143539429e-02
-4.975654650479555130e-03
1.536092460155487061e-01
-8.014123886823654175e-02
1.436343789100646973e-01
2.382950857281684875e-02
-9.871477633714675903e-02
1.145123466849327087e-01
-1.171560585498809814e-01
1.965718530118465424e-02
-7.549779117107391357e-02
4.039266612380743027e-03
1.509877890348434448e-01
8.899598568677902222e-02
1.402607858180999756e-01
4.459065571427345276e-02
7.809790223836898804e-02
-1.054335162043571472e-01
3.343372792005538940e-02
-1.663464158773422241e-01
-1.169565878808498383e-02
2.984753996133804321e-02
8.779782056808471680e-02
-2.225979417562484741e-01
2.559548243880271912e-02
-9.067754447460174561e-02
5.806317180395126343e-02
-1.301985383033752441e-01
-1.896037757396697998e-01
-1.276778429746627808e-01
-1.475540399551391602e-01
1.946568042039871216e-01
-1.176192685961723328e-01
1.371864378452301025e-01
-1.452080439776182175e-02
4.469284787774085999e-02
-8.805288374423980713e-02
2.296451106667518616e-02
7.506687194108963013e-02
1.460039317607879639e-01
1.659097820520401001e-01
-1.463194936513900757e-01
9.572219103574752808e-02
2.703594043850898743e-02
2.323610633611679077e-01
1.494678854942321777e-01
-3.148142695426940918e-01
-1.448056381195783615e-02
1.318840980529785156e-01
-4.201025888323783875e-02
1.487362533807754517e-01
-1.347945034503936768e-01
-4.020571708679199219e-02
2.794674336910247803e-01
2.406218051910400391e-01
-4.522474482655525208e-02
-1.339236199855804443e-01
-4.308945685625076294e-02
-7.608946878463029861e-03
-8.963053673505783081e-02
1.469454914331436157e-01
-1.506590396165847778e-01
1.676348149776458740e-01
-7.079354953020811081e-03
-3.539647161960601807e-02
-4.104194045066833496e-02
5.834441632032394409e-02
2.068298310041427612e-02
-3.103204965591430664e-01
-1.579288989305496216e-01
-1.644260883331298828e-01
6.755615025758743286e-02
9.798800945281982422e-02
2.306408435106277466e-02
-7.067444920539855957e-02
1.063677743077278137e-01
-9.089458733797073364e-02
-1.240874901413917542e-01
2.447120612487196922e-03
1.818755567073822021e-01
-4.638443514704704285e-02
1.747983098030090332e-01
-3.518879786133766174e-02
2.416986376047134399e-01
-2.094202190637588501e-01
1.423013210296630859e-01
-5.037896707653999329e-02
2.095250487327575684e-01
-5.446581169962882996e-02
1.018948480486869812e-01
1.071423515677452087e-01
9.582887589931488037e-02
-2.417887151241302490e-01
1.619937717914581299e-01
9.183076769113540649e-02
2.277800291776657104e-01
-1.626664251089096069e-01
-3.746910393238067627e-02
2.158265709877014160e-01
-1.785959005355834961e-01
-1.739242821931838989e-01
6.813322752714157104e-02
-6.170582771301269531e-02
1.914666593074798584e-01
-1.819968372583389282e-01
1.506766527891159058e-01
-3.839160129427909851e-02
-6.005350127816200256e-02
1.027979105710983276e-01
4.809739068150520325e-02
3.944825381040573120e-02
1.880110353231430054e-01
-1.807158887386322021e-01
-2.310912907123565674e-01
4.461563751101493835e-02
1.243511736392974854e-01
1.024887859821319580e-01
-2.659376859664916992e-01
4.396409168839454651e-02
-2.129703313112258911e-01
-1.330068111419677734e-01
-1.402390450239181519e-01
-1.865829974412918091e-01
2.305519208312034607e-02
-1.905852109193801880e-01
1.503852009773254395e-01
-6.344465166330337524e-02
-5.713512375950813293e-02
2.093548178672790527e-01
1.386105567216873169e-01
6.377696245908737183e-02
6.154090538620948792e-02
8.828315138816833496e-02
3.754991665482521057e-02
1.663175076246261597e-01
3.082724101841449738e-02
-2.514729797840118408e-01
-1.732773333787918091e-01
1.010572686791419983e-01
-1.877692639827728271e-01
-1.398776937276124954e-02
1.008005626499652863e-02
-1.325382590293884277e-01
2.462330311536788940e-01
-4.348199814558029175e-02
4.239853844046592712e-02
-1.693140864372253418e-01
-8.439658582210540771e-02
-9.914644807577133179e-02
1.316523295827209949e-03
-1.616935431957244873e-01
1.427349895238876343e-01
5.015765503048896790e-02
-1.108381748199462891e-01
-1.443691104650497437e-01
3.027752973139286041e-02
1.448965538293123245e-02
-1.673986762762069702e-01
-1.566925495862960815e-01
-2.827606536448001862e-02
1.119007915258407593e-01
1.387336254119873047e-01
1.683008819818496704e-01
1.668137460947036743e-01
-8.552109450101852417e-02
2.420307248830795288e-01
2.136649638414382935e-01
9.939617663621902466e-02
6.906816270202398300e-03
5.848394334316253662e-02
-5.869545415043830872e-02
-1.093926206231117249e-01
-1.321333646774291992e-01
8.945047110319137573e-02
-3.253791853785514832e-02
-1.974541693925857544e-01
2.441739141941070557e-01
1.015476435422897339e-01
2.733307480812072754e-01
2.074859663844108582e-02
1.930143386125564575e-01
-7.315114140510559082e-03
7.600199431180953979e-02
-1.165178716182708740e-01
1.555659472942352295e-01
-1.633074581623077393e-01
1.221189051866531372e-01
-3.150357306003570557e-01
-7.416372187435626984e-03
-2.370131313800811768e-01
-1.619413942098617554e-01
-3.482914762571454048e-03
1.298182308673858643e-01
3.455602377653121948e-02
-1.783807426691055298e-01
1.051489859819412231e-01
-3.676714375615119934e-02
-3.673007711768150330e-02
5.200072377920150757e-02
1.939270049333572388e-01
-2.099394053220748901e-01
1.292705833911895752e-01
-1.412159651517868042e-01
1.432836987078189850e-02
1.357731372117996216e-01
-6.595516204833984375e-02
-7.871075719594955444e-02
1.011635288596153259e-01
-7.367663085460662842e-02
-1.671414077281951904e-01
3.442721208557486534e-03
2.498461753129959106e-01
-3.925715573132038116e-03
-1.526020020246505737e-01
1.158053949475288391e-01
-2.318895459175109863e-01
-1.729613393545150757e-01
1.873876154422760010e-01
-1.527685523033142090e-01
1.464751809835433960e-01
-1.558613684028387070e-02
1.380874812602996826e-01
-1.892416030168533325e-01
-8.672174811363220215e-02
1.653859205543994904e-02
-1.386547535657882690e-01
-1.377000212669372559e-01
-1.738781183958053589e-01
-1.986484974622726440e-01
-2.191824764013290405e-01
-9.265857189893722534e-02
-2.214412987232208252e-01
9.085008502006530762e-02
1.488907039165496826e-01
-3.351790085434913635e-02
1.506206691265106201e-01
2.352653890848159790e-01
-1.857674270868301392e-01
2.128675207495689392e-02
7.852242887020111084e-02
-1.635462194681167603e-01
3.043794333934783936e-01
2.437089830636978149e-01
-1.840913146734237671e-01
-9.331651777029037476e-02
-1.553864926099777222e-01
2.978350222110748291e-02
1.801642328500747681e-01
2.278649806976318359e-01
2.270332276821136475e-01
-1.091960817575454712e-01
-1.216984763741493225e-01
1.143848225474357605e-01
1.598207503557205200e-01
-5.416489206254482269e-03
-1.023249402642250061e-01
1.397121846675872803e-01
1.678277254104614258e-01
-5.216915905475616455e-02
2.300243452191352844e-02
-1.031910851597785950e-01
3.456812351942062378e-02
3.937380760908126831e-02
6.885081063956022263e-03
1.932953111827373505e-02
-7.891525328159332275e-02
-5.007681623101234436e-02
8.048282563686370850e-02
1.689768731594085693e-01
-2.081544250249862671e-01
-2.401795051991939545e-02
-1.455722153186798096e-01
2.124460041522979736e-02
2.747787535190582275e-01
-2.916171550750732422e-01
1.275112777948379517e-01
7.728479802608489990e-02
5.418501794338226318e-02
-6.841596215963363647e-02
1.365823149681091309e-01
1.226885318756103516e-01
3.261245489120483398e-01
9.710328280925750732e-02
-1.648188084363937378e-01
-2.128445059061050415e-01
1.191525384783744812e-01
-5.651515722274780273e-02
-4.339140281081199646e-02
-1.713659614324569702e-02
-2.175165712833404541e-01
-1.909629553556442261e-01
-1.501252204179763794e-01
-8.761892467737197876e-02
6.558400392532348633e-02
6.294272094964981079e-02
-1.707920134067535400e-01
-1.004883274435997009e-01
-1.576770544052124023e-01
1.554609984159469604e-01
2.608158290386199951e-01
2.008557319641113281e-01
-1.557566225528717041e-01
-3.451618924736976624e-02
6.562863290309906006e-02
5.481619387865066528e-02
3.104263171553611755e-02
-1.121514588594436646e-01
-3.649674728512763977e-02
-1.651005297899246216e-01
9.236755222082138062e-02
-9.443405270576477051e-02
1.989707946777343750e-01
1.284161508083343506e-01
-6.562847644090652466e-02
-1.474586576223373413e-01
-3.860208019614219666e-02
1.267438232898712158e-01
-1.905576735734939575e-01
-5.269591882824897766e-02
8.520020544528961182e-02
1.865536570549011230e-01
-1.300668716430664062e-01
-9.469785541296005249e-02
-9.090075641870498657e-02
2.286208271980285645e-01
-7.872789353132247925e-02
-1.508509516716003418e-01
1.442928910255432129e-01
1.876512616872787476e-01
-1.638833992183208466e-02
-2.634998559951782227e-01
1.098383367061614990e-01
9.528500586748123169e-02
2.061624526977539062e-01
-5.975872278213500977e-02
4.269755631685256958e-02
1.920416504144668579e-01
-1.330693811178207397e-01
-1.346714887768030167e-02
-2.461472451686859131e-01
-4.661763086915016174e-02
-6.719253212213516235e-02
8.173068985342979431e-03
-5.070130899548530579e-02
1.373006701469421387e-01
-7.874350063502788544e-03
1.482462137937545776e-01
-5.006039515137672424e-02
-1.696871817111968994e-01
4.898561537265777588e-02
7.745303958654403687e-02
1.518273204565048218e-01
-5.973024666309356689e-02
-4.264619946479797363e-02
1.799764782190322876e-01
-1.498488783836364746e-01
-1.404376327991485596e-01
-9.019530564546585083e-02
-5.438346415758132935e-02
5.821239948272705078e-02
2.610128186643123627e-02
-6.025063619017601013e-02
1.731012016534805298e-01
6.866346299648284912e-02
-1.137200444936752319e-01
-8.549538999795913696e-02
8.355386555194854736e-02
-1.042328625917434692e-01
-2.063726820051670074e-02
-6.069005466997623444e-03
-2.620715461671352386e-02
-3.266464918851852417e-02
4.308482259511947632e-02
-1.311532706022262573e-01
-7.282473891973495483e-02
4.700627177953720093e-02
-2.347048521041870117e-01
7.404745370149612427e-02
-5.699617415666580200e-02
-1.374645829200744629e-01
1.073273196816444397e-01
-5.709920823574066162e-02
-6.670344620943069458e-02
1.689128130674362183e-01
1.697670221328735352e-01
1.809196323156356812e-01
1.661743968725204468e-01
-1.062951013445854187e-01
2.335423678159713745e-01
2.026319503784179688e-01
6.566861178725957870e-03
-1.920585930347442627e-01
3.619896993041038513e-02
-2.069505006074905396e-01
2.062588185071945190e-01
1.871102373115718365e-03
-3.378440067172050476e-02
-4.513652250170707703e-02
-1.127926185727119446e-01
-6.393744051456451416e-02
-1.045479103922843933e-01
-7.170505821704864502e-02
2.458755075931549072e-01
-1.014491915702819824e-01
-8.941328525543212891e-02
1.957697421312332153e-01
-4.933959990739822388e-02
-1.948382407426834106e-01
-6.711031310260295868e-03
-7.998377084732055664e-02
-1.319802701473236084e-01
-1.865702867507934570e-01
-1.266537308692932129e-01
-1.200200542807579041e-01
-1.081379354000091553e-01
-1.367576569318771362e-01
1.991157792508602142e-02
2.052343636751174927e-02
-1.427963227033615112e-01
7.075637578964233398e-03
-1.428860723972320557e-01
1.891522482037544250e-02
1.665779650211334229e-01
-9.176658838987350464e-02
-2.374399304389953613e-01
-1.153692901134490967e-01
8.953998237848281860e-02
1.131872907280921936e-01
5.679714679718017578e-02
2.930369414389133453e-02
1.470570713281631470e-01
1.370402872562408447e-01
-9.305696934461593628e-02
2.274696975946426392e-01
-1.845287382602691650e-01
1.463015079498291016e-01
1.925528496503829956e-01
4.211318865418434143e-02
-5.068432167172431946e-02
-9.437274932861328125e-02
1.362608559429645538e-02
1.893188208341598511e-01
-1.486199945211410522e-01
1.364804804325103760e-01
-1.250749826431274414e-01
1.835361570119857788e-01
3.727610222995281219e-03
1.093655973672866821e-01
6.134086102247238159e-02
1.039951574057340622e-02
-5.754937976598739624e-02
-7.462004572153091431e-02
-4.060504958033561707e-02
5.096906796097755432e-02
-1.131596192717552185e-01
1.931892037391662598e-01
2.077423781156539917e-02
-1.365072429180145264e-01
-7.083386927843093872e-02
-1.729786023497581482e-02
3.822902590036392212e-02
1.900458782911300659e-01
-1.757761985063552856e-01
8.144079893827438354e-02
-8.913718163967132568e-02
-2.467752546072006226e-01
-1.536422669887542725e-01
7.152483612298965454e-02
-9.688670188188552856e-02
1.803760975599288940e-01
4.156037047505378723e-02
-9.716542810201644897e-02
1.278029680252075195e-01
3.620975092053413391e-02
-2.638758420944213867e-01
-8.443891257047653198e-02
1.430524885654449463e-01
1.934760808944702148e-01
1.093826815485954285e-01
-1.666876226663589478e-01
-1.271426677703857422e-01
5.163409188389778137e-02
8.417803794145584106e-02
1.285933852195739746e-01
2.195827662944793701e-01
1.565863937139511108e-01
2.174652963876724243e-01
1.893171668052673340e-01
-1.668759733438491821e-01
6.968846917152404785e-02
-1.524480879306793213e-01
-1.990899741649627686e-01
9.305580705404281616e-02
-1.911272108554840088e-01
1.965797841548919678e-01
-8.115823566913604736e-02
-1.130379736423492432e-01
4.361100122332572937e-02
6.267814338207244873e-02
-1.234268397092819214e-01
-1.963726580142974854e-01
-2.251636832952499390e-01
1.959190964698791504e-01
-1.116777211427688599e-01
1.094326376914978027e-01
1.601024419069290161e-01
1.477665156126022339e-01
-1.716506034135818481e-01
1.745954453945159912e-01
-8.846874535083770752e-02
3.066914528608322144e-02
-1.840433329343795776e-01
1.608216911554336548e-01
1.010791435837745667e-01
1.305034160614013672e-01
6.839483510702848434e-03
1.260335147380828857e-01
-1.207100674510002136e-01
1.765854060649871826e-01
1.807456165552139282e-01
-1.480564326047897339e-01
4.105982929468154907e-02
3.835375607013702393e-02
-1.339865475893020630e-01
-8.913633972406387329e-02
-9.721312671899795532e-02
1.295312792062759399e-01
-2.578178346157073975e-01
1.286226958036422729e-01
-9.545271843671798706e-02
-1.157048642635345459e-01
-2.675181999802589417e-02
2.125899493694305420e-01
4.898260161280632019e-02
1.083517894148826599e-01
-4.214475676417350769e-02
1.617108881473541260e-01
1.112924441695213318e-01
1.777429729700088501e-01
-1.524643301963806152e-01
-1.294107437133789062e-01
9.055998921394348145e-02
1.128362640738487244e-01
-7.040745019912719727e-02
-4.317967966198921204e-02
-1.277880668640136719e-01
-9.981273114681243896e-02
-3.059298917651176453e-02
8.047100156545639038e-02
-1.282208263874053955e-01
6.938809156417846680e-02
-1.285063475370407104e-01
-1.460532844066619873e-01
1.290858238935470581e-01
-2.816750481724739075e-02
3.682598099112510681e-02
1.145618334412574768e-01
-6.346769165247678757e-03
2.032049447298049927e-01
2.149537801742553711e-01
1.839593052864074707e-01
-1.679037660360336304e-01
2.779926657676696777e-01
1.095973327755928040e-01
-3.972877934575080872e-02
-4.580651223659515381e-02
-1.780918682925403118e-05
2.235951125621795654e-01
-1.372389942407608032e-01
8.621687442064285278e-02
-5.055823177099227905e-02
1.914408355951309204e-01
-1.375000774860382080e-01
1.360664367675781250e-01
-2.637056112289428711e-01
-8.690831810235977173e-02
-1.737118139863014221e-02
-3.319213166832923889e-02
-1.222340613603591919e-01
9.273186326026916504e-02
9.379108250141143799e-02
-2.742329379543662071e-03
1.311922371387481689e-01
1.700081229209899902e-01
-2.230901569128036499e-01
1.284359991550445557e-01
-1.279847025871276855e-01
1.128635555505752563e-01
2.272743731737136841e-01
-1.231165751814842224e-01
6.576878484338521957e-03
-1.355172097682952881e-01
-1.629747897386550903e-01
-6.490077078342437744e-02
7.878579199314117432e-02
-6.004795432090759277e-02
-9.751138091087341309e-02
1.415268033742904663e-01
9.053962677717208862e-02
-8.988222107291221619e-03
-2.753837965428829193e-02
7.016686350107192993e-02
-3.015962056815624237e-02
5.389632657170295715e-02
1.509435623884201050e-01
2.208957681432366371e-03
-3.216217970475554466e-03
1.651843041181564331e-01
8.461616234853863716e-04
1.201936826109886169e-01
1.337962597608566284e-01
-1.678812503814697266e-01
3.807523474097251892e-02
-3.120028600096702576e-02
-1.560518741607666016e-01
2.541528642177581787e-01
1.192260384559631348e-01
-1.232016980648040771e-01
4.900889098644256592e-02
1.745325475931167603e-01
2.037084251642227173e-01
1.436306089162826538e-01
3.191242367029190063e-02
1.562492847442626953e-01
5.164062604308128357e-02
-1.176219508051872253e-01
-3.292755037546157837e-02
-1.639394313097000122e-01
-7.442461699247360229e-02
-1.772350221872329712e-01
-9.685771167278289795e-02
-3.999618813395500183e-02
9.547695517539978027e-03
-3.280164673924446106e-02
-9.172786958515644073e-04
4.714330658316612244e-02
1.154438965022563934e-02
1.881374605000019073e-02
8.333551883697509766e-02
1.676046475768089294e-02
-8.481778949499130249e-02
5.881023406982421875e-02
1.207912117242813110e-01
-5.513550713658332825e-02
9.926010668277740479e-02
-5.507082864642143250e-02
1.526974737644195557e-01
1.829339936375617981e-02
-2.089257724583148956e-02
5.734342336654663086e-02
8.373955637216567993e-02
-7.910681515932083130e-02
2.018012851476669312e-01
-9.879145771265029907e-02
-8.393238484859466553e-02
2.149180769920349121e-01
-2.073676139116287231e-02
1.417591422796249390e-01
-2.459916286170482635e-02
-1.775790303945541382e-01
-1.341704428195953369e-01
1.189955547451972961e-01
-2.201478462666273117e-03
5.639478936791419983e-02
1.002087816596031189e-01
1.242359727621078491e-01
2.201953157782554626e-02
-5.386973544955253601e-02
1.917411689646542072e-03
5.246300622820854187e-02
-1.902436017990112305e-01
-1.049955338239669800e-01
1.357563734054565430e-01
-5.101612582802772522e-02
-3.667320683598518372e-02
1.135625466704368591e-01
1.022764444351196289e-01
1.520514637231826782e-01
2.094162553548812866e-01
9.094820916652679443e-02
1.973178833723068237e-01
-2.339626476168632507e-02
1.416965126991271973e-01
-4.671345278620719910e-02
-1.439001709222793579e-01
-6.239973008632659912e-02
1.437593102455139160e-01
1.634512990713119507e-01
3.168746456503868103e-02
8.382803946733474731e-02
-7.081545144319534302e-02
1.555206179618835449e-01
-8.791738748550415039e-02
1.691897511482238770e-01
8.996415883302688599e-02
1.713457405567169189e-01
-2.249567657709121704e-01
-6.637238711118698120e-02
1.037258803844451904e-01
-1.714526116847991943e-01
-1.516397744417190552e-01
-2.184269875288009644e-01
-1.810971945524215698e-01
-3.976303711533546448e-02
-1.716513037681579590e-01
-6.314375996589660645e-02
-8.758673071861267090e-02
-1.954304575920104980e-01
-8.841834217309951782e-02
1.516062486916780472e-02
-3.369528101757168770e-03
5.392437428236007690e-02
-3.595601301640272141e-03
-1.223684400320053101e-01
-1.352999508380889893e-01
-3.945086523890495300e-02
1.472062170505523682e-01
5.240922421216964722e-02
2.035910487174987793e-01
2.215048670768737793e-02
-7.124645262956619263e-02
-6.132453307509422302e-02
-1.264267265796661377e-01
-3.579137474298477173e-02
-3.540561348199844360e-02
-3.436736762523651123e-02
4.597330838441848755e-02
5.120371654629707336e-02
-1.163276582956314087e-01
-1.715541183948516846e-01
-1.865378767251968384e-01
-5.625712126493453979e-02
-1.790427714586257935e-01
-1.329208463430404663e-01
-1.563441455364227295e-01
-2.003630250692367554e-01
1.874517202377319336e-01
1.073225215077400208e-01
-1.002874895930290222e-01
5.476114153861999512e-02
4.611958935856819153e-02
1.776705384254455566e-01
2.233941406011581421e-01
-6.590186059474945068e-02
-2.312200330197811127e-02
3.144149482250213623e-02
-5.039821565151214600e-02
-1.446928530931472778e-01
1.750541627407073975e-01
1.657458245754241943e-01
9.531656652688980103e-02
1.553953588008880615e-01
4.149337299168109894e-03
2.368963137269020081e-02
-2.362257391214370728e-01
3.001135960221290588e-02
3.950605541467666626e-02
1.175288110971450806e-01
-9.741138666868209839e-02
6.165766716003417969e-02
9.094092994928359985e-02
-6.816367805004119873e-02
-2.435670234262943268e-02
4.547929391264915466e-02
3.055883012712001801e-02
-1.302033960819244385e-01
-1.818906888365745544e-02
-2.191655337810516357e-02
-8.011820167303085327e-02
-4.278942942619323730e-02
-7.725413888692855835e-02
-1.358237862586975098e-01
-4.775759950280189514e-02
5.228760652244091034e-03
1.736324466764926910e-02
9.164304286241531372e-02
1.430142074823379517e-01
-4.564256966114044189e-02
1.929068416357040405e-01
1.612755954265594482e-01
5.223014950752258301e-02
1.563398540019989014e-01
1.255973726511001587e-01
-2.669505076482892036e-03
-3.493785858154296875e-03
1.570921838283538818e-01
1.741288006305694580e-01
-1.471793651580810547e-01
-4.142581671476364136e-02
5.393726006150245667e-02
-3.176853805780410767e-02
8.093036711215972900e-02
2.686136066913604736e-01
1.490334868431091309e-01
5.733905360102653503e-02
-4.043076559901237488e-02
-9.366266429424285889e-02
2.089619487524032593e-01
7.630385458469390869e-02
2.010926157236099243e-01
-9.561527520418167114e-02
-8.188996464014053345e-03
-1.331651210784912109e-01
1.144078001379966736e-01
1.312613114714622498e-02
2.574796229600906372e-02
-4.329998046159744263e-02
1.061663255095481873e-01
1.826480180025100708e-01
1.364793181419372559e-01
1.107242777943611145e-01
-1.286130845546722412e-01
-8.312740176916122437e-02
-9.382916241884231567e-02
-1.157924905419349670e-01
-4.912988096475601196e-02
-5.242099985480308533e-03
-9.680932760238647461e-02
-5.516684055328369141e-02
1.997216045856475830e-01
4.678290337324142456e-02
-1.607947647571563721e-01
1.721669286489486694e-01
5.044210702180862427e-02
1.169888675212860107e-01
-1.400499492883682251e-01
9.997235611081123352e-04
-7.461190968751907349e-02
-4.232518002390861511e-02
1.015705168247222900e-01
-6.879868358373641968e-02
7.822633534669876099e-02
4.571706801652908325e-02
-1.202817037701606750e-01
7.613824307918548584e-02
-1.409311294555664062e-01
-2.058106660842895508e-02
-1.412035524845123291e-01
6.119451299309730530e-02
6.059185415506362915e-02
1.775843948125839233e-01
9.992835670709609985e-02
-3.823776170611381531e-02
-3.748478367924690247e-02
-3.099646605551242828e-02
8.704894036054611206e-02
1.752016097307205200e-01
7.263009995222091675e-02
1.249117776751518250e-01
2.850042283535003662e-02
-5.863372609019279480e-02
6.471838057041168213e-02
-1.098905652761459351e-01
-1.445455700159072876e-01
1.873475611209869385e-01
1.216538771986961365e-01
-1.375962644815444946e-01
-1.028633415699005127e-01
6.719896197319030762e-02
-8.652915060520172119e-02
1.764614731073379517e-01
1.028993446379899979e-02
-1.962049165740609169e-03
3.241726756095886230e-02
-7.152797281742095947e-02
-1.197622939944267273e-01
-1.588371396064758301e-01
-6.852513551712036133e-02
-1.680554002523422241e-01
8.094083517789840698e-02
2.903657592833042145e-02
-2.011464983224868774e-01
-1.215415447950363159e-01
9.947412461042404175e-02
-1.473457086831331253e-02
2.247529178857803345e-01
-2.084128856658935547e-01
6.346238404512405396e-02
5.358323827385902405e-02
-4.532545804977416992e-02
-1.112401187419891357e-01
-1.331247687339782715e-01
2.132949382066726685e-01
6.463663280010223389e-02
4.660713672637939453e-02
2.195639014244079590e-01
-6.689306464977562428e-04
-9.553268551826477051e-02
-1.410950124263763428e-01
-6.617392599582672119e-02
-1.743152439594268799e-01
-9.637779742479324341e-02
-1.961638182401657104e-01
4.532336816191673279e-02
-7.785655558109283447e-02
-7.196360966190695763e-04
1.107192132622003555e-02
-7.469807751476764679e-03
-2.011665105819702148e-01
-1.618129163980484009e-01
1.035363301634788513e-01
5.089648067951202393e-02
5.087808519601821899e-02
-1.466716229915618896e-01
7.042335718870162964e-02
-8.128350973129272461e-02
-6.001584231853485107e-03
6.519012153148651123e-02
-2.583776228129863739e-02
7.203859090805053711e-02
1.351310312747955322e-01
7.298486679792404175e-02
2.108939886093139648e-01
9.055977687239646912e-03
-5.240248143672943115e-02
-5.649425834417343140e-02
1.115403100848197937e-01
-2.665597246959805489e-03
-1.455886363983154297e-01
5.009162798523902893e-02
-6.133068725466728210e-02
-1.570394821465015411e-02
-1.507400125265121460e-01
-6.322205532342195511e-03
-1.316859126091003418e-01
-1.213478669524192810e-01
1.676950305700302124e-01
-1.029591187834739685e-01
-1.686366349458694458e-01
5.319739691913127899e-03
-1.715619117021560669e-01
1.563704162836074829e-01
-2.740783616900444031e-02
2.324909903109073639e-03
-6.989059597253799438e-02
5.828738585114479065e-02
-2.588464617729187012e-01
-6.064420193433761597e-02
-5.828186124563217163e-02
-5.626397952437400818e-02
1.602981239557266235e-01
-1.183109804987907410e-01
9.370790421962738037e-02
1.941489577293395996e-01
-2.868894021958112717e-03
2.988402731716632843e-03
1.086414884775876999e-02
-4.004836082458496094e-03
-1.090892255306243896e-01
2.360703982412815094e-02
-7.797206938266754150e-02
-1.649365127086639404e-01
5.810341611504554749e-02
1.220676153898239136e-01
-1.203001439571380615e-01
-4.088709875941276550e-02
-5.847132951021194458e-02
-9.278525412082672119e-02
-8.505530655384063721e-02
-1.602034717798233032e-01
-1.015654765069484711e-02
-1.233167350292205811e-01
1.835592240095138550e-01
1.683451980352401733e-01
1.575988344848155975e-02
1.053490340709686279e-01
-7.564263790845870972e-02
2.219231985509395599e-02
1.211965922266244888e-02
-1.114116236567497253e-01
1.738962233066558838e-01
8.698086440563201904e-02
-2.184924036264419556e-01
-2.103355899453163147e-02
-7.833494246006011963e-02
6.580045819282531738e-02
5.889743193984031677e-02
2.079192250967025757e-01
4.502883926033973694e-02
-1.690684705972671509e-01
5.082146078348159790e-02
6.197721138596534729e-02
-9.264494478702545166e-02
2.239403277635574341e-01
1.418377012014389038e-01
-9.801635146141052246e-02
2.089011296629905701e-02
1.400061547756195068e-01
1.663323491811752319e-01
-2.126166224479675293e-01
-1.041876152157783508e-01
-9.654047898948192596e-03
-4.117952287197113037e-02
1.444124132394790649e-01
-1.223520003259181976e-02
-5.087687447667121887e-02
-1.530391909182071686e-02
8.153607696294784546e-02
-1.651095151901245117e-01
2.009855061769485474e-01
-7.675847038626670837e-03
-8.351603150367736816e-02
-7.864007353782653809e-02
-1.199190467596054077e-01
-1.475188285112380981e-01
1.127290055155754089e-01
-5.067104473710060120e-02
1.284435540437698364e-01
1.361334621906280518e-01
-1.067507043480873108e-01
2.504926025867462158e-01
9.612177312374114990e-02
-6.211157888174057007e-02
-9.878861904144287109e-02
1.140063032507896423e-01
7.656539976596832275e-02
8.432757109403610229e-02
-7.726868987083435059e-02
4.354429617524147034e-02
2.331559360027313232e-01
1.462123245000839233e-01
3.550196811556816101e-02
6.263098865747451782e-02
1.591593921184539795e-01
2.870639320462942123e-03
-1.036900933831930161e-02
1.245675608515739441e-01
1.269536465406417847e-01
9.836649149656295776e-02
-7.435905933380126953e-02
-1.994286179542541504e-01
-2.691696211695671082e-02
-1.979299820959568024e-02
-1.322202235460281372e-01
8.757610619068145752e-02
-3.785952925682067871e-02
-2.110666781663894653e-01
-1.798018366098403931e-01
-5.284353345632553101e-02
3.315347060561180115e-02
6.204260885715484619e-02
-3.349654003977775574e-02
-1.333484947681427002e-01
-1.684824079275131226e-01
-8.504519611597061157e-02
5.405320227146148682e-02
-1.300478130578994751e-01
-1.565756052732467651e-01
-9.294073283672332764e-02
-1.342394500970840454e-01
-7.111575454473495483e-02
-2.035907283425331116e-02
-4.950468428432941437e-03
-1.133285835385322571e-01
-3.190495818853378296e-02
-1.591649465262889862e-02
-7.882162928581237793e-02
9.433992207050323486e-02
-1.689412444829940796e-01
-1.147797405719757080e-01
2.105519734323024750e-02
-8.740697056055068970e-02
-1.498811542987823486e-01
1.964186429977416992e-01
3.847888112068176270e-02
6.966087967157363892e-02
1.922117918729782104e-01
1.442548781633377075e-01
3.799312934279441833e-02
8.608747273683547974e-02
2.122176624834537506e-02
3.397442772984504700e-02
1.064705699682235718e-01
-1.858465969562530518e-01
-1.922833174467086792e-01
1.037803664803504944e-01
-1.087122187018394470e-01
-2.599433064460754395e-02
-2.012106776237487793e-01
-1.524574160575866699e-01
-1.256099790334701538e-01
1.290649175643920898e-01
9.522135555744171143e-02
2.144835889339447021e-02
-1.656335741281509399e-01
-5.074416287243366241e-03
1.231745705008506775e-01
2.390820980072021484e-01
1.839610487222671509e-01
-9.250800311565399170e-02
-7.621720433235168457e-02
-1.118383407592773438e-01
9.457097947597503662e-02
7.143945433199405670e-03
7.729387283325195312e-02
1.468228455632925034e-02
1.880387961864471436e-01
1.288342773914337158e-01
4.540173336863517761e-02
-1.258920282125473022e-01
2.327992469072341919e-01
1.750639528036117554e-01
-2.244363874197006226e-01
-3.240366932004690170e-03
1.407577693462371826e-01
1.605312377214431763e-01
1.429903507232666016e-01
1.192689314484596252e-02
1.401063501834869385e-01
-9.351851046085357666e-02
1.730925142765045166e-01
9.267096966505050659e-02
2.300069332122802734e-01
-3.763324767351150513e-02
1.359469890594482422e-01
1.259611546993255615e-01
-1.762994676828384399e-01
-1.147860661149024963e-01
-1.101789101958274841e-01
-2.254959791898727417e-01
1.699815541505813599e-01
4.474994912743568420e-02
5.685178562998771667e-02
-7.872912287712097168e-02
4.270186647772789001e-02
-1.069784834980964661e-01
-2.239783853292465210e-01
-1.630547344684600830e-01
5.634701997041702271e-02
6.929407268762588501e-02
-9.503070265054702759e-02
1.868980079889297485e-01
-6.219396740198135376e-02
1.775109469890594482e-01
1.426467746496200562e-01
1.184381023049354553e-01
1.711419373750686646e-01
6.293720752000808716e-02
1.335406750440597534e-01
-2.708928287029266357e-02
1.486361175775527954e-01
9.267169982194900513e-03
-1.882423162460327148e-01
1.591099947690963745e-01
5.114956200122833252e-02
-1.471420675516128540e-01
-3.871798142790794373e-02
-8.984325081110000610e-02
-1.728259213268756866e-02
-1.847841404378414154e-02
1.088086813688278198e-01
-1.029702499508857727e-01
1.234754770994186401e-01
1.091391816735267639e-01
-7.904640585184097290e-02
1.830321401357650757e-01
-5.140158534049987793e-02
3.025627695024013519e-02
-9.118116647005081177e-02
3.761416301131248474e-02
1.961794346570968628e-01
-1.785193383693695068e-01
1.893808394670486450e-01
-2.004730403423309326e-01
-5.535414814949035645e-02
-1.090546250343322754e-01
2.011638879776000977e-01
-2.031751573085784912e-01
7.020217925310134888e-02
-1.296671926975250244e-01
-1.257558166980743408e-01
1.088841333985328674e-01
-4.963080957531929016e-02
-8.750519156455993652e-02
8.659703284502029419e-02
-1.680964082479476929e-01
1.357552688568830490e-02
5.789070576429367065e-02
1.373046785593032837e-01
2.161443680524826050e-01
-1.178893744945526123e-01
-2.226820737123489380e-01
-1.457143127918243408e-01
1.544433087110519409e-01
2.572216391563415527e-01
-2.577356994152069092e-02
-1.769647747278213501e-01
-1.046495139598846436e-01
-8.242944628000259399e-02
1.001105457544326782e-01
-8.417334407567977905e-03
-2.038160562515258789e-01
8.337451517581939697e-02
7.372806966304779053e-02
-5.703973025083541870e-02
-1.194388344883918762e-01
-7.898824661970138550e-02
1.708597540855407715e-01
1.067635416984558105e-01
3.496993158478289843e-04
-1.906979382038116455e-01
2.418206036090850830e-01
-2.063918709754943848e-01
-4.263671580702066422e-03
2.187427133321762085e-01
-2.646279148757457733e-02
-1.683555394411087036e-01
8.842992782592773438e-02
-1.600935310125350952e-01
1.625603139400482178e-01
-4.061201959848403931e-02
-1.307091414928436279e-01
7.395361363887786865e-02
4.939065128564834595e-02
1.405303925275802612e-01
2.411730587482452393e-01
1.011906489729881287e-01
-2.177762538194656372e-01
-1.091766133904457092e-01
-1.203088834881782532e-01
-1.973138749599456787e-01
-1.200057491660118103e-01
-1.539741456508636475e-01
6.135946605354547501e-03
1.824811100959777832e-01
8.986198902130126953e-02
-1.447855383157730103e-01
-1.886857450008392334e-01
-1.262832283973693848e-01
8.752868324518203735e-02
1.330071240663528442e-01
-1.902917176485061646e-01
5.666060000658035278e-02
2.298873364925384521e-01
3.496456518769264221e-02
1.900284290313720703e-01
1.524588167667388916e-01
1.964401155710220337e-01
-1.129273623228073120e-01
-1.968263238668441772e-01
-4.652498662471771240e-02
-1.817522943019866943e-02
-7.110124826431274414e-02
-9.004122763872146606e-02
-7.778237760066986084e-02
1.594525426626205444e-01
4.668303951621055603e-02
-9.277895838022232056e-02
-1.308899968862533569e-01
-1.758326590061187744e-01
-2.062274217605590820e-01
-2.184362858533859253e-01
-2.661009132862091064e-02
-7.638134062290191650e-02
3.753075748682022095e-02
3.615592420101165771e-02
-1.703242361545562744e-01
-6.808672100305557251e-02
-8.692751079797744751e-02
1.315790563821792603e-01
4.906725604087114334e-03
2.011171728372573853e-01
6.808900088071823120e-02
-9.503394365310668945e-02
1.333093456923961639e-02
-1.233489513397216797e-01
-2.023432403802871704e-01
-8.795548230409622192e-02
-6.771554052829742432e-02
1.106267049908638000e-01
-9.041526354849338531e-03
-1.653921417891979218e-02
1.595009267330169678e-01
2.080471962690353394e-01
1.517889648675918579e-01
-2.282084673643112183e-01
-1.061722412705421448e-01
-5.053557921200990677e-03
-1.827052980661392212e-01
1.112547069787979126e-01
5.555303394794464111e-02
-1.707158237695693970e-01
-6.766685098409652710e-02
-8.102980442345142365e-03
-1.024768278002738953e-01
4.023569077253341675e-02
-1.958010345697402954e-01
1.341329365968704224e-01
-1.041539460420608521e-01
-5.342962220311164856e-02
2.318835407495498657e-01
-2.265810267999768257e-03
2.394188381731510162e-02
-1.992571204900741577e-01
3.957009688019752502e-02
-2.389597706496715546e-02
-5.630325898528099060e-02
-1.651241630315780640e-01
-5.474501103162765503e-02
1.913259476423263550e-01
1.763603836297988892e-02
-1.354540735483169556e-01
9.733440726995468140e-02
9.301989525556564331e-02
-6.437192112207412720e-02
-9.153952449560165405e-02
1.873801648616790771e-01
-8.526508696377277374e-03
3.449636325240135193e-02
1.753102093935012817e-01
2.081272304058074951e-01
2.128632068634033203e-01
2.087539285421371460e-01
-1.072222590446472168e-01
-1.652704477310180664e-01
6.861481349915266037e-03
2.143024653196334839e-02
1.399775594472885132e-01
-1.247359439730644226e-01
-4.151051118969917297e-02
1.270789653062820435e-01
-3.276640549302101135e-02
-8.078523725271224976e-02
2.003202885389328003e-01
1.671507805585861206e-01
1.039889920502901077e-02
-1.338735874742269516e-02
4.804587736725807190e-02
-2.044886350631713867e-01
3.436894714832305908e-02
1.048581209033727646e-02
1.520165801048278809e-01
-1.666607260704040527e-01
-1.715185940265655518e-01
-1.586323529481887817e-01
2.048939913511276245e-01
-2.073098421096801758e-01
1.259360611438751221e-01
7.925802469253540039e-02
-1.531874686479568481e-01
-1.695140898227691650e-01
-1.178890019655227661e-01
-8.182704448699951172e-03
1.711652725934982300e-01
-5.407812446355819702e-02
-1.500711776316165924e-02
2.079956084489822388e-01
-1.140572130680084229e-01
6.017221510410308838e-02
1.191207543015480042e-01
-6.706522312015295029e-03
-4.450760409235954285e-02
-6.839834153652191162e-02
1.279889494180679321e-01
1.209490299224853516e-01
7.671338506042957306e-03
-7.421885430812835693e-02
-1.119506433606147766e-01
1.038699075579643250e-01
3.913299366831779480e-02
2.190168797969818115e-01
5.981368944048881531e-02
7.059957087039947510e-02
1.227694898843765259e-01
1.937748491764068604e-01
1.051233261823654175e-01
8.620174974203109741e-02
-1.695652455091476440e-01
-1.259705722332000732e-01
5.531608313322067261e-02
-2.071402072906494141e-01
1.856546252965927124e-01
2.419062331318855286e-02
1.797588355839252472e-02
1.676530689001083374e-01
2.097415328025817871e-01
4.394839704036712646e-02
1.407554149627685547e-01
-1.343488097190856934e-01
4.608711693435907364e-03
-9.371288120746612549e-03
1.766073852777481079e-01
-1.864128857851028442e-01
1.915822736918926239e-02
1.923197507858276367e-01
2.243797630071640015e-01
-2.229130715131759644e-01
1.161033287644386292e-01
2.064676582813262939e-01
-1.063991189002990723e-01
-1.628574430942535400e-01
1.090412307530641556e-02
-1.221201941370964050e-01
1.325301378965377808e-01
-1.616095453500747681e-01
-1.129166036844253540e-01
8.771869540214538574e-02
9.694970399141311646e-02
6.263954192399978638e-02
7.079935073852539062e-02
7.214979082345962524e-02
2.178743928670883179e-01
-1.401787698268890381e-01
3.258177638053894043e-02
-7.898815721273422241e-02
-2.029788494110107422e-01
-8.832956105470657349e-02
-5.850087106227874756e-02
6.862545013427734375e-02
6.998930871486663818e-02
-9.312807768583297729e-02
-1.265407502651214600e-01
-1.144804507493972778e-01
9.054674208164215088e-02
3.392709419131278992e-02
2.597981095314025879e-01
-6.815070658922195435e-02
-6.033397093415260315e-02
3.577455878257751465e-02
5.727874860167503357e-02
-9.534403681755065918e-02
1.718370318412780762e-01
-9.847979247570037842e-02
3.414333984255790710e-02
1.350172162055969238e-01
-4.087681695818901062e-02
-1.808417141437530518e-01
1.431471258401870728e-01
1.826050505042076111e-02
1.051311269402503967e-01
-1.375911533832550049e-01
-1.281016021966934204e-01
5.909631028771400452e-02
9.883754700422286987e-02
-8.118966221809387207e-02
-2.379797697067260742e-01
9.700284898281097412e-02
9.682334214448928833e-02
-1.064582020044326782e-01
1.059450656175613403e-01
-1.811031103134155273e-01
1.164011359214782715e-01
2.047474384307861328e-01
1.353853940963745117e-01
-9.813818335533142090e-02
3.076661378145217896e-02
-2.107523530721664429e-01
1.739813983440399170e-01
1.772530674934387207e-01
1.001612320542335510e-01
8.530728518962860107e-02
1.800841540098190308e-01
-1.154763773083686829e-01
2.193726301193237305e-01
-6.264079362154006958e-02
1.036604642868041992e-01
-1.274362206459045410e-01
-2.313513308763504028e-02
5.827146582305431366e-03
-3.847417980432510376e-02
-7.900179922580718994e-02
2.034177780151367188e-01
1.377299278974533081e-01
-1.649087667465209961e-01
-1.882784366607666016e-01
1.971443593502044678e-01
7.827237248420715332e-02
6.137152202427387238e-03
1.271682828664779663e-01
-5.491649731993675232e-03
2.011898458003997803e-01
-2.181987464427947998e-01
-2.296416163444519043e-01
1.188630238175392151e-01
-1.217900663614273071e-01
5.242770537734031677e-02
7.168352138251066208e-03
7.973837852478027344e-02
1.608294099569320679e-01
-1.824009865522384644e-01
1.184789910912513733e-01
7.046662271022796631e-02
-1.986555159091949463e-01
-1.337047964334487915e-01
-3.433942794799804688e-02
1.897207349538803101e-01
1.093926802277565002e-01
6.253397464752197266e-02
1.515096127986907959e-01
-1.081420704722404480e-01
1.882359832525253296e-01
9.129191935062408447e-02
-8.531253039836883545e-02
-1.768210679292678833e-01
5.521546304225921631e-02
-2.295874208211898804e-01
-1.479278057813644409e-01
-1.598132550716400146e-01
5.334939435124397278e-02
-3.224643319845199585e-02
-1.795024871826171875e-01
-1.214796751737594604e-01
2.500382065773010254e-01
1.693217605352401733e-01
2.112197875976562500e-02
2.312391847372055054e-01
-5.432882532477378845e-02
9.150623530149459839e-02
-1.154211536049842834e-01
-9.044370055198669434e-02
7.342574745416641235e-02
-1.981859356164932251e-01
-7.131885737180709839e-02
2.355365008115768433e-01
-7.497724890708923340e-02
2.120442092418670654e-01
1.302844583988189697e-01
1.261882781982421875e-01
-8.283014409244060516e-03
-2.011013925075531006e-01
-9.431108483113348484e-04
-2.026770450174808502e-02
-2.457716688513755798e-02
1.477041095495223999e-01
1.676971912384033203e-01
1.719158608466386795e-03
-3.238213062286376953e-02
2.137355506420135498e-02
-1.504439413547515869e-01
8.528329432010650635e-02
-1.651957780122756958e-01
6.882194895297288895e-03
7.356175035238265991e-02
6.998302787542343140e-02
1.928295791149139404e-01
-5.894917994737625122e-02
1.108201295137405396e-01
-9.290372580289840698e-02
-1.916473507881164551e-01
-1.449502110481262207e-01
1.510114073753356934e-01
-4.648882523179054260e-02
-8.874593675136566162e-02
-1.379129290580749512e-01
-1.659899204969406128e-01
8.236856013536453247e-02
2.289846241474151611e-01
-7.237453013658523560e-02
-3.695714473724365234e-02
1.482529938220977783e-01
1.522407978773117065e-01
-1.399957835674285889e-01
7.364246994256973267e-02
7.711505144834518433e-02
1.632227748632431030e-01
-1.398472040891647339e-01
-2.129079215228557587e-02
1.993219405412673950e-01
-1.749605238437652588e-01
-8.159872144460678101e-02
-1.041006967425346375e-01
1.178292259573936462e-01
1.123299375176429749e-01
-5.444495752453804016e-02
-5.355015769600868225e-02
-9.534751623868942261e-02
-2.554466947913169861e-02
1.209574863314628601e-01
-2.709189057350158691e-02
1.920118778944015503e-01
-3.377183899283409119e-02
-1.956460028886795044e-01
1.502104401588439941e-01
-1.022330597043037415e-01
-1.911171674728393555e-01
-1.142780780792236328e-01
-5.654228106141090393e-02
1.453713923692703247e-01
7.771697640419006348e-02
1.283773779869079590e-01
3.795249015092849731e-02
-1.731637716293334961e-01
1.392853707075119019e-01
-8.635452389717102051e-02
-2.326420396566390991e-01
3.795203566551208496e-02
2.023146152496337891e-01
7.961832731962203979e-02
2.394538521766662598e-01
2.064323723316192627e-01
1.382711976766586304e-01
1.871894150972366333e-01
8.932847529649734497e-02
2.064053118228912354e-01
-4.505648836493492126e-02
-2.232383340597152710e-01
-3.018561936914920807e-02
2.668816363438963890e-03
1.964777261018753052e-01
-3.783742710947990417e-02
3.904959931969642639e-02
-7.467247545719146729e-02
-1.650265753269195557e-01
-5.262707546353340149e-02
-1.848041117191314697e-01
-1.544623672962188721e-01
-1.282458603382110596e-01
-9.225711226463317871e-02
1.129619106650352478e-01
1.988525390625000000e-01
2.395604103803634644e-01
1.346750408411026001e-01
9.359923750162124634e-02
5.860147252678871155e-02
2.166763097047805786e-01
1.369290649890899658e-01
1.721842139959335327e-01
6.697441637516021729e-02
2.352121621370315552e-01
-8.955805003643035889e-02
-8.683528751134872437e-02
-1.959955096244812012e-01
1.355490088462829590e-01
-7.887899875640869141e-02
2.423344552516937256e-01
-1.081576943397521973e-01
1.195136532187461853e-01
8.930477499961853027e-02
7.002060115337371826e-02
-1.925507336854934692e-01
-1.140079740434885025e-02
-2.137350589036941528e-01
1.806685030460357666e-01
-6.520306318998336792e-02
-5.998434871435165405e-02
-6.008993834257125854e-02
2.016536146402359009e-01
1.331058889627456665e-01
5.404132232069969177e-02
4.438820481300354004e-02
-9.813504666090011597e-02
-7.229331880807876587e-02
1.654939204454421997e-01
1.606245487928390503e-01
2.411041557788848877e-01
1.672320440411567688e-02
1.962603479623794556e-01
1.601000875234603882e-01
-2.210156768560409546e-01
-1.394408941268920898e-01
5.461518466472625732e-02
-1.168127059936523438e-01
-1.801806390285491943e-01
-1.240847632288932800e-01
1.817758977413177490e-01
4.472448956221342087e-03
-1.649394631385803223e-01
1.221380233764648438e-01
1.483938992023468018e-01
-2.470379173755645752e-01
-4.626597464084625244e-02
2.468184940516948700e-02
-1.467017978429794312e-01
1.627113521099090576e-01
2.069088816642761230e-01
1.636492609977722168e-01
1.820032596588134766e-01
-4.842476919293403625e-02
8.080614358186721802e-02
-1.621753424406051636e-01
-1.714647412300109863e-01
-3.459568694233894348e-02
-6.664004176855087280e-03
6.655351072549819946e-02
1.006190851330757141e-01
-2.264673858880996704e-01
2.358310967683792114e-01
1.188802570104598999e-01
-1.098143756389617920e-01
5.523231625556945801e-02
-3.799439594149589539e-02
1.656816601753234863e-01
-1.142278015613555908e-01
1.834138631820678711e-01
-1.728491336107254028e-01
-2.119217067956924438e-02
7.043100893497467041e-02
9.225619584321975708e-02
8.753397315740585327e-02
-7.750510424375534058e-02
-1.345925182104110718e-01
1.900793015956878662e-01
1.868843734264373779e-01
1.619138419628143311e-01
1.257875412702560425e-01
5.218088999390602112e-02
5.120057612657546997e-02
-1.966044865548610687e-02
-5.896236747503280640e-02
-1.365907490253448486e-01
3.213379532098770142e-02
1.194761991500854492e-01
-2.009555399417877197e-01
1.206239387392997742e-01
5.114704370498657227e-02
1.828867644071578979e-01
-1.332376748323440552e-01
-1.721676290035247803e-01
-3.976632282137870789e-02
-1.286655366420745850e-01
1.892563104629516602e-01
-4.333837330341339111e-02
1.211187317967414856e-01
-1.974672451615333557e-02
-8.503668010234832764e-02
1.373936235904693604e-01
1.963227093219757080e-01
1.731868684291839600e-01
1.787140518426895142e-01
9.085652232170104980e-02
3.118891082704067230e-02
6.450232118368148804e-02
-1.496313065290451050e-01
-2.108347713947296143e-01
-1.032190695405006409e-01
-9.201224893331527710e-02
-9.292712062597274780e-02
1.176711544394493103e-01
1.776149421930313110e-01
-7.445243000984191895e-02
-7.720122486352920532e-02
1.448337882757186890e-01
7.854986190795898438e-02
-7.452032715082168579e-02
-1.785515435039997101e-02
9.637713432312011719e-02
5.996355041861534119e-02
2.001973688602447510e-01
-1.616009920835494995e-01
-1.270392835140228271e-01
-9.955935180187225342e-02
-1.584992706775665283e-01
-8.946346491575241089e-02
5.293765291571617126e-02
2.178020775318145752e-02
1.156212165951728821e-01
-2.780335769057273865e-02
1.032553240656852722e-01
-1.104426458477973938e-01
-3.270079940557479858e-02
1.462156921625137329e-01
1.301242690533399582e-02
2.428922653198242188e-01
-1.531744375824928284e-02
1.560744345188140869e-01
4.075546190142631531e-02
-1.665574908256530762e-01
-5.489099025726318359e-02
-1.207648962736129761e-01
7.193545252084732056e-02
5.121624842286109924e-02
4.198065400123596191e-02
-1.205215603113174438e-01
-7.951883226633071899e-02
2.097417265176773071e-01
-1.500173807144165039e-01
1.916701905429363251e-02
-1.685561239719390869e-02
1.044529825448989868e-01
6.307252496480941772e-02
2.463112026453018188e-01
4.498971626162528992e-02
1.164620667695999146e-01
1.428549736738204956e-01
2.116615921258926392e-01
-2.282699495553970337e-01
-1.527886241674423218e-01
1.724433600902557373e-01
-3.330106660723686218e-02
-1.211751848459243774e-01
3.676363825798034668e-02
2.016125917434692383e-01
-1.826025396585464478e-01
-3.652217984199523926e-02
1.457855552434921265e-01
-4.423118010163307190e-02
1.418789476156234741e-01
-6.923191994428634644e-02
5.106624588370323181e-02
-1.964433491230010986e-01
-1.234077513217926025e-01
1.437732297927141190e-02
-1.020961701869964600e-01
1.705397963523864746e-01
-7.414229214191436768e-02
1.766071841120719910e-02
1.590648666024208069e-02
1.877808570861816406e-01
2.714980393648147583e-02
-2.836128696799278259e-02
8.086407929658889771e-02
-1.945216357707977295e-01
1.986353546380996704e-01
-3.829207271337509155e-02
1.386274844408035278e-01
-2.266374230384826660e-01
-1.845681220293045044e-01
1.996525824069976807e-01
5.298655014485120773e-04
-4.933152347803115845e-02
1.179193928837776184e-01
-1.793805882334709167e-02
-1.747580021619796753e-01
-1.140016913414001465e-01
-1.720519512891769409e-01
-1.038522571325302124e-01
9.747400134801864624e-02
-1.843643188476562500e-01
2.125188112258911133e-01
-1.466198861598968506e-01
1.096110492944717407e-01
-1.370309740304946899e-01
-8.512165397405624390e-02
9.550706297159194946e-02
-2.083599418401718140e-01
1.673598289489746094e-01
-5.430430173873901367e-02
-1.319985091686248779e-01
3.391950204968452454e-02
-1.776358634233474731e-01
-6.665439903736114502e-02
-1.411548405885696411e-01
7.970493286848068237e-02
-2.796693891286849976e-02
-1.756629049777984619e-01
-2.075694687664508820e-02
-5.266905948519706726e-02
-1.009686477482318878e-02
1.778887212276458740e-01
-2.330879867076873779e-02
7.757256180047988892e-02
1.948322206735610962e-01
-4.719446972012519836e-02
1.438651382923126221e-01
-2.294096201658248901e-01
-1.507996916770935059e-01
-4.419060051441192627e-02
9.921100735664367676e-02
-2.141205966472625732e-01
1.672567874193191528e-01
-2.275765873491764069e-02
-7.562465965747833252e-02
-2.125436365604400635e-01
1.328902095556259155e-01
2.099951207637786865e-01
-1.554826050996780396e-01
-2.007891386747360229e-01
6.994806230068206787e-02
-1.225813850760459900e-01
9.559755772352218628e-02
-2.396050691604614258e-01
2.159747779369354248e-01
1.099275201559066772e-01
1.995640695095062256e-01
2.002615034580230713e-01
-1.460380852222442627e-01
1.176245212554931641e-01
1.705200821161270142e-01
-3.015506081283092499e-02
-1.715556532144546509e-01
-4.998254403471946716e-02
-8.797633647918701172e-02
1.618843525648117065e-01
1.730053871870040894e-01
1.759936660528182983e-01
-1.514209657907485962e-01
4.396153613924980164e-02
1.293153911828994751e-01
-1.322856824845075607e-02
-3.921015188097953796e-02
1.626260578632354736e-01
1.074191182851791382e-01
-6.633507460355758667e-02
-1.025010198354721069e-01
-7.085092365741729736e-02
-1.223831810057163239e-02
-1.236236616969108582e-01
-1.837430447340011597e-01
1.113971546292304993e-01
-1.982902586460113525e-01
1.119593996554613113e-02
1.596763730049133301e-01
-2.791876532137393951e-02
1.790701001882553101e-01
-1.919849663972854614e-01
-1.312338262796401978e-01
2.356289327144622803e-01
3.770687058568000793e-02
-1.167602986097335815e-01
1.527819186449050903e-01
3.449448943138122559e-02
5.503494665026664734e-02
-1.379711478948593140e-01
-1.379740834236145020e-01
6.098178774118423462e-02
-9.283327311277389526e-02
7.778025418519973755e-02
-1.616697758436203003e-01
-6.023180857300758362e-02
1.950044184923171997e-01
1.573015153408050537e-01
-4.041646420955657959e-02
1.326412055641412735e-02
2.506532007828354836e-03
-1.797439754009246826e-01
3.603182733058929443e-02
-1.308666318655014038e-01
8.799553662538528442e-02
-8.081986010074615479e-02
1.782470196485519409e-01
5.607521161437034607e-02
1.664598584175109863e-01
-1.871791481971740723e-02
1.717661321163177490e-01
2.134796977043151855e-01
7.220406085252761841e-02
-3.617810830473899841e-02
-9.502990543842315674e-02
1.799605488777160645e-01
-1.631223261356353760e-01
-6.085638701915740967e-02
-1.033675670623779297e-01
-1.020448878407478333e-01
5.488852411508560181e-02
2.207605689764022827e-01
1.003274992108345032e-01
3.571608290076255798e-02
-1.751066744327545166e-01
8.736913651227951050e-02
2.340059429407119751e-01
-6.634255498647689819e-02
-3.401448205113410950e-02
2.139414660632610321e-02
4.035931453108787537e-02
4.824936389923095703e-03
2.173681929707527161e-02
-1.884083449840545654e-01
1.089048292487859726e-02
-4.152422770857810974e-02
2.920446917414665222e-02
-1.210417374968528748e-01
-3.567887470126152039e-02
-1.503832191228866577e-01
2.008373141288757324e-01
-1.728972196578979492e-01
-1.415951699018478394e-01
-1.647367328405380249e-01
2.109963446855545044e-01
-9.267040528357028961e-03
-3.536863252520561218e-02
5.962885543704032898e-02
-3.011251683346927166e-04
1.741601824760437012e-01
1.038034632802009583e-01
-1.613699831068515778e-02
-9.858217090368270874e-02
-1.009054854512214661e-01
-1.506287306547164917e-01
1.906059980392456055e-01
3.318240493535995483e-02
5.324447154998779297e-02
-1.472947597503662109e-01
1.915567070245742798e-01
-7.250113040208816528e-02
-8.027087152004241943e-02
1.680518388748168945e-01
-1.475358307361602783e-01
6.900385767221450806e-02
3.453628718852996826e-02
-1.800597757101058960e-01
-8.170077204704284668e-02
-1.753266155719757080e-01
8.675356954336166382e-02
1.555205788463354111e-02
1.249877065420150757e-01
-1.597407646477222443e-02
2.376201599836349487e-01
1.410016268491744995e-01
7.234486937522888184e-02
1.034066453576087952e-01
-1.090195775032043457e-01
1.979828998446464539e-02
2.047543525695800781e-01
2.344628572463989258e-01
1.172199323773384094e-01
-2.270907014608383179e-01
2.421086430549621582e-01
1.643578410148620605e-01
1.257020235061645508e-01
-4.798643290996551514e-02
7.431396842002868652e-02
-1.153497844934463501e-01
-8.477003872394561768e-02
-1.369480043649673462e-01
-1.797771453857421875e-01
-1.943915523588657379e-02
1.094607412815093994e-01
1.121989861130714417e-01
8.357897400856018066e-02
1.448853760957717896e-01
1.104901432991027832e-01
-1.213048622012138367e-01
3.068000264465808868e-02
8.994635194540023804e-02
-1.136567592620849609e-01
1.191650051623582840e-02
-1.140606105327606201e-01
2.228929400444030762e-01
8.669680356979370117e-02
-1.958089768886566162e-01
2.361944764852523804e-01
-1.917587667703628540e-01
-6.569465249776840210e-02
-1.367575228214263916e-01
1.975032873451709747e-02
-6.819310039281845093e-02
-8.794645778834819794e-03
1.921208947896957397e-02
1.418306380510330200e-01
7.766801118850708008e-02
-5.749915540218353271e-02
-1.566181480884552002e-01
1.358398143202066422e-02
6.234232336282730103e-02
-1.946376264095306396e-01
-3.023288026452064514e-02
1.898251026868820190e-01
-1.650072783231735229e-01
1.092778518795967102e-01
-1.431899815797805786e-01
-6.760234385728836060e-02
-1.255096495151519775e-01
-6.887335912324488163e-04
1.151100024580955505e-01
1.000809296965599060e-01
-9.425865113735198975e-02
1.341887563467025757e-01
-1.148225516080856323e-01
1.495143771171569824e-02
-7.359550148248672485e-02
-1.666714698076248169e-01
1.282519102096557617e-01
-1.047881841659545898e-01
-6.954297423362731934e-02
-1.177482586354017258e-02
-1.064042821526527405e-01
1.843665242195129395e-01
1.675669848918914795e-01
-1.153367757797241211e-01
-2.362463474273681641e-01
-6.792958080768585205e-02
1.968265026807785034e-01
2.098612785339355469e-01
1.331554502248764038e-01
1.554678976535797119e-01
7.369830738753080368e-03
-5.131958797574043274e-02
1.333928704261779785e-01
1.195294559001922607e-01
-1.484875828027725220e-01
1.494224667549133301e-01
-9.067308902740478516e-02
3.988361731171607971e-02
1.018881946802139282e-01
7.294373214244842529e-02
2.782130986452102661e-02
1.601454466581344604e-01
4.267730191349983215e-02
-1.268110275268554688e-01
2.054735831916332245e-02
-1.954051554203033447e-01
-1.073173210024833679e-01
-2.296383082866668701e-01
-2.345379143953323364e-01
-4.105731099843978882e-02
-7.031629979610443115e-02
1.507281661033630371e-01
-3.328540548682212830e-02
2.001271694898605347e-01
1.977817565202713013e-01
-1.892529875040054321e-01
-1.457875519990921021e-01
-1.086178570985794067e-01
-7.667294889688491821e-02
-4.122733697295188904e-02
1.481432914733886719e-01
-6.098362430930137634e-02
1.944890320301055908e-01
5.875981599092483521e-02
1.112999022006988525e-01
-1.942614912986755371e-01
-2.812914177775382996e-02
-9.911870956420898438e-02
1.794321089982986450e-01
8.698576688766479492e-02
-1.988296806812286377e-01
-1.549484729766845703e-01
1.882466971874237061e-01
-1.378521919250488281e-01
-7.527710497379302979e-02
1.182240694761276245e-01
-4.267279803752899170e-02
-8.391315490007400513e-02
-7.531199604272842407e-02
-1.522818356752395630e-01
-1.918909847736358643e-01
2.946286275982856750e-02
1.026674509048461914e-01
1.282907873392105103e-01
1.425637602806091309e-01
-9.143874049186706543e-02
-1.551281809806823730e-01
-1.176770702004432678e-01
-1.974184960126876831e-01
-1.906193047761917114e-01
1.412209030240774155e-02
-3.370477631688117981e-02
2.251559644937515259e-01
-1.526395091786980629e-03
-1.025878638029098511e-01
-2.059162110090255737e-01
-1.522695925086736679e-02
-2.328740805387496948e-01
-1.787051744759082794e-02
-1.765878312289714813e-02
-1.186323463916778564e-01
-1.112917289137840271e-01
2.545269671827554703e-03
-1.560007184743881226e-01
6.718667596578598022e-02
7.529007643461227417e-02
-1.749896630644798279e-02
1.200905293226242065e-01
-1.347175538539886475e-01
-3.195166960358619690e-02
-1.155402511358261108e-01
1.654493957757949829e-01
4.952583461999893188e-02
2.455433756113052368e-01
1.420354247093200684e-01
1.301153600215911865e-01
-3.547408059239387512e-02
4.020198807120323181e-02
2.039004415273666382e-01
5.643825978040695190e-03
3.794055059552192688e-02
1.246267110109329224e-01
1.886680126190185547e-01
-1.831572502851486206e-01
2.148524671792984009e-01
1.326091289520263672e-01
9.818098507821559906e-03
-1.487190872430801392e-01
1.744899749755859375e-01
-1.085704639554023743e-01
-5.920321121811866760e-02
-9.680617600679397583e-02
1.674155443906784058e-01
1.151153221726417542e-01
1.472236663103103638e-01
-1.454719752073287964e-01
-2.127771265804767609e-02
-1.701098494231700897e-02
-1.479391008615493774e-01
-7.678691297769546509e-02
-1.715646535158157349e-01
1.085593849420547485e-01
3.703594952821731567e-02
2.895115688443183899e-02
1.698361933231353760e-01
1.862404793500900269e-01
-1.029741466045379639e-01
4.875982925295829773e-02
1.161480695009231567e-02
-5.202259868383407593e-02
1.920280754566192627e-01
-1.470446884632110596e-01
-2.259180992841720581e-01
1.392880640923976898e-02
8.496534079313278198e-02
1.811343431472778320e-01
-4.323111101984977722e-02
-1.378755718469619751e-01
1.635815575718879700e-02
-2.803116664290428162e-02
9.256765246391296387e-02
2.085912525653839111e-01
-3.077700920403003693e-02
-1.506460607051849365e-01
-8.018378168344497681e-03
9.079498704522848129e-04
1.400881260633468628e-01
-1.354594379663467407e-01
-2.059360593557357788e-01
1.489332169294357300e-01
-1.869767159223556519e-01
-6.524849683046340942e-02
5.552866309881210327e-02
-3.397887339815497398e-04
-1.821063905954360962e-01
-2.122628688812255859e-02
1.901072859764099121e-01
-9.916511923074722290e-02
-1.185582876205444336e-01
-1.300382912158966064e-01
1.001494079828262329e-01
1.673757284879684448e-01
-1.353071928024291992e-01
1.648304611444473267e-01
-1.347836852073669434e-01
1.061125248670578003e-01
1.450898051261901855e-01
-5.942528694868087769e-02
-9.221607446670532227e-02
1.120045632123947144e-01
-9.353514015674591064e-02
-1.663444912992417812e-03
-5.766403675079345703e-02
-1.140456646680831909e-01
2.071299850940704346e-01
2.163600474596023560e-01
-5.199924483895301819e-02
4.215941950678825378e-02
-1.424967348575592041e-01
-6.226193532347679138e-02
4.696952924132347107e-02
4.882452636957168579e-02
-1.332169026136398315e-01
-1.208477392792701721e-01
-1.619657725095748901e-01
-2.109868973493576050e-01
-1.204563863575458527e-02
-1.211488097906112671e-01
-1.050613168627023697e-02
7.003580033779144287e-02
-1.386416554450988770e-01
1.080338954925537109e-01
-1.915995590388774872e-02
2.614498697221279144e-02
-2.579953335225582123e-02
3.833156079053878784e-02
-1.001519635319709778e-01
-9.178015589714050293e-02
5.145956575870513916e-02
-2.366089448332786560e-02
-1.311550438404083252e-01
6.441405415534973145e-02
-7.816798053681850433e-03
-9.838824719190597534e-02
2.284976392984390259e-01
1.217008754611015320e-01
1.906221807003021240e-01
4.734202846884727478e-02
4.251874238252639771e-02
7.218962162733078003e-02
1.173725202679634094e-01
3.739200532436370850e-02
-2.091948240995407104e-01
-1.876698732376098633e-01
-1.750151515007019043e-01
1.084828004240989685e-01
9.660433232784271240e-02
1.781426072120666504e-01
1.896381676197052002e-01
7.754553854465484619e-02
8.066329360008239746e-02
-2.071234583854675293e-01
1.835843771696090698e-01
5.932429432868957520e-02
-1.252631396055221558e-01
2.307034879922866821e-01
-1.741295456886291504e-01
-2.810603938996791840e-02
3.274762071669101715e-03
5.787405371665954590e-02
8.922365494072437286e-03
-1.719957292079925537e-01
-3.105154260993003845e-02
-7.050157338380813599e-02
-1.805423200130462646e-01
2.093151956796646118e-01
7.552550733089447021e-02
2.069627195596694946e-01
-1.942632496356964111e-01
-1.591282635927200317e-01
-1.348383724689483643e-01
1.043442636728286743e-01
1.668351329863071442e-02
1.942356675863265991e-01
1.010494828224182129e-01
-1.138758063316345215e-01
1.239852160215377808e-01
1.550373435020446777e-01
-7.621819525957107544e-02
-6.958002597093582153e-02
1.112513914704322815e-01
5.257552862167358398e-02
2.361581325531005859e-01
2.960828505456447601e-02
1.152495108544826508e-02
1.005747914314270020e-01
-8.561757951974868774e-02
7.030469179153442383e-02
8.732066489756107330e-03
7.820944488048553467e-02
-1.484135091304779053e-01
-3.820942714810371399e-02
-1.052751168608665466e-01
-9.309385716915130615e-02
-6.318893283605575562e-02
-1.738813221454620361e-01
-9.737540036439895630e-02
-1.992012560367584229e-02
6.519223004579544067e-02
1.596732586622238159e-01
-2.315983623266220093e-01
-1.454117447137832642e-01
-3.463503345847129822e-02
-4.782576486468315125e-02
-1.594780534505844116e-01
-1.944273114204406738e-01
-4.706239793449640274e-03
2.240163534879684448e-01
5.548948049545288086e-02
1.464722305536270142e-01
-1.328271925449371338e-01
-1.150230690836906433e-01
7.888453453779220581e-02
4.189881309866905212e-02
5.023938138037919998e-03
-3.397722914814949036e-02
2.096401304006576538e-01
-1.548746973276138306e-01
3.407201915979385376e-02
-1.893066316843032837e-01
1.522213667631149292e-01
-1.092154681682586670e-01
-4.525298625230789185e-02
-6.598768383264541626e-02
-1.058677285909652710e-01
1.219242885708808899e-01
-6.554421782493591309e-02
-1.766817122697830200e-01
8.493275940418243408e-02
1.012620478868484497e-01
-9.619487076997756958e-02
-2.213183194398880005e-01
3.952770307660102844e-02
1.876766681671142578e-01
8.470710366964340210e-03
2.848826348781585693e-02
-8.638563565909862518e-03
-1.762446016073226929e-01
-8.861041814088821411e-02
1.974216103553771973e-01
-5.843828432261943817e-03
-1.007077395915985107e-01
-1.386415660381317139e-01
-7.773376256227493286e-02
5.128134042024612427e-02
5.784112960100173950e-02
9.493170678615570068e-02
-1.184930000454187393e-02
1.293747723102569580e-01
2.316770404577255249e-01
1.774757951498031616e-01
-1.287718266248703003e-01
1.152622862718999386e-03
1.498754918575286865e-01
1.499053649604320526e-02
-5.547342821955680847e-02
1.881208866834640503e-01
-1.598589420318603516e-01
-1.604686379432678223e-01
-1.132369041442871094e-01
9.172475337982177734e-02
-2.021350897848606110e-02
-1.060809865593910217e-01
-9.981111437082290649e-02
4.100800305604934692e-02
1.190254371613264084e-02
1.982512623071670532e-01
-1.854552328586578369e-02
-5.230276659131050110e-02
-1.746591776609420776e-01
-4.116308689117431641e-02
-1.578795462846755981e-01
1.732653528451919556e-01
-6.186546012759208679e-02
2.044424787163734436e-02
1.059655249118804932e-01
-6.911117583513259888e-02
-9.120232611894607544e-02
-1.649231612682342529e-01
-1.173022165894508362e-01
2.071793824434280396e-01
1.606990844011306763e-01
-1.402651518583297729e-01
7.939774543046951294e-02
-1.536146253347396851e-01
1.891382485628128052e-01
-7.166471332311630249e-02
-7.850630581378936768e-02
-1.740386784076690674e-01
1.939043998718261719e-01
1.160836890339851379e-01
-1.069366410374641418e-01
-6.947798281908035278e-02
-6.582121551036834717e-02
1.332451999187469482e-01
-1.149464696645736694e-01
7.935685664415359497e-02
9.243553131818771362e-02
-7.461738586425781250e-02
5.741715803742408752e-02
4.251702129840850830e-02
2.340171951800584793e-03
3.657609457150101662e-03
-1.026548519730567932e-01
2.009231783449649811e-02
-1.825470477342605591e-01
1.399679034948348999e-01
-3.069134801626205444e-02
1.245862171053886414e-01
-2.080163955688476562e-01
-1.286318004131317139e-01
-4.013074561953544617e-02
-4.041650146245956421e-02
-2.127086073160171509e-01
1.714646518230438232e-01
2.385634779930114746e-01
-1.579118967056274414e-01
1.158025264739990234e-01
3.391775488853454590e-02
2.294851094484329224e-01
3.269406408071517944e-02
1.476090699434280396e-01
-7.110996544361114502e-02
-3.391398862004280090e-02
2.246802113950252533e-02
2.295092940330505371e-01
2.374323159456253052e-01
-1.935375183820724487e-01
-4.626787453889846802e-02
2.604547142982482910e-01
6.042419001460075378e-02
-2.641469836235046387e-01
1.821500658988952637e-01
-1.673201322555541992e-01
-2.400149554014205933e-01
-2.764911949634552002e-01
1.297552734613418579e-01
2.523325979709625244e-01
-1.120978519320487976e-01
-3.362610936164855957e-02
-9.375704824924468994e-02
-1.371186375617980957e-01
-2.062479406595230103e-01
-1.523239612579345703e-01
1.712335087358951569e-02
-2.005127966403961182e-01
-1.863074675202369690e-02
1.570526361465454102e-01
5.375641956925392151e-02
-2.274253666400909424e-01
-1.044288203120231628e-01
2.408650368452072144e-01
1.020820513367652893e-01
-8.244083076715469360e-02
4.632835090160369873e-02
1.776410788297653198e-01
1.342412680387496948e-01
-2.126872688531875610e-01
-4.495467990636825562e-02
1.751372367143630981e-01
-6.136356294155120850e-02
2.742102742195129395e-02
-1.176040247082710266e-01
2.056423872709274292e-01
8.197012543678283691e-02
-2.289520949125289917e-01
1.902554631233215332e-01
-1.580553948879241943e-01
-9.893059730529785156e-02
1.236093193292617798e-01
-1.381846815347671509e-01
-6.539870798587799072e-02
-5.964982137084007263e-02
-1.527004241943359375e-01
2.348782271146774292e-01
-5.423295870423316956e-02
-1.028611138463020325e-01
9.693073481321334839e-02
6.641674786806106567e-02
-2.282807789742946625e-02
2.179088443517684937e-01
-1.780262142419815063e-01
-5.630572885274887085e-02
-1.954025030136108398e-01
-3.115668077953159809e-04
2.902210950851440430e-01
1.544459611177444458e-01
1.498321294784545898e-01
-5.010744556784629822e-02
4.509442485868930817e-03
5.357817187905311584e-02
-1.057123541831970215e-01
-8.644164353609085083e-02
-4.480366036295890808e-02
-1.037786304950714111e-01
-1.422970592975616455e-01
1.090327650308609009e-01
-1.590045392513275146e-01
1.676714718341827393e-01
1.686334460973739624e-01
2.265240810811519623e-02
-3.458582237362861633e-02
-3.810153156518936157e-02
